svm_type c_svc
kernel_type linear
nr_class 3
total_sv 115
rho -1.39757 -1.13137 -0.363578
label 0 1 2
nr_sv 39 44 32
SV
0.0004512158705888892 0.0002379596717213596 2:0.16929442 3:1.1361649 5:1.5123537 6:0.3103255 8:2.1786883 9:0.53739941 10:2.9448655 12:0.52291155 21:1.0588096 22:2.2043467 24:0.48772702 25:1.7487475 27:1.4962399 28:0.30593479 29:1.4777179 31:0.88001347 32:0.77632344 36:0.79336965 38:1.8187807 39:1.0578589 42:0.27731699 43:1.7771564 45:0.014102489 51:1.3617203 53:1.7439866 54:2.5739818 55:0.43074989 58:0.30145198 59:1.587534 60:0.82163179 63:1.2885599 65:0.733917 70:2.344497 72:0.74275494 73:0.21238062 74:0.64429998 76:0.054201186 77:0.5496788 79:1.770133 80:1.1885215 81:0.39735517 82:0.44023734 87:0.22866592 88:0.48468423 91:0.36458829 93:0.42433271 95:0.17658643 96:1.0004799 101:2.1618214 104:0.40625706 114:0.43312737 115:0.66403115 118:0.63291526 120:2.2206473 124:0.06705898 126:1.2253374 127:1.5217025 128:1.581558 129:0.72939384 131:1.4893196 135:0.6127708 139:1.5028901 144:1.5152225 152:1.0671972 157:0.76301217 158:0.70260406 161:0.074392498 165:2.3813977 166:2.8374619 168:0.084441245 176:1.302806 177:1.219963 178:0.092856765 179:2.1019011 182:1.8198193 183:2.8073361 185:0.7908262 189:0.56507558 192:0.58632249 193:0.16075043 196:0.36455357 199:0.066046953 204:2.6999741 205:1.7337047 206:1.2853435 207:0.78493339 208:2.4667344 211:1.8431928 214:1.2739011 217:1.3499929 220:2.8507435 224:0.64991826 226:0.51197922 227:0.67887175 228:1.0349112 229:0.15938056 231:0.48128751 238:3.1144593 243:0.0963085 244:0.70801622 246:0.37049061 247:3.3074675 252:0.11585802 253:0.61370945 256:0.13671011 257:0.074658334 260:1.0576091 261:0.0029632747 263:3.003773 272:0.56437582 273:0.39263833 274:0.53883028 276:0.75345337 278:3.2778275 280:0.032625258 281:1.5620813 284:0.075325191 287:1.728578 289:0.75383544 295:0.7506749 298:0.63338673 301:0.020072699 302:0.40158382 306:1.2901947 307:1.8218449 310:0.045617431 311:0.040244102 313:1.2136385 314:1.2702425 317:1.0428256 320:1.1639531 326:0.1157895 327:2.2358665 328:1.9809273 330:0.95796251 332:1.0169628 334:1.8635143 336:2.9607353 340:0.10590479 342:0.40054694 349:1.3001394 352:0.39527762 354:0.010668933 355:3.6507647 357:0.47332212 359:2.7192059 362:1.5632533 364:0.30302429 368:0.64538854 370:0.012190104 372:0.24140063 377:2.8043835 380:2.7531507 384:1.1080842 386:1.144774 388:1.0965559 391:0.4875021 394:3.9313469 400:2.3471696 403:0.38177669 408:3.1127846 411:1.0366969 412:0.13367847 413:0.04007715 421:1.4843035 426:1.5375538 428:2.6159434 430:0.015571177 432:2.5519428 433:0.6577518 434:0.89910507 440:0.65459263 445:2.1158271 447:0.87259477 454:2.3285923 456:0.66364777 458:1.1039803 460:1.3173254 464:0.38950968 465:0.28402293 468:1.5362151 469:1.6140244 473:2.6425393 475:2.7581375 477:0.033848614 479:1.3498682 482:0.36527449 483:0.4675307 486:1.9256659 490:1.2777767 491:1.4004186 498:0.02515322 499:0.56149316 500:0.63253844 502:2.1200335 504:0.29530555 505:4.5124111 511:2.023355 512:1.1951778 513:2.5348048 515:1.0379639 518:0.055918932 521:0.44395861 522:0.38046062 524:2.6778173 526:2.5302324 528:1.7295619 529:0.6879487 534:1.6027251 538:0.023801148 544:0.75409889 546:1.9878139 548:1.3914337 551:0.58494675 553:0.56731182 555:0.95145106 556:1.2918298 559:1.7232753 565:1.9838763 566:0.86302853 570:0.022501409 571:0.48021746 577:0.38353387 584:0.081184894 585:1.0255599 587:0.94443202 588:0.37792087 589:0.29983628 591:0.33673123 593:0.2097275 595:1.4904228 598:0.97370219 605:3.1488159 607:0.33643353 608:0.18073344 609:2.3672636 610:1.2883146 614:1.4963512 615:0.3715966 616:1.0099328 623:0.36263004 624:0.75638056 625:0.65959209 629:0.43469167 630:1.6508362 631:2.0405858 633:2.1245813 637:0.61687833 638:1.1381607 639:1.8006845 641:1.5784614 643:2.0310903 644:0.01418227 646:0.56612581 649:0.70864582 650:0.29544666 651:0.21689856 652:0.013227373 653:0.35755008 654:0.65126765 655:2.1043522 657:0.53475261 661:1.3655515 663:0.090964705 666:1.3004775 668:0.32065004 669:0.17827237 671:2.8575313 675:0.37055051 678:1.7466387 681:0.51014745 682:1.4907899 688:0.083265066 692:0.24756096 698:1.8745184 699:0.7333045 701:0.69926864 702:1.7510448 712:0.78095359 713:1.408718 718:0.52393728 721:2.9333344 722:0.20824909 723:0.91567636 732:0.40420002 733:0.45544073 738:0.042455077 743:0.70891589 748:0.7682001 751:1.0598248 754:3.436831 756:1.1922815 759:0.20412496 761:0.069281757 762:2.1451969 767:1.13042 768:2.9998243 769:1.0922318 776:1.5934548 778:0.24028555 779:2.806576 780:1.9188972 792:0.19279805 798:3.4749942 800:0.065732986 802:3.5217485 804:1.6420953 809:1.3959579 810:2.5174558 812:1.9165417 813:1.5946493 816:1.4684144 817:0.65785313 818:0.47337168 827:0.90773749 828:0.58486426 829:0.61382926 830:1.3882704 834:0.30021507 845:1.2351687 846:1.2359333 852:1.3870716 857:0.49638793 858:1.2079318 859:2.523186 861:0.9863618 864:0.51112115 865:1.3963261 866:1.3948581 868:2.8420112 869:1.4081279 872:2.6062789 877:0.28859925 884:2.3130178 885:0.71352983 887:0.91217035 888:1.3096092 890:1.1700847 891:0.51486164 893:2.4546838 894:1.4093436 895:2.2348928 896:0.27347875 897:0.090583712 898:2.8649752 904:1.440001 906:1.4477232 907:0.14525425 909:1.5261775 913:1.1157706 915:2.0065658 918:0.077681959 919:0.73407698 920:1.7185969 921:0.69714439 923:1.6097033 924:0.73875618 925:1.3967385 928:0.085929424 930:2.2628963 931:1.1278149 932:0.77398807 933:0.92716944 934:0.74440598 935:0.0031325519 936:1.4620383 944:0.28369248 945:1.4015615 948:1.8989172 949:0.64366895 953:2.6759272 955:0.10386449 957:0.11187676 958:0.38793951 959:0.38185638 961:0.37407768 962:0.10788745 964:0.51044941 967:0.91077131 968:0.030220151 969:0.35561097 972:0.91418093 975:0.030678332 976:1.0665401 980:1.264274 981:3.0191567 982:1.8301206 984:2.7803133 986:0.41317871 988:0.37231901 993:3.3803413 994:0.6469925 996:0.88616651 1002:0.30255353 1003:1.1289325 1005:3.1819229 1009:1.2162086 1010:2.4218483 1011:0.92069906 1018:0.79338604 1024:0.14389238 1029:0.91283977 1030:0.032614231 1031:0.44355732 1032:0.086415321 1033:0.59888172 1036:0.45363498 1038:1.0172622 1040:0.53961533 1041:1.2250664 1044:0.98965424 1046:2.2023437 1051:0.12762854 1052:0.36279094 1060:0.51857817 1062:0.49445733 1065:0.48837608 1067:0.061909556 1069:2.2722068 1071:0.92528534 1080:1.4752145 1082:3.1858656 1083:1.2834017 1088:2.9543493 1090:0.58504808 1092:1.0630105 1095:0.45726684 1097:1.2080373 1099:0.041814268 1100:0.61067021 1104:0.27998525 1106:3.6019573 1110:0.50247777 1113:2.958241 1114:0.4130919 1116:0.73540014 1119:0.69616002 1120:0.41814592 1121:1.0107625 1122:1.1002591 1127:0.33645001 1129:2.5889831 1131:0.47588199 1135:0.20906012 1137:0.047786176 1138:1.9766383 1139:0.36458001 1140:1.0967635 1142:0.62956059 1144:2.1785736 1146:1.1398469 1147:1.6574017 1148:0.0062397718 1149:0.87349296 1152:0.46385968 1153:3.2558055 1159:1.5422744 1160:0.18014333 1164:0.96921122 1167:1.1007466 1168:0.55447102 1169:0.06851095 1172:1.0680938 1174:0.012362391 1178:1.9685274 1186:0.38324663 1192:0.95010984 1193:0.27894849 1194:0.89874732 1195:0.30820543 1196:0.56018072 1199:1.3701966 1200:1.4137429 1201:0.10136417 1202:0.7610991 1203:0.9387762 1204:1.6323251 1209:1.8258727 1213:1.8958175 1215:0.58772475 1219:1.682426 1224:1.3614364 1225:1.2620971 1226:1.2235931 1229:1.9528733 1231:2.2415388 1239:0.83457601 1247:3.4184687 1248:0.62688369 1250:0.14245683 1251:1.9273849 1252:2.4269378 1253:0.20408309 1254:1.5103781 1256:1.5735062 1258:0.11276788 1262:0.98746729 1264:2.3909154 1269:0.35316449 1273:0.2916052 1275:0.85258198 1278:2.7837412 1279:0.25635952 1282:1.346683 1285:0.85135114 1286:3.283462 1288:1.1214218 1290:1.2103473 1293:0.84368813 1294:0.02556017 1297:1.711551 1299:1.2309084 1301:0.59138656 1303:0.8430407 1310:3.352262 1311:2.6404395 1313:0.96956629 1315:0.74705869 1316:1.1779721 1318:0.96630001 1322:1.5979036 1326:1.2914019 1328:1.3266598 1330:2.2059302 1331:0.021519005 1332:0.35546875 1334:0.90961546 1337:0.4893024 1340:1.5721185 1345:0.045393229 1351:1.2355359 1355:2.3062184 1361:1.220542 1362:1.3859537 1365:0.48457599 1367:2.7465825 1368:0.33304 1370:0.54479599 1371:0.62233877 1373:1.0412495 1375:0.63428932 1376:1.2646732 1389:0.2631613 1391:1.7391543 1393:1.5843544 1395:1.6868958 1396:0.57351941 1402:4.0142393 1403:2.2549129 1408:1.2412108 1409:1.9226943 1415:0.26280627 1416:0.07798329 1421:1.5832376 1422:1.0197761 1424:0.2385768 1426:1.7090242 1430:0.32233256 1431:1.8617986 1433:0.10530081 1439:0.28146195 1440:1.2769243 1441:1.1652534 1445:1.8554909 1447:0.53627831 1449:0.72709519 1452:0.93158376 1458:0.71419632 1459:1.1128418 1460:0.57829285 1461:0.19571176 1462:0.31212384 1463:0.86323404 1467:0.030043513 1468:0.26478845 1469:1.8657753 1472:0.1830591 1473:1.7230984 1474:2.2644815 1480:0.10926825 1482:2.1872568 1485:2.0819516 1486:1.1628201 1488:3.0946817 1492:0.18645689 1498:1.1458095 1499:1.004297 1503:1.0194809 1508:1.9192766 1509:1.8254545 1510:0.93890148 1511:0.85303378 1512:1.4328334 1513:0.10387054 1514:0.73036873 1515:0.064043611 1517:0.20633686 1518:1.0138502 1520:0.72505641 1525:0.42224705 1526:1.3738701 1527:0.1680516 1529:0.09645021 1530:0.698623 1531:0.22362353 1540:0.15209737 1544:0.38218376 1545:1.8177245 1551:0.077403277 1554:0.69783401 1555:1.9862505 1556:0.020330727 1558:0.037365556 1567:0.32732463 1568:2.4097722 1569:0.5998019 1570:1.8452554 1571:0.71686637 1574:1.5816327 1577:2.4976327 1578:0.49186546 1582:3.6152124 1583:1.8572029 1585:0.67827713 1591:2.0460887 1593:1.0675696 1598:1.4725305 1601:1.7380199 1607:2.7842233 1608:0.46731186 1610:1.2195046 1611:2.535876 1612:1.3215117 1614:0.90837795 1619:1.0025575 1626:2.6094396 1634:1.1014297 1635:1.7623341 1637:0.45103854 1638:0.25880545 1640:1.2979895 1646:1.3697917 1647:2.1888821 1652:0.58654827 1653:0.50124621 1656:1.3342289 1657:1.4908483 1658:2.3632085 1660:0.63714516 1662:0.63829517 1663:0.27700993 1666:0.25157201 1671:0.95179427 1672:1.5616221 1675:2.4620981 1676:1.4837332 1678:2.1984575 1679:0.82580566 1680:0.62291324 1682:1.3608446 1685:3.4702342 1687:0.26778841 1690:1.3016548 1691:1.6406441 1693:1.3295419 1696:1.6572737 1697:0.3723357 1705:0.058308125 1710:0.71762407 1711:0.36336297 1714:0.62995028 1715:2.0453229 1720:1.043756 1721:0.46464586 1723:1.6661087 1725:1.9324222 1726:2.3471878 1729:0.079687178 1731:0.6936174 1734:1.8338487 1741:0.3108671 1743:1.8419082 1745:0.27952176 1746:0.21126151 1747:1.9509774 1748:0.82477522 1749:2.1059895 1754:0.50978029 1755:1.6496019 1757:0.26996529 1759:2.9758487 1760:1.7109174 1764:1.73783 1768:0.92486519 1769:0.47902763 1771:0.71222293 1775:0.41568422 1776:0.37432265 1777:2.354588 1780:0.87464464 1782:2.4475219 1784:1.3944528 1786:0.15639849 1787:0.26837677 1789:0.27482125 1790:2.622483 1792:1.2313567 1794:0.99871206 1795:0.023646474 1796:2.1119986 1798:1.3494929 1800:0.49307698 1801:0.12088048 1804:0.51520014 1808:0.2012088 1810:1.1337485 1816:0.89781797 1822:0.75474823 1825:1.0477569 1828:0.085575491 1831:0.44701925 1834:1.0447927 1835:2.6239543 1838:0.66295218 1839:0.51673466 1847:0.021861911 1848:0.24152768 1849:1.2397504 1857:1.5329821 1858:0.024121344 1860:1.0343571 1866:1.5156356 1868:0.071331844 1869:0.097331762 1870:0.9768275 1871:1.3485763 1872:0.7354666 1881:1.3276203 1883:1.9024801 1885:0.40832269 1887:1.7624661 1890:0.29664189 1892:0.074539393 1893:2.0134156 1906:3.0719502 1909:0.2724604 1912:1.4103284 1913:2.4904974 1917:0.27034873 1918:1.4970092 1919:1.4987197 1922:1.0938263 1923:0.32046556 1925:1.0205491 1926:0.43456462 1928:1.4985324 1929:0.45626321 1935:1.9044694 1941:0.52396679 1943:1.2293417 1944:0.0085552335 1948:1.299605 1949:0.24978498 1951:2.0049281 1952:0.84326589 1955:0.082495272 1961:0.7256344 1965:2.0844071 1966:0.56723666 1968:0.17043576 1969:0.5014019 1971:0.58539408 1972:0.95604187 1975:0.62440133 1976:0.26267335 1977:0.98315883 1981:0.98004305 1982:0.88575584 1983:1.7933966 1988:0.68019533 1989:1.4158142 1991:0.48662874 1992:0.53067333 1993:0.8270036 1995:2.4932265 1996:1.0062207 2005:2.021682 2007:0.20908293 2008:5.0598388 2009:1.0666573 2010:1.2881323 2012:0.088084698 2015:1.0865272 2016:0.019910574 2019:0.13528368 2022:0.50711089 2024:0.79466748 2025:0.74322224 2028:0.12306583 2029:1.1421773 2030:0.1582998 2031:2.5610325 2034:2.7617135 2037:0.56667995 2039:0.53828716 2041:2.7756057 2043:0.89092499 2044:2.8734486 2050:1.7920189 2052:0.98067784 2055:1.5622406 2057:0.18065947 2058:0.33353686 2063:1.0185002 2064:0.8750205 2065:0.80526465 2070:0.25880218 2072:0.43622801 2075:2.0204139 2077:1.2592146 2079:3.0578837 2083:1.2757218 2084:0.44909245 2085:3.1592155 2086:1.2053893 2093:0.51836073 2095:1.0820085 2099:0.32481283 2100:2.4782846 2101:0.025313616 2113:0.91133499 2117:0.039807916 2119:0.69811684 2121:1.8520682 2128:0.97982168 2129:0.45507628 2134:0.42288756 2136:2.454813 2138:0.43356246 2139:0.31014764 2140:1.1864257 2142:0.79600036 2143:2.0665836 2145:1.3926187 2148:0.78843492 2151:2.6832581 2152:2.0365088 2158:2.0186172 2160:0.25190848 2163:1.9317067 2167:1.1640513 2168:0.057288021 2169:0.73126113 2170:0.99399137 2175:0.43737462 2177:0.5564819 2182:1.8645898 2184:0.81859934 2187:1.1287664 2195:3.8099296 2197:0.098420084 2200:3.0599437 2201:3.9361577 2204:1.8559963 2207:1.0895706 2209:0.69069284 2211:2.59587 2217:3.2200491 2219:0.12492311 2226:2.2739086 2227:1.5922379 2230:0.056320086 2234:0.31011897 2235:0.030198276 2236:1.534791 2237:1.3848499 2239:2.342128 2241:0.74078971 2243:0.68247688 2252:1.8467237 2254:1.2563299 2255:0.49788758 2256:0.99208856 2257:0.73628396 2258:0.18989739 2259:0.13763854 2260:0.075977176 2265:0.25105631 2271:0.28672245 2272:0.22833413 2274:0.25978822 2281:0.60995555 2284:2.9245155 2286:0.90073878 2289:2.8220613 2291:0.53669596 2301:0.36059615 2303:0.78513122 2305:0.80977207 2306:1.1699383 2309:0.23765501 2313:0.18799692 2315:1.8481324 2316:1.919246 2317:0.80420679 2319:0.36489043 2320:1.8658582 2327:0.33384842 2330:0.31866702 2332:1.1604942 2334:0.90604794 2335:0.065254807 2342:1.0915593 2346:0.18072414 2347:1.1628596 2348:0.0088018179 2349:0.99472344 2353:1.2183558 2355:0.44373518 2356:0.24354082 2357:3.372889 2361:0.63083851 2368:0.98691106 2369:0.071498394 2371:1.3257208 2373:1.1202757 2374:0.91828597 2376:0.94298077 2380:1.5242506 2381:0.27876297 2382:1.1895063 2386:2.8356032 2388:1.2903161 2389:0.75810742 2391:2.2887599 2392:1.0592713 2393:1.1268685 2400:0.50595629 2402:0.43525684 2404:1.8551297 2407:2.1061897 2408:0.82695425 2410:0.93514389 2411:1.574528 2414:0.87635583 2415:0.43236464 2421:0.3214353 2424:0.16257398 2427:0.47480887 2430:0.50467193 2431:1.8130589 2433:0.55314547 2434:0.42957276 2441:1.2250795 2443:2.3477459 2448:1.9553958 2449:0.67023951 2452:2.2377291 2459:0.39491194 2461:0.73995489 2463:0.68961924 2464:0.85914749 2468:2.8876565 2469:0.14422381 2475:0.38422313 2479:1.7525516 2481:2.1783979 2488:0.36190698 2490:0.097533971 2494:1.3578668 2496:1.2779398 2502:0.89348245 2513:1.5622494 2515:0.53768069 2522:0.57979143 2524:1.1487026 2525:3.2600894 2527:0.57964623 2530:2.217669 2531:1.5326691 2532:0.78506726 2533:1.9369169 2534:2.1891325 2538:0.77568829 2540:0.72336578 2547:0.45508611 2548:0.57074594 2549:0.0078572035 2551:0.86684299 2552:1.9229779 2557:1.4467964 2559:0.73644602 2560:1.9949557 2561:2.5121279 2562:0.43182909 2565:1.7093408 2567:1.2396642 2569:0.3169598 2570:0.3097288 2571:0.94353306 2576:1.0502801 2579:2.2061825 2582:3.65451 2585:2.4402349 2587:0.24990085 2589:1.2379758 2590:1.0277889 2593:0.90304661 2594:1.2160809 2598:1.1821787 2601:1.3372813 2603:0.14161283 2605:2.4400787 2606:0.46728957 2607:2.0683143 2608:1.3515692 2611:1.8725114 2614:0.32635906 2616:2.5227952 2617:1.7268163 2622:0.73037815 2627:0.39565247 2635:0.70650113 2637:1.3716158 2638:1.6576456 2642:0.52169418 2646:1.7814772 2647:0.11960018 2651:0.34562099 2653:0.38899496 2657:0.46608728 2659:1.5224817 2664:0.29136515 2666:0.51010215 2669:1.077237 2673:1.3557286 2675:0.33443242 2677:1.3915622 2679:0.81660485 2683:0.19513229 2686:0.2828778 2689:0.64873105 2690:0.80187201 2692:0.43027329 2695:0.65570366 2696:2.5121555 2697:0.41470212 2702:1.5591363 2703:0.46963423 2705:1.3807472 2706:2.1964788 2707:0.6172958 2708:1.5508859 2711:1.1453013 2713:0.011725664 2717:0.76928639 2719:1.4078566 2723:0.08784306 2726:0.31136596 2727:1.5315797 2728:2.2844303 2731:0.51718825 2737:1.4715326 2741:1.0914994 2742:0.46569258 2747:0.59222019 2749:0.56344438 2751:0.93204212 2753:0.58510768 2754:1.544018 2756:0.76543224 2758:2.1864815 2763:3.6264544 2764:1.217315 2769:0.015088677 2770:1.3882658 2772:0.77851188 2774:1.185441 2776:0.53722632 2778:0.52744257 2779:2.3569889 2782:2.3783877 2783:0.60319436 2785:1.5790287 2787:2.0327365 2789:0.50869852 2791:0.86141562 2794:1.1094806 2797:2.0849388 2798:0.79428673 2799:0.21503955 2800:0.27725285 2801:2.7062211 2804:0.29206604 2806:2.0994916 2807:0.75892645 2821:1.1274261 2822:1.838235 2823:0.8931973 2826:0.33510682 2831:0.33310664 2837:0.3890115 2839:1.9969912 2841:0.68838972 2848:1.6006083 2851:0.15350638 2855:0.15136322 2856:0.081240296 2857:1.3009791 2861:0.95699298 2862:0.59463799 2863:1.2568381 2874:0.96775478 2877:0.087537527 2880:0.83130813 2881:0.83055061 2883:0.058040708 2885:2.6631973 2886:1.0996292 2887:1.1793498 2889:0.18671736 2890:1.8714153 2899:0.9529078 2903:0.21847215 2907:2.5773706 2909:0.6053673 2910:0.40436462 2911:1.7171254 2912:0.075977445 2914:0.77927178 2916:4.8826928 2919:0.94996691 2922:0.017650008 2923:0.93868065 2927:3.4289703 2928:0.91197705 2932:0.28791738 2934:2.1855793 2937:2.2494607 2938:1.9758611 2939:1.5017798 2940:0.34683543 2941:2.0599005 2944:0.50049126 2958:3.5690317 2962:2.0157535 2964:0.73954111 2967:1.3028787 2975:1.2410755 2981:0.7362982 2983:0.096858144 2984:0.025713384 2987:0.28727692 2991:0.11449614 2993:0.33518389 3002:0.40717858 3004:0.70848513 3007:2.4831161 3008:3.0124331 3010:0.90327471 3011:0.048748076 3012:0.76184547 3013:2.7693968 3014:0.79906851 3016:0.6126737 3020:1.0155196 3027:0.6028111 3029:1.791976 3030:0.64193475 3036:1.098657 3037:0.38033393 3038:0.63985008 3042:0.47509268 3045:0.54526383 3047:1.7874269 3052:1.697859 3053:1.0915878 3054:0.38172713 3058:3.8326726 3063:0.49830759 3067:1.1653543 3068:0.87899816 3070:0.16981339 3076:0.61171401 3079:0.61189657 3081:1.3044541 3084:0.0032927394 3085:1.5070455 3086:1.8017678 3087:1.3213105 3090:0.081991911 3096:0.20005018 3097:1.0368844 3100:1.0001967 3104:1.4479072 3106:1.3704983 3107:1.9770024 3110:0.72490954 3111:0.42575219 3113:0.91566002 3115:0.19912146 3117:1.4011732 3118:0.22226249 3120:1.389328 3122:0.99542058 3124:1.9371216 3125:0.79465973 3126:4.6248474 3127:0.015066564 3133:0.21731852 3134:0.61002761 3138:0.74630797 3143:0.86319357 3144:2.2654207 3145:1.4288509 3147:0.0444839 3148:2.1973362 3152:0.29359815 3157:1.6890445 3158:1.2772453 3162:3.8323553 3164:1.5803089 3167:1.0623484 3169:0.83668017 3171:1.247822 3172:0.40797812 3179:0.18143475 3184:1.0479465 3185:0.012631714 3186:1.8790543 3187:1.346687 3188:2.4535651 3189:1.5789459 3190:0.93377268 3191:5.2691212 3192:3.2567649 3193:0.38535523 3194:0.28486225 3197:1.5204172 3199:3.1447754 3200:0.63941228 3202:0.25181317 3206:2.7097149 3207:1.1993111 3208:0.94537759 3209:0.75815797 3217:0.68306768 3218:1.0024879 3220:0.50016141 3221:0.97194874 3226:0.43648544 3233:3.1075764 3235:2.5878437 3238:0.21909201 3240:0.68509817 3241:0.59961867 3242:0.22867793 3244:0.26717064 3245:1.2591 3246:2.5611317 3250:2.2935514 3254:3.8951569 3256:0.26958328 3257:1.5082849 3260:2.3508985 3263:4.1205082 3272:0.77196062 3277:0.49215353 3278:0.71562719 3280:0.13214591 3282:0.13203603 3284:0.35055077 3285:0.45884371 3286:1.1568015 3287:1.7907171 3289:0.54260325 3290:3.1941202 3292:2.3913116 3294:1.3012292 3298:1.6289725 3302:1.8277178 3306:0.48414075 3309:2.5569749 3310:2.5751574 3311:0.64985001 3314:2.6881995 3316:1.976053 3318:3.0064459 3320:0.72892946 3321:1.4944685 3325:1.0318203 3328:2.1017334 3334:1.1287056 3336:1.8761768 3338:2.9659905 3343:0.89632136 3348:0.48087421 3349:0.27588293 3354:0.51815665 3355:0.48682213 3361:0.49692073 3363:0.49820569 3364:0.39264384 3370:1.4901781 3374:0.30115443 3375:1.4938419 3378:2.2059214 3382:0.96251768 3384:1.3893638 3387:1.0649451 3391:0.38891071 3394:0.12844247 3395:0.9548682 3400:1.3384798 3406:0.82192481 3411:0.28513166 3415:0.60563517 3416:0.26854864 3417:2.1425192 3418:1.1537462 3421:0.55476671 3426:0.0092486143 3428:0.25210312 3431:0.74580014 3433:0.95947576 3434:0.91469359 3436:3.471776 3437:0.47675723 3438:2.4034257 3439:0.32496157 3441:0.50418204 3442:2.3546557 3443:0.15942934 3447:2.9516249 3448:0.8346678 3449:0.46861365 3450:0.5444721 3451:3.2360413 3453:0.44928083 3454:0.87190032 3455:2.0632403 3456:1.3602765 3463:0.5997448 3465:2.5868864 3466:0.57114536 3467:1.5592902 3471:0.14848045 3475:2.104044e-05 3476:1.2800756 3477:3.704354 3482:1.8463808 3483:2.880455 3486:0.98763919 3494:1.5231359 3495:1.1207547 3496:0.72864068 3502:0.56874627 3504:1.5835319 3507:1.2120688 3510:0.24737239 3511:1.6341844 3522:2.3890958 3523:0.35178399 3528:1.8240528 3530:0.04969576 3532:0.41908029 3534:0.12345219 3536:0.50850821 3537:2.8972404 3542:0.38811582 3543:0.71869028 3545:0.92026484 3547:0.61510348 3556:1.4644065 3563:0.050912142 3565:3.891649 3567:0.051852226 3569:0.067703575 3571:0.8279627 3580:0.21903628 3583:0.030017197 3586:0.40933269 3587:2.3556106 3589:0.21376032 3590:1.4818659 3592:1.0247718 3595:0.90040255 3602:0.040697962 3603:0.293596 3604:1.5077682 3605:0.2436606 3608:2.0090966 3609:1.6306108 3611:3.7209966 3614:2.4274795 3619:1.1886379 3621:1.0816594 3622:0.30759251 3623:0.091342166 3624:2.0565701 3625:1.7858126 3626:2.5779865 3627:2.2828705 3628:1.6568838 3629:0.16611528 3631:0.65409118 3633:0.033375859 3634:2.0387309 3636:0.86957788 3638:1.2228398 3640:2.4181538 3644:0.18207961 3647:0.56811666 3650:0.88326949 3652:0.081639796 3659:0.23473617 3661:2.9820697 3662:0.2420738 3665:0.42869949 3667:3.6114011 3672:1.0383906 3674:0.64932752 3675:0.25446337 3679:1.3889967 3682:0.32515931 3684:0.21662256 3689:1.0205638 3690:0.3622956 3694:1.8537186 3695:2.7230046 3697:2.5999744 3701:1.1182585 3705:1.2045717 3706:1.8691208 3712:1.4224825 3716:0.15002871 3718:1.5891575 3724:1.387778 3725:0.11620969 3727:0.91916871 3728:2.5237374 3729:0.51229346 3730:1.8582318 3732:0.44477445 3733:1.6559579 3734:1.8559468 3737:1.0018047 3740:0.48426691 3742:0.78933704 3743:0.81973022 3744:0.80027205 3750:0.93185234 3755:0.077523947 3757:0.09236908 3759:0.92713767 3763:1.1025238 3765:1.7144251 3766:0.56175196 3767:0.90370983 3773:0.97012049 3774:0.50345606 3775:1.7094846 3778:2.426363 3779:0.95795107 3781:1.7153797 3782:2.4267883 3783:0.07249254 3785:0.79787815 3786:0.3047913 3788:0.02984494 3789:1.7587039 3790:2.9248035 3791:1.3723719 3793:0.35438168 3795:0.82001883 3796:1.0985961 3797:2.0986185 3801:2.5467124 3803:1.5549335 3804:1.2977045 3805:0.54889995 3807:1.2162929 3808:1.6594249 3813:2.3002443 3814:1.3853496 3816:0.82939619 3819:0.97905004 3821:2.1237655 3825:0.95900297 3828:2.329325 3831:0.32218844 3842:1.0836654 3843:0.98666036 3844:1.6629699 3847:3.4820642 3850:0.78196526 3853:0.063859642 3855:0.65043902 3857:0.25068939 3858:2.4052939 3863:0.64583606 3865:2.0951219 3867:2.1268997 3869:1.5109502 3870:0.072545648 3871:1.9995358 3874:0.88638973 3878:0.72177511 3880:0.4713645 3885:3.8981428 3895:0.26144853 3896:1.8969302 3900:0.8293184 3903:2.6574187 3904:0.9042238 3905:1.0793523 3906:1.0093611 3910:0.53361672 3911:2.9347496 3913:0.55663735 3914:1.4765689 3916:2.2267971 3917:1.5385544 3919:0.95117629 3920:1.4544001 3924:0.94869232 3926:0.066676915 3927:0.26419616 3929:0.19830388 3931:0.017660499 3932:1.6218421 3934:0.081635654 3941:3.1186068 3946:1.050791 3947:2.2685161 3948:2.375402 3960:0.12288263 3961:0.51647115 3962:2.2941749 3963:2.4239261 3965:2.6726635 3968:0.49365398 3970:3.6497765 3972:1.0865165 3973:0.73396897 3976:1.6465409 3979:0.71518075 3980:0.45386288 3982:2.430162 3985:0.39867881 3987:0.94201684 3991:1.5186405 3994:1.9500462 3997:1.4287294 3998:0.86107743 4001:0.053170264 4004:1.4622083 4006:0.66603929 4009:1.4828506 4010:1.0444988 4012:0.78410679 4013:1.325586 4019:1.1561425 4021:1.5743842 4023:0.95244324 4024:1.2060883 4027:0.17376202 4028:2.6457944 4029:0.59695488 4032:0.55557835 4033:1.2317848 4034:0.80279839 4036:0.74473214 4039:0.36393785 4040:0.62564391 4042:1.2577429 4050:2.112319 4058:2.642225 4065:0.47593293 4066:2.7822556 4068:0.14705384 4069:0.51182115 4071:0.5955559 4072:1.6475343 4073:1.0967746 4075:0.47644845 4086:0.81075186 4087:0.28858274 4096:1.3204917 
0.0006307936067958825 1.66842827491183e-05 3:1.2694397 6:3.8156028 7:0.38838756 8:1.7265766 10:0.90434349 17:1.0655296 20:0.098871797 21:0.61405134 25:3.5053713 26:1.013419 28:3.0594265 31:1.3225241 35:1.1424171 38:0.53902149 39:0.89613855 47:1.0706806 51:0.84255123 53:0.68832552 54:0.02257818 58:2.5887289 60:0.6330564 63:2.6460724 66:2.0224941 68:1.7445958 69:0.10333982 72:0.64727044 74:1.0490532 76:6.787199 77:1.8140159 80:0.68706781 82:0.45219269 87:3.537982 91:4.0320125 93:1.2398809 95:0.20675874 97:0.21486753 100:2.4145885 101:0.61946112 102:2.5572853 103:2.4825687 110:0.38891491 112:0.79232049 114:0.92114091 117:0.22170117 120:1.3312814 122:1.8412689 123:0.22795755 126:1.0729637 127:0.30127582 128:1.0202634 129:3.3466361 131:1.4152793 136:1.1122249 137:0.41351932 138:1.9474068 141:1.1882899 150:1.5100807 151:1.7469392 154:0.1346806 158:1.1804396 162:2.3737197 163:0.61837339 165:3.5541081 166:1.7830338 167:0.33531302 175:0.16364756 177:0.56296492 178:0.51614678 182:2.7550621 183:2.5394213 185:0.62039107 186:4.254065 187:4.5555873 192:0.12000877 195:0.36939031 198:1.5154883 201:1.9297451 203:1.1111376 206:0.20800501 208:3.6649771 215:1.8355725 216:0.39821672 218:2.220623 219:1.3979357 220:0.64876539 221:1.9119322 224:0.87460947 226:1.7291433 229:0.99745595 231:1.0377142 235:1.9440948 237:0.94648772 238:1.7221023 240:0.33993819 242:0.068406731 244:2.3759797 247:0.23452711 249:0.43021423 254:1.3284888 256:2.3031874 257:0.90473962 259:0.20234627 260:0.043263614 261:0.020370841 263:2.8418 265:0.46033549 268:1.3904461 270:1.5854578 271:1.2032744 278:2.8045418 281:1.2029487 288:0.89597327 290:2.4090607 292:2.3160291 295:3.7181654 298:0.73148441 300:1.1937014 301:2.4924526 305:1.6522946 306:3.0522928 307:1.3649117 308:1.9962585 314:1.7493589 317:2.9928801 320:0.27430531 323:1.1556081 330:0.0087615252 332:1.2981896 334:1.1893005 336:2.0040567 337:0.49185914 341:0.42313713 349:0.200629 350:0.89884996 354:2.7899108 361:2.6692717 363:0.22904566 366:0.7572481 371:1.3026891 373:1.2202379 377:0.5407697 380:0.47491553 383:1.7845025 384:0.13594547 386:0.62002838 387:2.1503229 390:0.37787735 394:2.5368505 399:0.33908209 401:0.083490461 407:0.1042347 410:1.2397717 411:1.9283247 417:0.79849792 418:1.2869884 421:2.2418814 426:1.9599633 429:1.3870169 432:0.73688722 433:0.053749353 434:0.058022618 438:2.6262581 442:0.89945692 445:1.5830348 446:1.1858871 450:0.85374993 451:0.42098057 452:2.0625262 454:0.52755094 455:1.2476376 460:1.1322671 462:2.5255256 464:3.5407767 474:2.7516856 477:2.7520981 479:0.51806498 480:0.43107677 483:0.088212371 484:0.46119732 485:1.1660669 486:1.015934 495:0.95185345 497:0.093476593 500:0.6664995 505:0.72112226 509:0.82481116 511:0.99434674 518:0.65791869 519:0.46488088 520:1.6633186 521:1.2800586 524:1.5542362 529:1.4340224 533:3.3038485 534:0.58575869 535:0.89743996 537:2.4311509 542:1.4251857 548:1.0654416 550:0.18942982 554:2.1235332 556:0.24671516 559:2.4015808 560:0.87308067 565:0.95844746 566:1.1802419 568:2.8397408 571:1.6311274 577:0.25531703 581:2.1033401 582:0.38035268 584:1.3979547 585:2.6673145 587:1.3012739 592:1.5350564 594:1.1482744 595:0.11915472 599:1.7278311 602:0.64727348 609:0.17601079 610:1.1125659 614:1.2145097 616:2.0974851 622:0.99445868 624:4.3754549 630:2.6731992 631:1.4463637 632:1.8077796 634:0.29820997 637:2.8457179 638:1.5319327 641:3.1201291 646:1.3385613 649:2.5198021 650:0.2965233 651:0.59560996 652:3.562737 654:2.3093078 655:0.62279034 661:1.1695968 664:1.3867123 665:1.7131121 667:0.21317708 671:0.018196881 682:0.15299344 685:1.4633175 692:2.8369148 697:1.3529816 698:1.2607503 699:2.0731101 700:1.0492181 701:0.73456681 702:1.4449801 704:1.2043779 709:0.7227751 710:0.90936375 712:0.47522375 713:0.76358163 714:1.6923751 717:0.073015213 721:0.51891458 724:1.4764266 727:2.6830587 729:1.8331782 732:0.49797165 733:3.7725122 735:3.2307224 739:0.31286725 740:0.15348813 744:0.071407795 754:1.5399861 759:0.12303108 760:1.0993091 763:0.44043303 767:1.6830138 769:0.61630714 776:2.4178884 779:0.59921694 782:0.34496719 786:0.58102483 788:1.1044019 793:0.74158561 796:1.4909883 797:0.45153141 798:2.9143858 800:2.7360282 801:0.0013953447 804:0.30913019 805:2.1382153 809:0.25034267 810:1.0949094 814:0.20976225 819:0.092276216 822:0.34840989 830:0.65922523 831:1.9701768 833:2.0179286 838:1.3886406 841:1.0698349 845:0.63905239 847:0.54272175 848:0.57386887 849:3.2599316 852:2.2565787 856:0.81727773 861:0.53396308 862:0.78903824 866:0.77352434 872:2.1799297 881:2.0832052 886:1.25594 888:3.125819 890:1.2508193 894:0.54892761 895:2.0594287 896:3.8941901 898:1.9927312 903:0.57025009 906:2.5245364 907:2.371208 912:2.198736 915:3.23827 920:2.5998969 922:1.1191187 924:0.23648167 930:1.6909295 937:1.3599957 944:0.74037242 945:3.0785789 946:2.6364071 949:1.3650818 953:3.7035017 960:0.71001083 961:1.2281539 964:0.63348699 966:0.30353832 967:0.22986327 970:0.055921614 971:0.36373544 975:0.12317351 977:1.1105855 982:2.0906696 984:3.1102457 988:0.21745843 989:0.86915004 992:2.2392464 993:1.6976768 997:0.1288251 998:0.71263766 1000:0.53640699 1003:0.77936739 1004:2.3860407 1005:0.043080568 1007:1.6067202 1009:1.1480675 1015:0.47984675 1018:2.0281045 1024:2.5775552 1026:0.087147474 1032:1.7054521 1035:0.4060891 1036:0.94264972 1039:0.38591141 1041:2.6739061 1044:0.94949639 1047:1.2840489 1052:0.14430171 1054:2.0713277 1059:3.231261 1060:2.1683567 1062:1.3552554 1065:0.19137695 1071:2.4275291 1074:0.62486362 1075:1.4163636 1077:0.71169436 1079:0.30968201 1080:0.48329142 1082:3.3235788 1096:1.1678801 1099:0.20069578 1103:1.9198616 1104:0.58579952 1105:2.6968517 1106:1.6611472 1117:0.79289114 1119:0.58891994 1120:3.221976 1121:4.7060575 1122:2.0131452 1127:1.0255686 1129:1.5109264 1130:0.50937045 1131:0.31644908 1132:0.075778812 1133:0.89259684 1135:3.0330667 1137:1.0515968 1139:1.2611845 1142:0.11628509 1146:0.159096 1147:1.0274726 1148:2.5371027 1152:0.96666646 1163:3.6971457 1164:1.6876272 1166:0.20357081 1170:0.011490762 1173:0.092304468 1179:0.79361892 1188:1.9279482 1194:0.71347034 1195:3.3405275 1196:0.17219821 1199:0.01780957 1202:0.74679887 1203:2.3106523 1204:0.79409772 1206:0.58012569 1207:2.2856255 1210:0.71249175 1212:1.3728687 1215:1.8296785 1217:2.0393744 1218:0.60110497 1219:0.90830451 1221:4.2405238 1224:0.72604787 1225:0.69191366 1229:1.4332677 1239:2.2613184 1240:1.7669665 1244:1.1140336 1250:1.926249 1252:0.52184707 1254:2.3223379 1259:0.5382672 1264:4.2443099 1265:1.6506438 1281:2.7158656 1286:1.5529864 1287:0.0028044283 1288:1.026283 1290:0.52472454 1296:2.2688301 1297:0.5010398 1299:2.9901557 1308:0.91269875 1310:4.6982183 1311:0.813407 1314:1.2748419 1316:0.81237924 1318:3.6425195 1326:1.2011492 1327:1.1511502 1328:1.781105 1330:1.488701 1331:0.55008841 1332:1.4190927 1339:0.62179077 1340:1.485956 1342:2.4802368 1343:0.86367661 1348:0.083938241 1351:2.1006291 1355:1.0963316 1356:1.2782388 1358:0.18764436 1359:1.8827045 1362:2.3501217 1366:0.059863836 1367:0.84256649 1368:3.2282534 1371:1.0556637 1375:2.7964773 1376:3.7164671 1377:1.1214867 1389:2.9274962 1390:0.52418703 1392:4.6352243 1395:0.62166792 1398:0.8194629 1399:2.4837711 1400:0.51965308 1402:1.3911605 1407:0.96341187 1408:0.44992185 1409:0.133412 1412:0.2564888 1414:1.6499054 1415:4.4303145 1421:2.729013 1423:1.8608857 1424:1.1100707 1432:0.86204112 1433:1.0711789 1440:2.7994394 1445:2.3043191 1448:1.45772 1449:0.68956137 1450:0.5987162 1451:1.6485434 1454:2.5831904 1456:0.13142622 1457:0.40962595 1458:0.45721078 1459:2.2551472 1463:1.6361336 1469:0.92001754 1474:4.1287217 1482:1.6921493 1483:0.42087024 1485:1.1213928 1488:0.53267455 1489:0.55766112 1496:0.35096666 1499:0.65778232 1500:0.024647057 1502:1.7142534 1507:3.1545269 1508:0.91638112 1513:3.0866127 1514:0.52005339 1517:0.62207317 1519:0.72999251 1520:0.81315511 1524:0.81203312 1525:1.7036693 1526:1.6207812 1531:0.31888393 1544:0.24390903 1545:0.026342303 1553:1.5976048 1554:1.3306129 1556:1.22656 1558:0.95811439 1559:0.72095573 1563:0.82696944 1566:2.3126864 1573:0.32593048 1575:1.1935042 1577:2.1705384 1581:0.9388268 1582:0.68222785 1583:1.2785208 1591:1.17407 1592:1.6012595 1601:4.109705 1607:1.8536613 1608:1.1670587 1610:2.058001 1611:4.3950181 1614:0.77642047 1617:1.2008295 1620:0.96987164 1633:0.2023737 1636:1.5246563 1637:2.6140714 1640:3.4436381 1642:1.4609978 1647:0.68066728 1648:3.0585072 1656:1.648531 1657:1.4964007 1671:0.92368698 1672:0.35196957 1678:3.0333345 1679:0.56742656 1682:0.33608237 1683:0.99959308 1687:0.94597471 1693:0.15209824 1694:2.4046359 1696:0.8928737 1697:1.6068329 1700:2.4095135 1703:0.51464409 1704:2.3195484 1705:2.0382004 1706:0.47469687 1709:0.73938966 1710:2.3900542 1715:1.8899596 1721:1.577327 1723:2.4785659 1725:1.7580957 1726:0.59061599 1727:1.6530555 1728:0.72983289 1733:1.9754655 1734:3.504174 1735:1.7105017 1738:0.93379694 1746:0.2967816 1747:0.78292298 1748:0.73592949 1751:1.8772807 1752:0.51264971 1759:0.40537378 1760:0.57551479 1763:0.22287786 1771:2.1152148 1773:0.16768306 1775:0.57266986 1776:3.9666748 1777:0.081213534 1780:1.666348 1781:0.60985607 1782:1.3202791 1783:1.7382598 1784:1.2269672 1791:1.463251 1793:1.6459616 1794:0.70042622 1796:2.2650523 1799:0.85852796 1805:1.0260082 1806:1.1435835 1807:1.9199721 1809:1.0762954 1811:0.13403416 1816:0.88852358 1825:2.136446 1826:0.49162981 1831:0.79599082 1835:2.001344 1839:1.8349113 1843:0.79727244 1845:1.2568092 1846:0.76800549 1847:0.088180959 1850:1.011735 1854:1.7487943 1860:0.66825867 1861:4.0259304 1867:2.1209207 1869:1.8994033 1870:0.6680761 1872:1.510576 1873:2.4985852 1878:1.5760348 1887:0.30627203 1890:1.4101906 1894:0.19858387 1900:0.061045438 1903:2.2827737 1911:0.056167632 1918:1.3155954 1919:1.1785722 1923:0.56713951 1926:0.17069459 1928:0.45279109 1933:0.87248147 1934:1.8981078 1943:1.1421522 1944:0.96367997 1945:2.6854436 1948:0.22731027 1949:1.3766974 1952:2.5176799 1954:0.54949522 1962:1.8877033 1963:2.0058963 1967:0.28940833 1970:0.25407988 1971:0.40422165 1972:0.38840565 1973:0.37663454 1976:1.0348945 1977:1.6815827 1979:0.41002318 1981:0.49004441 1983:1.8605871 1986:0.75119132 1987:0.11336094 1988:0.20675164 1992:4.4898734 2003:4.2976074 2010:0.55484033 2014:0.14045733 2023:1.7739248 2030:1.5981582 2033:0.30436555 2035:3.2116501 2037:1.4669042 2038:0.2385534 2043:1.1586044 2045:1.7138126 2046:0.091866553 2052:1.1771904 2054:0.35941255 2055:1.3866082 2056:0.77067834 2057:1.4972758 2061:0.3714059 2068:0.25519788 2069:3.3525302 2070:1.3837389 2075:1.3706692 2079:2.2205148 2082:1.0829551 2085:0.57503766 2092:1.8066505 2097:0.9660176 2099:1.8435514 2100:1.3964586 2110:2.8811011 2118:0.28733134 2125:0.30898869 2134:2.3114614 2136:0.63145733 2138:1.3856686 2140:1.4587617 2143:1.2245151 2148:0.3336612 2149:1.026463 2150:1.3947215 2153:0.55780035 2159:0.90793598 2165:2.2503717 2168:3.3963218 2169:0.58367962 2171:0.39780062 2177:1.261215 2178:2.2073693 2181:0.41693684 2183:3.8349924 2189:0.6260317 2191:0.88365048 2195:0.86838877 2196:1.3749428 2197:2.7715929 2200:1.1687551 2203:2.4722784 2206:0.6185838 2207:1.355226 2209:0.67458856 2211:3.312103 2213:0.34409755 2218:0.70263928 2221:0.054994643 2223:2.5807736 2231:3.3082366 2232:2.0311821 2236:0.24734002 2237:0.84248197 2238:2.9548526 2239:0.12556025 2243:0.5086242 2244:0.22410481 2248:0.57594252 2249:1.0758361 2250:1.6951249 2252:0.25115725 2255:0.65601802 2256:1.1037624 2257:1.4014237 2260:1.1589593 2261:1.9973501 2263:0.16080289 2270:2.5856314 2271:1.1562394 2272:0.87171906 2274:1.3359888 2278:0.054801881 2282:2.8467307 2284:0.40892833 2286:0.82081056 2291:1.2849717 2293:1.8864731 2302:0.42357105 2304:2.2529826 2305:1.2462168 2306:2.6094348 2308:1.0793226 2312:2.4317398 2313:3.3747494 2315:1.0320714 2316:2.2093949 2317:0.9516542 2321:0.24856204 2322:2.9248571 2327:1.1055417 2332:1.0560546 2333:2.4701743 2334:3.2154126 2336:3.4373705 2338:0.35871512 2346:2.0341482 2349:0.94516349 2352:3.341296 2354:1.1632558 2355:3.4840679 2357:2.1328063 2360:0.060346484 2362:0.5175513 2366:2.5866609 2367:0.38912269 2370:2.8441997 2371:1.4222904 2373:1.595475 2383:1.4823718 2389:2.3500321 2398:2.0434358 2402:1.0543473 2404:2.4640751 2408:1.4428405 2410:2.0138516 2411:2.1096601 2412:0.76708841 2419:0.26546803 2420:1.1241424 2422:1.7033628 2423:0.27892873 2424:1.6489991 2426:2.674159 2427:2.0344307 2431:0.91698062 2434:0.030662298 2441:0.21970326 2442:0.30838579 2448:0.4945327 2452:2.638525 2460:1.1451706 2463:0.16979292 2464:2.8901649 2468:0.65572548 2470:0.072268575 2476:0.071719408 2482:0.88923109 2484:1.071244 2492:0.3269569 2494:1.3143953 2496:0.50808614 2499:0.21282315 2500:2.1000528 2502:1.0519533 2503:0.86539614 2506:0.23165682 2508:0.72826982 2509:1.1657276 2515:0.99814868 2524:3.0486741 2525:0.37263697 2527:1.8876898 2531:1.470013 2534:0.62564492 2538:1.1690117 2539:1.1021374 2540:0.17960346 2541:2.1297355 2542:0.74593335 2550:1.1107677 2551:3.2949283 2552:0.45036438 2554:2.0966718 2557:2.5192976 2561:0.82101393 2562:2.8415961 2564:0.15201814 2567:2.9696729 2569:0.81417477 2570:0.19367906 2575:1.4337025 2576:0.54897499 2582:1.2060527 2585:0.81533283 2586:0.39374459 2591:0.94987392 2597:2.6325841 2598:3.1287029 2599:3.8699498 2601:0.50864232 2603:0.31944597 2605:2.3405142 2607:0.51585728 2611:1.5873446 2612:1.6801383 2614:1.2714244 2616:1.7262037 2618:0.015001282 2621:2.273067 2623:0.28422922 2624:0.19120835 2628:0.85229862 2630:1.7583319 2635:2.0309715 2640:0.8798219 2641:2.4306605 2647:0.13584518 2651:1.9127522 2655:0.22485916 2659:1.3316846 2668:0.19207513 2669:1.3449347 2670:3.8715656 2673:0.33466077 2675:0.2763198 2678:0.92140925 2679:0.70329708 2680:0.43166301 2682:0.70936668 2683:3.5393164 2687:0.38381246 2689:1.8877108 2695:0.93685913 2697:0.89830929 2698:0.49838659 2700:2.9833174 2702:0.95113444 2707:3.0365436 2709:0.78516912 2716:1.1085298 2721:2.0756843 2723:1.3724172 2728:1.6397958 2730:0.002179265 2731:1.0124888 2734:1.7840458 2737:0.25944886 2739:0.12323707 2741:0.44495687 2747:3.6580813 2749:3.237987 2751:0.57016313 2756:1.3707279 2757:0.75762951 2758:0.59924293 2761:0.29931071 2762:2.6807833 2764:2.1279681 2766:0.36269939 2772:0.26434803 2773:0.19950995 2776:1.1822153 2778:1.2800846 2779:1.7720166 2781:0.46476644 2782:2.5927296 2787:0.74790466 2789:0.97797859 2796:0.12801766 2797:0.54462874 2801:1.7763629 2804:0.50491738 2814:1.6204662 2815:3.796046 2818:2.9539905 2819:0.63731837 2821:3.4329982 2822:1.5975456 2828:0.72461283 2831:1.8170191 2833:2.3504829 2837:0.34703514 2841:1.92738 2843:0.21401821 2846:0.54563874 2853:0.15984645 2854:0.85727018 2855:0.34974027 2861:0.78845721 2862:0.89252645 2863:0.69987541 2867:0.97888982 2871:0.095188916 2873:2.0000467 2876:1.195503 2877:0.44910717 2878:2.2183061 2880:0.78834146 2885:1.5459352 2886:0.80380541 2887:0.38953701 2897:0.69119579 2899:2.5131342 2905:0.71082699 2907:2.4973726 2909:0.90925092 2910:1.2305217 2911:2.8496447 2918:1.3241951 2919:0.42230642 2922:1.7027564 2924:0.84947169 2927:2.80128 2928:1.5093198 2930:0.60013294 2931:2.0472348 2935:1.7066414 2936:3.1297393 2937:0.23891418 2939:0.48471552 2940:0.7233941 2948:0.68852669 2949:3.9771233 2958:2.3093195 2966:0.84421504 2975:0.75252283 2977:1.0160326 2978:1.0828587 2985:2.7954185 2986:2.7748713 2991:0.0052985549 2992:0.20372236 2993:1.6448898 2998:0.42583635 3000:1.1482264 3005:0.44218457 3008:2.1908698 3011:1.2523905 3014:1.976941 3020:1.0517716 3028:1.826683 3033:0.015334606 3036:1.5884213 3037:0.57437634 3038:0.51065677 3041:2.1899905 3047:1.1148826 3049:0.64838368 3052:2.1332722 3053:0.16332617 3054:0.76448536 3057:0.45017564 3058:0.10628527 3063:2.4777904 3068:0.63394028 3076:2.0351298 3079:3.6220791 3082:0.56937981 3084:1.3219202 3085:2.0051332 3091:0.71746874 3097:1.0471123 3099:1.0561526 3102:2.5495772 3105:0.31090325 3106:2.5760643 3107:0.9231227 3113:1.8081263 3114:0.98620701 3120:2.3202844 3126:2.7548664 3128:0.12316152 3130:1.8388979 3134:1.9805435 3138:0.31223485 3144:0.8590169 3145:0.92884219 3146:2.3236172 3148:1.3332415 3149:1.5205282 3152:0.74116874 3155:1.6621832 3156:0.9079988 3159:0.69697809 3162:2.1895154 3164:2.5498939 3167:0.59695745 3171:0.057773143 3174:0.6874609 3182:1.2400793 3184:1.1264577 3186:1.9921019 3187:0.21679649 3191:3.8528352 3194:1.3729386 3196:3.882653 3197:0.602274 3198:2.2503023 3199:1.8386035 3202:1.5226883 3206:0.73157477 3207:0.38020459 3208:1.74067 3212:0.017903864 3218:0.97133076 3220:0.69790703 3222:4.9881916 3223:1.7582359 3225:0.95959079 3228:0.48968685 3233:3.0763738 3236:1.0029099 3237:1.098884 3238:0.39282399 3240:0.70688784 3242:1.4563909 3243:0.79440904 3244:2.2450304 3254:0.14390454 3256:2.9664106 3257:0.69858742 3259:0.34428802 3268:2.1039088 3269:0.2641938 3271:0.0032251477 3273:1.5739436 3276:0.087305278 3277:1.7113528 3278:1.0941464 3284:0.011375785 3287:2.3921864 3288:2.1794367 3290:0.0030813813 3292:2.708137 3294:0.016053975 3296:0.64491701 3298:1.5431124 3310:2.8924811 3314:0.46180695 3316:2.2152543 3317:0.31286258 3319:2.3684754 3320:0.83554751 3322:0.6058197 3324:1.0097106 3325:1.6734469 3327:0.34258252 3328:1.3254151 3335:2.2736332 3338:2.2928872 3344:0.52893686 3345:2.267004 3349:0.53817862 3353:0.73732638 3359:1.176744 3364:0.12238938 3372:0.7143752 3390:1.3084524 3400:1.0809716 3403:3.1802123 3405:0.88175964 3406:2.8517518 3409:0.028875828 3413:0.046940953 3419:1.5245037 3424:0.60966545 3426:2.4697804 3428:0.57722795 3429:0.65455186 3434:3.5312939 3435:0.90054184 3437:2.4696834 3438:2.2751076 3440:0.77374512 3447:2.0102758 3459:1.3189371 3463:0.88404191 3467:1.7379935 3468:1.5599809 3474:0.90434206 3477:0.14851257 3483:0.53748447 3484:2.7542667 3485:0.76412082 3494:0.68165374 3495:0.17083925 3496:0.46267521 3497:0.077405781 3502:3.1003242 3506:2.0968616 3511:0.89652157 3513:0.10265857 3515:0.39713499 3521:0.3974843 3522:2.587384 3523:1.9294499 3526:0.88295281 3527:2.9646237 3528:0.44457403 3531:2.6816592 3533:1.414811 3535:3.2383835 3537:2.9527776 3540:0.25038648 3542:0.39154518 3545:1.1116734 3548:1.6279596 3555:0.44569385 3556:3.7868431 3560:1.0254102 3563:0.87215626 3565:0.86791289 3566:1.5149964 3567:1.5498676 3571:1.9394279 3572:1.5890443 3573:0.99854386 3575:0.21567386 3576:0.62852353 3579:0.3324078 3580:0.16060126 3582:0.20756522 3585:1.9272736 3586:1.5359954 3589:0.9274044 3595:3.1213701 3598:0.49566823 3600:1.2271631 3602:0.39682251 3605:1.4675556 3609:0.56821203 3610:1.3194366 3615:0.40854591 3625:2.9587395 3628:0.64731252 3630:1.1881685 3631:0.48388815 3633:2.3703904 3634:0.84812123 3640:0.6804173 3642:0.69426459 3651:0.5389666 3653:0.5299437 3655:0.062825382 3669:2.5891008 3672:0.53826457 3682:2.4892063 3684:3.1950541 3688:0.23200899 3692:1.0702074 3695:2.4894969 3697:0.08847183 3700:0.080569804 3704:1.2885876 3708:0.72619557 3713:0.41155696 3714:0.7320683 3718:1.3299452 3719:1.149852 3720:2.6290276 3725:0.087292343 3727:1.4347579 3728:2.5710859 3729:0.19361344 3730:1.2680838 3732:1.3049833 3733:1.1468565 3734:1.0924742 3735:0.54798806 3737:0.21627164 3741:4.3493042 3743:0.61350679 3749:0.83497047 3755:3.9603984 3757:2.9444358 3759:0.39500025 3763:3.0247293 3768:2.1671157 3769:1.551616 3775:0.22904244 3777:0.52670336 3781:3.1601117 3782:0.26444545 3783:2.4819007 3784:1.8319808 3790:0.6700561 3794:2.0322635 3796:3.1171777 3797:0.59198499 3801:0.92624819 3803:1.6912341 3805:1.4056182 3806:1.7963395 3809:1.10462 3810:0.70768279 3811:1.1938999 3814:0.76767719 3816:1.3923094 3817:1.3184443 3819:0.11708033 3821:1.2610071 3823:0.43217379 3824:3.1665266 3826:0.65840185 3831:1.106981 3834:1.9410288 3835:0.69369549 3837:0.74908602 3840:0.79596597 3842:1.1869351 3847:0.0046076775 3849:2.2703259 3852:0.54322386 3853:1.1379924 3856:0.29717481 3863:0.53421175 3865:1.6260896 3869:3.1303222 3871:3.4760399 3882:0.11362174 3883:2.0326796 3885:1.2193102 3887:0.69814098 3891:0.41963792 3893:1.7624084 3896:0.017995298 3897:0.37492254 3898:1.0169997 3900:1.1970096 3901:0.36349651 3902:0.058756024 3903:1.2730771 3905:0.23724334 3906:1.309464 3910:1.2402374 3916:0.055019975 3921:0.46368533 3925:3.6329522 3931:1.1134872 3932:1.8985903 3941:0.97289282 3947:3.3981647 3948:0.37945604 3951:0.72064322 3954:0.73287952 3956:1.0091517 3959:1.50076 3963:0.27684805 3965:0.34436634 3968:1.175863 3972:1.8808603 3974:1.506707 3976:0.17787799 3979:2.050796 3981:1.1033469 3997:2.4122641 3999:0.11280607 4004:0.43984541 4006:1.4167329 4010:0.91809154 4013:0.35225964 4015:3.5721745 4020:0.55510616 4024:0.345532 4025:2.3191097 4026:0.59731305 4027:4.2257266 4028:1.8505529 4029:0.55625468 4032:0.87277901 4040:0.58397889 4042:0.81912613 4053:0.47087592 4055:2.0230975 4057:1.4497669 4058:1.8604975 4062:1.4844835 4065:3.3144119 4067:3.0012052 4068:0.40718389 4071:0.1465295 4072:2.6386638 4073:0.054309726 4086:1.1845686 4087:0.21497813 4088:0.21812525 4089:0.00094622374 4093:2.2374339 4096:1.4151707 
0 2.069902359160983e-06 1:0.17826253 3:0.76155722 6:0.9271636 8:0.8248381 14:0.25415087 22:1.2801166 24:2.891459 25:1.6582439 26:0.90474653 29:1.7007887 35:0.97879028 36:0.26689053 38:0.29989639 39:0.52181572 40:1.4233 42:0.084847271 44:0.25761628 55:1.2040095 59:0.773233 67:1.2921878 68:1.6513025 72:0.8859517 76:1.5901995 79:1.4755356 80:0.18088628 82:1.6560559 83:1.4132664 87:0.53859317 94:0.85429132 96:0.68731654 102:1.995369 103:0.85245764 105:0.13300195 107:0.42302421 108:0.58218575 110:0.42625386 112:1.3369399 113:0.36779112 114:0.69337946 116:0.14727062 119:2.3935068 126:0.30160278 129:1.6156666 132:0.065524757 136:1.123086 144:1.5238864 146:0.6618982 147:1.6582718 151:1.6935651 154:0.095080405 159:0.53047603 161:1.5510546 162:1.103677 167:0.42188406 169:0.7410199 171:0.90222645 175:0.41287506 180:1.1550193 184:2.3146529 191:0.28308892 192:0.34581321 193:1.8054172 195:0.96481264 196:3.3282049 197:0.77889228 199:2.83987 201:0.081604958 204:0.30209213 205:0.3265416 206:0.088537097 210:1.1977202 212:0.81384021 213:1.6632389 221:0.44005865 222:0.86242616 223:0.75200427 225:0.85654414 232:0.92893529 237:0.10727644 240:0.37785864 241:1.6438669 242:0.1230469 244:0.18400827 247:0.96908033 248:0.080601454 251:0.20857239 254:1.2683823 255:0.48128429 256:0.03853333 257:1.1354303 259:1.3882954 261:2.1390946 262:0.14307141 263:0.80164158 266:1.4141662 268:0.74814653 271:0.1480822 274:0.99904609 276:1.1053698 278:0.37591898 281:0.74500865 284:0.31820518 285:0.32839555 286:0.74524724 288:0.20677841 293:1.0897996 295:0.538068 298:0.48235425 302:0.015654385 303:0.10913062 305:0.51295346 308:0.31551772 309:2.191216 311:1.6102974 316:1.7841992 318:0.43982798 321:0.57723647 324:1.2125484 325:0.4849121 327:0.59958398 328:0.70689118 332:0.851107 335:1.7339312 350:1.6389871 351:0.73954606 358:1.518699 361:0.61433405 362:0.89685023 367:0.68658179 376:0.76898563 380:0.98492539 388:0.23172557 393:3.1627593 394:3.5548618 401:0.3937647 406:0.37957555 411:3.272377 413:0.71928734 414:1.8604711 418:0.9141525 427:0.40335754 429:0.077546895 431:0.21772537 432:1.8100017 434:0.24359886 437:0.4181425 438:2.0826254 440:2.8835552 446:0.34862494 449:0.0012010336 451:0.64864367 452:0.10057276 459:1.1700107 460:0.41557387 461:0.39764875 462:1.0935745 464:0.59451717 467:2.318542 468:0.27664453 472:1.8151791 474:0.56119394 475:0.066600204 479:0.68579835 480:0.061874986 483:2.3148491 484:1.3409392 485:0.68296713 492:0.87674558 493:1.1629796 495:0.0019633174 496:0.43128598 500:0.90567577 502:0.45092869 504:1.4182332 507:0.49424028 511:1.1031399 513:1.6798848 519:0.83596832 527:0.33610079 528:1.5177429 529:1.500735 533:1.1570623 537:0.81300515 539:0.97839534 540:0.025464952 541:0.23117419 542:1.0984877 548:1.3569683 551:1.3713244 557:3.3988309 558:0.19280154 559:0.17081231 564:1.1487591 565:0.65740842 570:0.017974436 572:0.44782755 582:0.71567219 583:1.1732879 584:0.90556407 585:0.38176346 588:1.4370232 594:0.44186819 598:1.0716125 599:1.7129842 600:0.58869302 603:0.21413481 605:0.081345022 607:0.41750813 613:0.26947969 615:0.92953444 616:1.3226746 617:0.099285424 618:0.19961876 619:3.6193323 623:0.45681691 624:1.3445972 627:0.43095243 630:1.842617 631:0.34546304 633:0.39867324 635:1.8239017 637:1.7969137 639:0.48737502 643:1.3955694 647:0.6798948 652:0.71823865 654:0.98909461 655:0.98209369 657:0.91167271 659:0.28824762 661:1.4426979 664:0.03065443 667:1.9261854 669:0.33112332 673:0.57469928 676:2.3675427 680:0.91667449 682:3.1090653 685:2.0976434 687:0.38469827 688:0.80580688 692:2.1366191 696:0.47190732 699:0.72283942 700:0.18392283 706:0.4754411 712:0.24105424 713:0.7226963 715:0.050046384 717:0.65278518 718:1.1284484 719:1.2838707 720:1.2406969 721:2.0594866 722:0.31587851 723:0.73910332 724:0.20781326 727:1.0638218 731:2.8155727 733:2.7925279 734:0.72354686 735:2.5013251 739:1.8855367 741:1.1114156 744:1.4243752 747:0.36547941 749:2.4476192 750:0.76902914 751:1.3106284 753:2.0696051 754:2.904212 755:0.44871563 756:1.7519747 758:0.13468349 759:1.9195367 763:1.0510485 765:1.2230289 767:0.45294186 768:0.76845616 769:1.4474928 772:1.1260449 773:2.2795818 774:0.022048086 777:0.57314789 778:0.41864765 779:1.6343886 781:0.2764774 786:1.5105034 787:0.15139934 791:1.8810246 792:0.1553939 793:0.22086629 796:1.1340017 797:1.2625721 798:0.01732111 800:0.52385849 801:1.159761 805:0.35979402 808:0.14214797 809:0.64465094 810:1.6844378 814:2.8989713 819:1.5702634 821:0.2874302 824:0.75302833 827:2.1088576 834:2.4346046 835:1.8185866 838:0.44347399 839:0.039516151 844:1.5565031 845:0.38136896 846:1.9750953 848:0.18238409 854:2.7395494 855:0.94185191 857:2.7285714 859:2.7141719 860:1.3498209 862:2.3503726 863:1.5499082 866:0.44358009 869:1.3886127 872:1.7440653 875:0.673971 876:0.87320757 877:0.21988457 880:0.65192056 885:0.55872828 886:0.76619136 890:1.143826 893:0.02404207 894:2.2575912 895:0.33857676 896:0.31845582 898:1.0583891 900:0.77634841 906:0.20251194 907:0.056560338 911:2.1999791 913:0.37565035 922:1.0680716 927:1.5557885 928:0.94866347 929:2.4484839 930:0.074730992 931:2.1378644 932:0.86265582 933:1.0230055 936:1.1633824 937:0.017805189 942:1.3127313 945:1.4816728 947:1.7823863 950:0.58877969 953:3.3024135 957:0.096114248 960:0.79125881 961:1.2342172 964:1.6276547 966:1.6526003 970:2.5314991 971:0.86698675 972:0.56425047 976:0.97559088 978:0.076488465 981:0.1476205 982:0.8846873 984:0.47694755 986:0.30190864 992:0.14039084 996:0.32439071 998:0.33721003 999:0.21063486 1000:1.2984762 1004:0.21825004 1007:0.75648946 1008:0.98617774 1010:0.53603953 1015:1.4211791 1020:0.772349 1026:0.15185475 1027:0.6369555 1028:0.42678845 1030:1.2476933 1032:1.1861696 1033:0.51296306 1035:1.0428452 1039:0.49577677 1041:2.0130692 1043:0.99106407 1047:0.41444671 1049:3.1111655 1051:0.15740991 1052:2.3714967 1055:0.59722078 1059:2.5818791 1060:0.45585927 1061:2.4786336 1062:0.73468983 1067:1.2510653 1070:2.4453607 1071:3.7471459 1073:1.9773394 1075:2.0446057 1076:0.33003405 1078:2.1105061 1079:1.0798935 1080:1.4845141 1082:1.8682537 1083:0.22070765 1084:0.51343036 1087:1.7902856 1088:0.64066982 1089:0.55689269 1090:0.59705096 1091:1.1816721 1096:0.77032638 1102:0.51815546 1109:0.65862697 1111:0.34556141 1112:0.65231061 1116:0.30295515 1117:1.2622174 1118:0.147412 1121:1.3829417 1122:2.1641223 1124:0.21739426 1133:1.233238 1135:0.60834163 1137:1.8494315 1139:0.18867511 1143:0.081379175 1146:0.72747552 1147:0.63122368 1148:1.444283 1150:0.7800231 1151:0.40113673 1154:0.063446969 1157:0.1503858 1158:0.36303127 1163:0.27506861 1166:0.48748451 1168:0.63276172 1169:1.7730422 1170:0.97991103 1171:0.39109623 1173:2.2282372 1174:0.78237402 1179:0.87237287 1188:1.8690804 1192:1.7464447 1195:0.65732443 1196:0.091299355 1199:0.5971626 1201:0.29041025 1202:0.11699682 1203:0.27806923 1204:0.47502381 1206:1.8773587 1209:1.7633331 1211:0.15301013 1212:0.58261269 1213:2.1373835 1214:0.48267308 1215:0.24931613 1217:1.1580379 1218:1.7061484 1221:1.163618 1222:1.3010238 1224:0.22312433 1228:0.50010729 1229:0.24888653 1231:1.6677105 1232:0.57626843 1234:0.083562136 1235:0.91316676 1237:2.0418174 1245:2.1239433 1249:0.58834434 1250:1.1503227 1253:0.23582175 1259:2.3622608 1261:0.36775705 1263:0.66719282 1264:1.6661456 1273:0.60017717 1275:0.18156487 1278:0.20043921 1281:1.9308256 1288:0.75610679 1292:0.19108056 1294:1.332047 1295:1.4410272 1297:0.32138592 1299:1.0486801 1300:1.1594653 1306:2.6583967 1308:2.038599 1310:0.42839551 1314:2.075047 1316:0.56907988 1332:0.42252386 1333:1.1749429 1336:1.7154596 1342:2.0475779 1344:0.53092813 1347:2.3622122 1349:1.0366482 1351:0.12388971 1352:1.5467079 1356:1.0748031 1357:0.98489857 1358:0.56072283 1360:1.0897 1361:0.94773299 1362:1.1562259 1365:0.45065925 1367:0.45604002 1370:0.90277684 1373:1.3528821 1376:0.60941547 1378:1.252939 1379:1.9762002 1380:1.4846592 1381:1.745409 1383:0.16688764 1385:1.9924662 1387:0.58935088 1388:1.8240237 1392:2.8578637 1395:0.36819217 1399:1.7520168 1402:3.2366009 1405:0.5557642 1408:1.3328209 1409:0.22429509 1410:1.5197538 1414:0.81683969 1417:0.72007179 1421:2.1384947 1422:0.21571186 1426:3.6308322 1427:0.053176433 1429:2.9563556 1432:2.2279825 1437:1.2208462 1438:1.220837 1440:0.061608613 1445:1.3136654 1446:1.1834044 1451:2.6657953 1452:1.8071109 1455:1.8098824 1456:0.30597866 1459:0.38370261 1461:2.1135542 1462:1.0058194 1463:2.1386242 1467:1.4256035 1470:0.52747929 1477:1.0645399 1479:0.31246781 1480:2.3675325 1486:1.3132012 1495:0.30884936 1498:1.0528618 1499:0.32317555 1500:0.062042415 1507:1.158515 1508:1.3998603 1510:0.67571092 1513:1.246848 1517:1.0144557 1522:0.086217672 1523:1.1396739 1524:4.0678873 1528:1.099637 1529:0.43116236 1535:0.28831583 1538:0.94659448 1540:0.035116941 1541:1.0755224 1543:0.21396321 1544:2.2846136 1546:0.88082367 1551:3.0444393 1556:0.14370468 1562:0.26078808 1563:0.99248278 1570:0.3485173 1575:2.4771652 1577:3.9283004 1581:0.94189274 1582:0.12550828 1583:1.5058877 1586:0.42807454 1590:0.55378854 1591:1.2025871 1592:0.18783933 1594:1.2106587 1601:1.2384952 1607:0.86444783 1608:1.385541 1611:3.008003 1613:0.82927489 1614:1.5843387 1615:0.87742549 1616:1.3376862 1620:1.0942771 1621:0.6496011 1623:0.19950289 1629:0.17545336 1631:0.19664741 1633:3.0100288 1635:0.3654677 1637:0.25463271 1640:0.54001623 1641:0.28213474 1642:0.52382404 1647:0.9609493 1648:2.6578658 1649:0.24331269 1653:1.2147559 1655:0.3741962 1657:1.484024 1658:0.064749181 1666:0.080399573 1670:2.3913882 1671:1.0776173 1674:0.95269763 1677:0.86632371 1678:2.5316722 1679:0.8503499 1680:1.417594 1682:1.459806 1683:0.17531478 1684:2.2607393 1686:3.4978807 1687:1.1263709 1688:0.60153556 1690:0.66884184 1694:1.3237776 1702:2.4331098 1703:0.67439485 1704:1.9209692 1705:0.061214387 1707:0.26032412 1715:0.56745052 1718:0.77560258 1721:0.87586594 1722:1.9325001 1723:0.54904777 1727:1.0988262 1728:2.3780713 1731:0.46369904 1735:0.44484606 1736:1.3340883 1738:0.20585454 1742:0.20784691 1749:1.1714814 1752:2.8117046 1753:3.3191226 1754:0.17045051 1756:4.3967385 1767:0.24269855 1768:0.90691686 1770:0.52336657 1775:0.72807693 1776:2.2657018 1778:1.6956644 1779:1.6160824 1782:0.4128418 1784:0.81274307 1791:2.3310289 1793:1.3370173 1795:1.1655262 1799:0.99572241 1808:0.36429957 1810:0.033561617 1811:0.21693969 1812:1.234609 1816:0.18573949 1825:1.1107805 1835:0.81461871 1838:0.72207546 1839:0.61745262 1840:1.5132378 1841:0.73243362 1845:0.84391677 1850:1.6697541 1855:0.55292666 1860:0.41462982 1861:0.050198019 1864:0.78280199 1869:1.6948179 1875:0.26067558 1877:1.8432947 1878:2.0310616 1879:0.96407354 1883:0.65374899 1891:0.69316506 1896:0.85002011 1902:1.4375161 1903:1.092743 1904:0.57993567 1907:1.1112752 1914:2.0046394 1915:0.60481048 1923:0.85934973 1924:1.1539586 1926:1.1373897 1940:3.0349934 1941:0.94373345 1942:0.24551028 1948:0.10000902 1952:0.89118779 1954:2.9644632 1956:2.9746244 1963:0.68373007 1967:1.3726716 1968:3.3877199 1970:0.15722761 1972:0.056115389 1976:0.94528228 1977:1.4384155 1978:0.12626845 1980:2.1497412 1982:1.9879351 1983:0.31887144 1987:0.77704549 1988:0.32750666 1992:1.2600075 1995:1.0821157 2003:0.75932658 2005:1.4024349 2006:0.32146168 2007:0.58399433 2011:1.5922453 2012:0.23855177 2014:0.42256534 2023:1.7116446 2026:0.77631617 2031:1.2094654 2032:0.0094569921 2033:1.24635 2035:0.37873971 2038:0.5757795 2039:0.65613115 2044:0.57723737 2045:1.6316732 2046:1.4346739 2049:1.7687864 2050:3.2527697 2054:2.5199311 2055:1.2675025 2056:1.2723454 2057:0.2960965 2060:1.1126471 2061:1.5142546 2063:0.81081247 2065:0.58891726 2068:3.3266122 2069:0.9811548 2070:0.479958 2075:0.55972522 2076:0.40132841 2077:0.99693578 2079:1.703912 2082:2.5509481 2087:1.3101157 2088:0.40682176 2089:1.5314263 2095:1.9492197 2096:0.65840673 2097:0.11311072 2099:0.29090777 2100:1.2161431 2114:1.6249547 2117:1.7901964 2118:0.16075578 2119:0.96937078 2120:0.16603142 2123:0.72556257 2125:0.79681897 2126:0.52386993 2128:0.9820025 2134:0.36886516 2136:0.13405362 2147:0.90886545 2148:1.5358131 2150:0.95015836 2157:1.1439673 2159:0.73355114 2161:0.29431114 2162:0.12857509 2163:1.0953397 2166:1.380705 2167:0.19411609 2171:1.586533 2172:1.2298893 2177:1.2847259 2178:0.054394484 2181:2.2735193 2183:1.3588991 2184:1.8234839 2189:0.38523102 2191:0.36986336 2194:0.50487143 2197:1.284194 2198:2.8734875 2205:0.16026828 2206:0.24080151 2208:0.81909776 2211:0.092686892 2216:3.0827451 2217:0.30875459 2220:0.16184983 2222:0.63863146 2223:1.6526587 2224:0.68838519 2225:1.1213424 2228:0.15479162 2230:0.33972228 2232:0.74178958 2235:1.6825204 2237:0.17423365 2240:1.9163548 2250:2.8189273 2253:0.77072155 2255:1.4491887 2256:0.46359316 2260:0.75950956 2261:3.523757 2263:0.27423331 2267:1.451479 2268:0.28313243 2269:0.2743969 2270:1.1237724 2271:1.4799533 2275:0.77052993 2277:0.5296607 2286:0.2765606 2295:1.6764684 2299:0.55817312 2301:1.0173601 2303:1.2320116 2304:0.72783035 2305:0.78645563 2307:1.1050965 2308:0.10758707 2314:1.0933607 2315:2.317975 2316:1.4116329 2321:1.1126029 2322:0.11376897 2323:2.2098129 2324:0.68883151 2327:1.9777977 2329:2.448446 2334:1.6704763 2337:0.011783242 2340:0.38366631 2342:1.1734731 2344:1.7651103 2346:1.5578997 2348:0.13763243 2350:0.76131362 2352:0.077885449 2355:2.6150405 2357:2.5860209 2364:0.29574609 2365:0.87627816 2366:1.075758 2370:0.95722109 2374:0.5330959 2375:0.84801608 2377:1.3332146 2383:1.624177 2384:0.37483901 2385:1.0280659 2386:1.5179404 2387:0.70522892 2389:1.938921 2392:1.885298 2393:0.79169965 2397:1.4658914 2400:0.37594026 2401:0.66560507 2403:0.62770647 2404:3.242425 2410:2.242976 2411:1.4972665 2412:0.59930241 2416:0.31610608 2420:0.0011307001 2425:3.8107374 2426:1.662957 2428:1.5394845 2429:1.0994992 2433:0.01074332 2438:0.86032236 2443:0.57115245 2446:1.5178304 2452:1.1431687 2458:1.5988152 2459:2.0666978 2463:1.9867485 2468:0.25438321 2469:0.12165588 2470:2.524895 2474:0.68062544 2475:1.2465189 2476:0.41676903 2480:0.76470208 2485:1.353628 2494:0.51206231 2495:1.0968475 2496:0.10863453 2499:0.19600123 2500:0.94333494 2503:1.0112019 2504:1.7759221 2505:0.88696516 2509:0.6383059 2514:1.8303013 2515:1.0243263 2520:0.3324469 2521:0.40418535 2523:0.010709405 2526:0.21812633 2527:3.3586314 2530:1.3682575 2531:0.91655058 2534:0.63670188 2543:0.18499625 2549:0.23164088 2551:0.22020358 2556:1.8631735 2558:1.0692439 2560:0.3797403 2562:2.3802814 2564:2.0567842 2567:0.4126091 2568:0.035633981 2569:0.63647431 2572:0.69390893 2573:2.3025432 2578:0.87587816 2579:0.80618393 2581:0.38427415 2582:0.70152408 2584:0.77183735 2586:0.7603215 2588:0.13103971 2590:2.608813 2592:0.15319787 2593:1.2428136 2597:2.9907622 2598:0.088059664 2599:0.1196925 2601:1.181855 2602:0.54471314 2605:3.7608788 2606:0.058921695 2616:0.63623184 2617:0.78693867 2621:1.1258415 2625:2.0746162 2627:0.76067227 2628:0.83925211 2630:0.28666669 2632:0.40977007 2634:0.6061213 2639:0.26017773 2640:2.0804374 2642:0.69962072 2643:0.90017319 2648:0.051545143 2653:0.54292679 2654:0.24513827 2655:2.7473025 2656:1.2607467 2658:0.73499811 2661:0.66569483 2663:1.1763301 2664:1.2989523 2668:1.9439554 2670:1.1653744 2673:1.4060518 2675:0.25136781 2679:0.97382653 2680:0.3328459 2682:3.2969985 2683:1.8998346 2684:2.4678795 2685:1.4305604 2687:0.30259681 2696:2.0223191 2698:2.5098906 2702:0.48375392 2703:2.3768513 2707:3.0070772 2709:0.060378969 2711:0.81350982 2712:0.16959953 2713:1.4997246 2715:0.129161 2716:2.4620378 2717:1.6233144 2719:1.6023009 2721:0.11415154 2722:0.081363201 2723:2.2361727 2724:1.6711066 2725:0.18433848 2726:1.940325 2727:0.35216749 2731:0.19014412 2732:1.5702916 2733:0.35966009 2735:0.93486017 2737:1.1044064 2739:0.95381743 2745:1.7261999 2746:1.1349227 2748:3.1926816 2749:0.12534921 2757:1.662941 2760:0.017007232 2761:2.231144 2764:0.37119961 2765:0.29059452 2766:0.042250663 2769:1.2871007 2772:1.5309157 2773:1.5215522 2774:1.2955598 2776:0.26259533 2777:0.053627729 2779:0.56349409 2781:1.2550406 2786:0.76294959 2796:1.3412257 2801:0.79558712 2807:0.37124389 2811:0.033402622 2813:0.15868005 2818:0.83819091 2822:0.51792467 2825:1.7630267 2830:0.0014562309 2831:0.035210431 2834:0.94203997 2835:2.2514935 2839:1.6560748 2841:0.094188392 2845:0.86015612 2846:0.44595236 2847:1.3472618 2849:0.91200101 2852:0.24305844 2855:1.7330422 2857:0.63755488 2862:1.1256229 2866:1.2869005 2867:0.3285653 2868:1.4875925 2876:1.0155563 2879:2.0596528 2881:1.6144669 2882:0.12903059 2884:1.1816523 2885:0.75305176 2889:0.85597938 2891:0.56917363 2893:0.77898592 2894:0.59293407 2899:1.5733957 2902:1.1541569 2903:2.1226921 2905:1.3557838 2910:1.4450245 2911:0.71004927 2912:2.2751739 2914:0.40013152 2921:0.88834476 2925:0.36528695 2927:1.9362451 2929:0.56300825 2933:1.9456837 2936:0.71005666 2937:2.2380118 2940:1.5359635 2941:1.0658147 2942:1.1326759 2943:0.96677488 2945:0.64388269 2948:0.70653641 2949:0.39521194 2952:2.1275473 2955:1.134249 2961:0.09384191 2963:0.82833421 2964:1.0080926 2965:0.312168 2974:2.3993454 2975:0.6746068 2976:0.6273061 2978:1.4439355 2985:0.090836555 2989:0.42670578 2990:0.94192815 2993:0.38970539 2996:0.6996991 3000:0.78479433 3003:1.3631315 3004:1.0377312 3005:2.2694414 3008:2.237998 3010:0.44961333 3013:2.7711587 3015:2.6983683 3019:0.76332742 3020:1.2951916 3023:1.5769296 3024:1.2342049 3030:1.78265 3033:0.67701459 3034:1.5994507 3038:0.88215953 3041:0.75400805 3042:0.63030326 3046:1.0515054 3047:1.4336605 3054:1.0241432 3056:2.4341586 3057:0.066489995 3058:0.83601189 3061:0.56009269 3067:1.0502787 3073:0.67103249 3076:1.5513686 3077:0.24740088 3079:0.60777056 3081:0.18711561 3085:0.4312411 3086:2.8479054 3090:0.19140166 3092:4.0047622 3094:0.41464999 3098:0.75218177 3101:0.78421533 3102:1.9653414 3103:0.17169189 3104:1.4979937 3106:2.3643746 3116:1.8051088 3118:1.7147145 3120:1.7279512 3124:0.53267962 3125:0.15160692 3126:2.6682127 3128:1.2494423 3129:0.070155323 3130:1.8452824 3133:1.5728796 3134:1.1963499 3135:0.82956994 3145:2.2325006 3156:0.78596538 3157:2.4915814 3167:0.83940554 3171:1.2989783 3175:0.050603449 3177:0.4733341 3183:0.2111337 3185:0.93518126 3187:1.446527 3189:0.23593959 3191:2.6090374 3192:2.2776339 3193:0.05708608 3194:1.9167342 3197:0.16718993 3199:1.9474577 3201:1.1114106 3206:1.5562595 3211:2.4493785 3212:1.0318868 3213:1.755267 3214:0.44532055 3218:0.33491939 3220:1.7840364 3222:2.1017127 3227:0.21021941 3234:2.0952947 3236:0.75649989 3239:0.88550234 3240:2.8494489 3243:0.7499572 3248:1.7530885 3256:0.91901124 3259:0.94486237 3261:3.0093653 3264:2.0425601 3265:1.0801864 3269:0.82163364 3270:0.1643469 3271:0.71562731 3272:1.0385022 3273:1.2375197 3274:0.48903745 3275:0.65388632 3276:0.071649104 3277:2.093034 3284:1.5572675 3290:0.55855447 3291:1.3710558 3296:0.34176227 3299:2.2869959 3300:0.80158383 3303:2.7361155 3304:2.3865147 3305:1.1787117 3306:3.1552899 3307:2.247246 3310:0.10058907 3312:0.60961616 3320:1.398613 3324:0.1174041 3326:2.1658168 3329:0.97617173 3330:1.2628922 3335:0.13779885 3338:1.3586563 3344:0.63613647 3349:0.55643266 3353:0.065460622 3354:0.0025629401 3357:0.29324305 3360:0.42619133 3363:1.426302 3367:1.7917463 3368:2.3107054 3372:0.29908317 3373:0.93554777 3377:0.33838576 3379:0.35880637 3380:1.0791247 3382:0.83901727 3384:0.044780731 3386:0.28158602 3387:0.22643399 3388:1.2720879 3389:3.6266971 3390:1.6533163 3395:4.130476 3396:0.46257353 3398:0.16583654 3400:0.58703876 3404:0.66037846 3405:0.36098993 3406:1.5233014 3408:0.26998028 3409:0.96278334 3410:2.7562664 3411:0.34053341 3417:1.6225827 3419:0.64869392 3420:0.92188132 3421:0.5036484 3422:0.58648586 3425:2.0638227 3426:0.16665155 3427:2.2232063 3428:2.0879169 3433:0.24387717 3434:0.58442897 3436:2.3239894 3437:0.57834232 3442:1.3430879 3447:3.4115906 3448:1.4752617 3454:0.47970706 3459:0.35837573 3460:1.3898809 3461:0.56827432 3462:0.6408146 3468:0.15612051 3473:3.2546244 3477:0.17764243 3479:2.8473163 3485:1.8999774 3486:0.48120588 3494:1.5219567 3500:0.60227716 3502:2.0089939 3505:1.0042676 3506:0.43574345 3508:0.30192125 3510:0.38480303 3511:0.66998404 3521:2.26578 3523:1.2190192 3526:1.3692222 3527:1.2692101 3528:0.96878219 3529:0.46209615 3532:0.12334669 3533:1.7646482 3535:1.6250796 3536:2.3747401 3537:1.9500673 3541:1.2822199 3545:1.6346204 3548:0.04110229 3556:3.2455153 3564:2.6685021 3566:1.5807568 3571:0.30483222 3572:0.30884367 3574:1.1575888 3575:0.22626486 3576:1.0523534 3579:1.6791294 3580:0.17893988 3585:0.32982886 3588:0.31869879 3589:1.510185 3590:0.53636992 3595:2.2345595 3600:3.8002195 3602:0.52265704 3603:0.032915711 3606:0.63898146 3608:0.11584443 3609:1.4336627 3610:1.0867237 3611:0.1997036 3617:2.4882944 3618:0.48089585 3619:0.16608477 3621:0.44497174 3622:1.6205795 3626:0.98928285 3629:0.89050263 3635:0.17269367 3637:1.4752635 3645:0.20194757 3647:1.3355842 3653:0.15440696 3655:0.64517927 3657:0.45164967 3659:0.7227217 3660:1.7263591 3661:0.24316928 3665:0.16211782 3667:3.1407225 3669:1.8881311 3671:0.78978997 3674:1.8714695 3678:0.53550589 3679:0.65187728 3684:0.70420843 3686:0.45643267 3688:0.59399074 3689:0.029690355 3692:0.46738088 3693:1.2854874 3694:0.75432169 3696:1.4910007 3697:0.39913279 3701:2.0379634 3702:0.39094681 3704:1.6553164 3710:0.829997 3712:0.30192661 3719:0.27596638 3720:0.38069561 3724:1.3263063 3727:2.0700378 3728:0.685431 3730:0.79600787 3731:0.34423441 3734:0.64833814 3736:0.22973442 3738:2.0658655 3740:0.070872635 3743:0.49001294 3747:0.043224096 3750:1.3905416 3758:0.90657425 3761:0.39940909 3762:0.84166145 3763:0.6231069 3769:1.4972979 3770:1.6683161 3772:1.9273891 3773:0.11610383 3776:0.54433137 3777:1.1207418 3780:3.5147507 3783:0.23139951 3786:1.0090507 3788:0.21945381 3792:2.2432935 3794:2.2837565 3796:0.72532398 3798:0.36134622 3801:1.57414 3802:0.64048445 3809:0.41623062 3812:0.2796714 3816:1.3471566 3819:1.1720514 3824:3.170229 3828:1.3083827 3831:0.35700876 3834:0.25159565 3840:0.37656718 3843:1.1264495 3845:0.28839368 3847:0.15493235 3851:0.47223526 3852:0.91271013 3858:0.22058016 3861:1.0575702 3862:0.17119178 3863:1.7117203 3869:2.808058 3870:0.49511671 3875:0.78064632 3882:0.32686564 3885:1.5674881 3886:2.6040647 3887:0.357786 3893:0.62822652 3896:0.24263102 3897:0.7485643 3898:0.52023947 3903:1.3897567 3904:0.014151692 3906:0.17994738 3912:2.6285858 3915:1.6438582 3920:0.99810541 3921:0.27480924 3922:0.56232953 3925:0.78763843 3930:0.24776918 3933:0.23470078 3934:0.36315468 3936:1.9531598 3944:3.2310009 3947:0.84083897 3950:1.3527943 3951:2.7182472 3952:1.0934434 3954:0.32485309 3956:0.30459577 3957:2.229893 3959:0.31143045 3960:1.5929117 3964:1.4056195 3969:0.9463824 3971:0.68934327 3972:1.4651654 3973:0.43065935 3974:1.7188904 3977:0.028182626 3980:1.5303051 3981:1.4318013 3982:0.96412814 3986:0.58297467 3987:1.6739721 3988:1.2254078 3992:1.0839636 3994:0.78574353 3998:0.4997851 4000:1.0203738 4002:0.60032409 4008:0.57348418 4010:1.4217569 4013:0.29688632 4015:0.66165233 4017:0.59540677 4021:1.601804 4030:0.67605519 4038:0.79533672 4042:0.084595323 4043:0.13508976 4050:0.0066267848 4051:2.121177 4053:1.0167375 4055:1.1094134 4057:1.1159134 4058:0.006741643 4064:0.65504456 4066:1.6870955 4067:1.4111729 4071:0.3281132 4085:0.76885259 4088:0.90003097 4093:0.72166872 4095:1.0619466 4096:2.5051537 
5.417791942791467e-05 0 3:1.7373887 5:2.5002084 6:1.1723542 8:2.8945622 9:2.1130199 12:1.0089762 19:0.3787021 21:1.0125247 22:2.7132511 29:4.3297791 31:0.56197453 35:1.4147811 36:0.83478272 38:0.92505383 48:0.64498591 51:0.41700518 53:5.4099674 55:1.3141086 59:0.97415149 63:2.8083882 70:0.048128933 73:3.5203979 77:1.6538023 78:4.279079 79:0.70639825 81:1.9485888 82:0.72282696 84:0.49459565 85:0.21209735 87:0.62095124 89:0.76287591 91:1.8748692 93:4.6095591 97:1.9716728 100:0.73503548 104:1.4563565 105:2.5079379 114:1.2435861 118:1.4452987 120:2.5514417 121:1.8555905 122:1.5379937 123:0.60634494 127:0.52663243 129:3.1626947 131:2.2097373 132:1.0800331 136:0.46031785 137:2.3295832 138:2.3698499 139:0.81296915 141:1.8016909 144:1.4701655 149:0.27035773 150:0.13423178 151:1.0645803 152:2.0770111 155:1.5952512 162:1.8262801 163:2.9005094 164:2.224874 165:6.0439959 166:5.0392752 176:0.39404166 179:3.0833857 182:1.9838531 183:0.86027801 185:1.2527401 189:0.86003745 204:2.7422152 208:3.5131245 211:1.2305794 217:1.3120103 219:0.81529677 220:3.3204696 221:1.6953012 223:1.4859197 224:0.68247396 225:0.22704998 228:4.5001955 231:0.54368848 251:0.62698692 258:1.8899416 259:0.3291806 263:3.6914256 270:0.82833028 272:1.7568486 273:3.9038556 278:2.1473303 282:1.3212751 287:4.9934516 288:1.6737012 289:0.042645067 292:0.25206134 298:0.72174108 299:0.73998344 300:0.51761758 306:4.6305289 307:0.45699459 310:0.99564713 312:1.3411007 313:0.40608263 314:0.50470561 315:0.47767514 319:0.58762151 322:0.25461555 325:0.17882365 328:1.5400989 329:1.0418483 330:2.383091 332:0.47947335 336:6.367733 337:1.8362606 340:2.0758617 350:0.23277396 352:1.2821126 354:0.34926713 367:1.7304435 372:1.189909 373:3.0425737 376:0.32245979 380:0.70813996 382:2.8420138 384:0.59794235 385:0.0024062991 388:0.61026806 391:1.6213844 394:2.3777888 397:0.69131839 400:0.77694476 404:1.6074442 408:4.9573288 409:0.99740082 410:1.1259246 421:2.978672 423:0.59946585 430:0.97744298 431:0.94994283 432:3.4118001 433:0.53917783 434:0.52535224 438:2.1864219 442:2.7958276 445:2.6740086 453:0.78916895 454:0.29940331 458:1.6766862 465:1.2331154 475:1.0105631 476:0.93441957 477:2.6699557 478:1.7424531 479:0.3082034 483:0.63701677 497:2.8186944 505:1.0424628 509:1.8159496 511:2.0639117 515:1.254783 516:1.1022236 517:0.27980825 522:5.1420908 524:3.6369593 526:1.4184731 528:0.49910694 544:0.71585119 546:4.6059222 548:0.63932353 550:1.5009075 551:3.2834926 555:1.4737631 556:1.9363245 565:3.6274195 566:2.1829963 568:1.0928299 576:1.7465036 577:3.6928039 578:0.57511723 588:0.10427862 589:1.1045654 592:0.96097356 593:0.69722223 595:0.78267777 597:1.8982234 598:0.28739285 603:0.8910684 606:2.9021976 610:5.0479865 614:4.5662079 615:1.158033 622:0.17665195 630:2.0372746 636:0.55465305 638:2.1028061 640:0.21790442 641:2.8664999 649:6.0461335 651:2.100158 653:0.011040866 654:0.50218463 655:1.1449533 657:1.2915304 658:0.72474504 664:3.0142097 666:0.83028924 670:0.73123515 671:0.2761513 675:2.5891764 677:0.74523604 678:2.3742661 680:3.9249358 681:3.1095777 682:2.7542572 691:0.1416841 698:4.4542069 700:0.56677532 702:1.5052813 703:0.64176667 710:3.6039903 725:1.1273952 732:2.6834657 734:1.9268401 739:0.70013154 740:1.0163451 742:0.61002266 746:0.97111821 748:1.9569435 749:0.67420328 750:0.64679521 752:0.98151362 754:3.242656 755:0.079563856 759:0.059126258 761:0.87164903 762:1.7845 763:0.12852022 765:0.79492354 768:0.91159844 776:1.1428499 779:2.3245893 782:2.0821857 788:1.6584256 790:0.44247139 795:1.2080517 796:0.14777344 798:0.52126062 800:1.2010031 802:1.8001337 804:1.3866556 805:2.6483881 809:1.7897832 813:1.8365674 816:0.54483372 817:1.7498003 819:0.32690132 827:2.1210585 832:1.6414242 833:0.19973916 834:1.1907594 835:0.60825747 837:0.17381752 841:0.24810553 843:0.77946866 845:0.081686467 846:2.7786264 852:3.9548042 857:1.0401995 858:1.4469475 860:0.17597973 861:0.47869095 864:1.7688729 866:1.6118057 868:2.5848413 872:1.2667298 878:1.4730015 884:3.1292782 885:1.6414647 886:1.0986314 888:3.5347383 889:0.48065361 892:3.0781169 893:2.2685285 902:2.5758035 909:1.3403784 912:1.8043783 915:3.6619468 919:0.032219589 923:0.90678275 935:2.663734 936:1.5473466 937:0.61817896 940:0.43888581 948:1.7405952 949:1.269598 953:1.3571786 955:1.3930528 958:0.40582463 959:0.82049441 960:0.38522169 961:0.57337391 968:0.05265367 974:0.73136044 975:0.96173084 980:4.9305158 981:3.2039998 983:1.5006069 984:2.7167733 993:1.0995106 995:4.7573953 998:1.7008771 1001:1.6749716 1003:1.7588377 1005:1.2392619 1009:3.7197351 1010:0.92222428 1012:1.0718539 1032:0.13993004 1033:0.61385822 1036:0.65384316 1039:1.0022697 1040:1.168085 1041:1.1830225 1045:1.5883906 1046:1.0143079 1050:0.4777312 1051:1.057656 1052:1.0274372 1054:1.7139504 1056:1.470463 1057:0.46296653 1059:0.50724244 1061:1.3800361 1063:0.37471163 1065:0.24126524 1066:1.1350784 1069:0.04551214 1077:0.91559827 1080:1.3239236 1088:2.0681729 1090:0.75887698 1099:1.5064001 1103:3.3290615 1106:2.4567137 1107:2.2602305 1113:0.87278217 1116:2.0443969 1117:0.11011961 1119:2.0772128 1121:0.64377606 1128:1.2316948 1129:0.40164399 1132:3.347429 1137:1.7280457 1139:0.045552313 1140:0.49851879 1142:0.56915164 1144:3.9999704 1146:0.65386206 1153:2.3541031 1154:0.77978694 1161:1.0523491 1162:0.41352603 1164:0.068446666 1166:1.0353733 1167:2.4582481 1173:0.31803632 1178:0.03736797 1183:0.45995098 1188:2.3847411 1196:5.5663772 1197:0.83752584 1199:5.3482285 1200:2.8433986 1204:0.26516977 1205:0.41513389 1206:1.4070489 1209:1.304976 1210:0.61222941 1213:1.8724582 1215:1.8484912 1219:0.78015029 1224:0.6964047 1227:0.1866191 1228:0.060484529 1229:1.7129511 1233:4.1837583 1236:1.652235 1249:0.023548335 1251:0.4583604 1252:1.9884582 1253:1.1948211 1264:0.97252977 1265:0.91669995 1266:4.7820535 1272:1.4966092 1274:0.66701013 1277:1.1612449 1278:2.6150587 1285:2.9660344 1286:4.3469524 1288:0.28746203 1303:0.75855327 1310:1.3465093 1311:0.26322925 1314:1.093636 1315:1.6999125 1322:2.5552444 1329:1.7618952 1330:3.8384819 1331:0.30463505 1336:0.79130554 1337:1.5804167 1340:3.657949 1342:0.68997842 1345:2.0021288 1350:2.6332572 1351:1.8349109 1355:1.5917308 1359:0.42569941 1361:1.2431455 1364:0.54619205 1367:1.7195566 1368:1.1623323 1371:0.29300034 1372:0.51633435 1373:1.6017177 1386:0.70242471 1391:0.39070898 1392:0.63300335 1398:0.78634107 1402:2.1666956 1407:1.4296949 1408:2.4093485 1415:3.5503697 1416:0.016377836 1417:0.62888515 1418:1.0349612 1432:1.4007598 1433:3.735306 1435:1.078615 1439:1.979858 1440:2.6531439 1445:2.0373976 1447:0.14445946 1448:0.08491987 1452:0.86757469 1453:3.2986815 1457:0.86005574 1458:1.8412348 1459:2.5090289 1460:1.2993942 1461:2.2121422 1469:2.8220277 1473:1.4004991 1474:2.2533503 1479:1.6239563 1482:4.7915473 1483:2.6557791 1484:0.23331133 1485:3.4571755 1486:2.7101793 1488:3.4632747 1498:0.63466871 1507:1.4954586 1508:1.5685405 1512:3.1775198 1514:2.1346459 1515:1.0335352 1520:1.5095458 1525:1.206562 1526:2.070199 1527:2.3098981 1530:1.4935024 1531:1.9829218 1532:2.7886558 1536:2.3555267 1538:1.6332779 1540:0.070180088 1548:1.9546019 1550:1.1498868 1552:0.53458309 1553:2.075964 1554:2.5340061 1558:0.31378359 1562:0.097695112 1563:1.2557744 1567:0.70572221 1573:1.3766891 1574:3.1358478 1578:0.94309926 1581:1.1055658 1582:0.46782857 1591:1.4389505 1597:1.8969858 1600:0.91962409 1602:1.3203306 1607:3.3493924 1608:1.365571 1609:0.28937724 1611:5.524044 1614:2.0829716 1618:1.3719738 1620:2.5056298 1621:0.32862315 1627:0.460136 1634:1.4199078 1635:1.1487417 1636:0.79379892 1638:0.78146017 1642:1.0414066 1646:1.6931055 1647:1.8820448 1652:1.9826903 1653:0.54760939 1656:1.1675675 1657:0.77499998 1661:0.67258883 1662:1.1633494 1663:2.2393858 1672:0.72314048 1675:3.0512595 1679:1.7323203 1680:3.095046 1685:1.7385907 1687:1.376687 1692:1.5440983 1697:4.6560655 1706:0.92799491 1710:0.010717034 1715:5.5965629 1717:3.015233 1718:1.0643194 1719:0.78974789 1721:0.1534884 1725:1.8826094 1726:1.2364993 1727:0.88130963 1729:2.2069671 1730:0.25466365 1731:0.77575177 1734:3.5319064 1741:5.0423102 1747:4.4022312 1749:4.9682055 1751:0.73770911 1752:1.0108192 1759:3.7427683 1760:1.1382914 1764:1.2866714 1765:0.88057828 1767:2.9609795 1770:0.031616986 1771:1.9157208 1777:1.2710314 1781:0.52254212 1782:0.032891393 1784:1.7756257 1786:0.24898574 1789:4.0047669 1790:3.258291 1792:0.78124642 1795:0.744757 1796:2.6360555 1798:0.63530087 1799:1.2080556 1800:0.91066754 1803:1.5222481 1810:1.5585485 1811:0.81207877 1814:1.368906 1827:0.6681968 1834:2.3406765 1835:1.0081005 1836:0.085593015 1839:0.95117539 1840:0.63920927 1841:1.5061777 1847:0.30822748 1854:2.5213096 1860:0.18373826 1861:0.74738634 1863:0.77329481 1864:0.38781372 1867:3.4454575 1868:1.3130163 1870:1.3186893 1871:0.7867521 1881:1.372514 1885:0.93373322 1887:2.4781044 1890:2.4259214 1892:3.2209284 1899:0.02255553 1900:3.6906464 1904:1.2722296 1913:2.4258687 1916:0.92307544 1925:1.5015869 1928:0.47983128 1934:1.5014923 1935:0.030972719 1942:0.46628639 1943:2.7466068 1948:4.4742608 1951:0.048280269 1952:3.381593 1959:0.95702624 1967:0.97929895 1968:1.3565209 1969:0.68997771 1972:0.56614625 1975:0.69885701 1976:1.4171505 1985:0.10404333 1989:1.5320773 1990:1.3209636 1994:2.1192124 1995:0.59054673 1997:0.69569457 1998:2.155232 2003:0.052920192 2005:1.2424206 2007:1.9104507 2008:2.6137686 2009:0.23619097 2010:3.1169899 2012:0.68474585 2021:0.059168816 2022:0.29874483 2029:1.2536296 2030:0.63255191 2031:1.9142673 2033:1.2121603 2034:0.068005294 2038:0.57698566 2039:0.48877099 2050:1.270481 2055:0.67718148 2057:1.029367 2064:0.33021683 2066:0.48039445 2067:0.40339735 2069:1.2390344 2075:0.016811073 2076:0.29344857 2084:0.14418691 2085:3.4228973 2090:3.2233937 2092:2.2071345 2093:0.00083488226 2095:0.72336823 2097:1.9564489 2100:0.94431961 2101:0.6704585 2118:0.051628262 2119:2.4036562 2120:0.36442316 2121:0.37654492 2132:1.8244876 2140:0.56420469 2143:5.712234 2145:0.14072856 2149:1.9190687 2151:0.11486271 2158:5.7039146 2160:1.3839765 2164:0.4715634 2165:0.88398236 2166:0.79450178 2167:1.2149161 2168:4.1950169 2170:1.1001027 2176:1.8258883 2178:0.38693464 2179:0.35141948 2182:2.9584575 2183:3.6064734 2184:0.66537762 2195:4.1932678 2196:2.1459146 2197:2.27582 2200:4.6644082 2201:1.5769925 2202:0.13912529 2204:0.77509463 2211:1.1073697 2217:0.0029392242 2219:0.058703661 2221:0.46975029 2225:0.2010344 2226:0.39335221 2229:1.5544667 2230:0.28001699 2231:1.1864246 2236:2.0354123 2237:1.9468763 2239:0.18655351 2242:0.98418713 2243:1.637738 2244:2.0622625 2247:0.1139853 2248:0.99232781 2252:1.9983841 2254:0.083290875 2257:0.33084396 2260:1.5029118 2271:1.6699244 2273:0.083574414 2276:1.681242 2281:0.023750484 2282:1.4746406 2283:1.3973701 2284:5.1216898 2286:0.82310313 2289:1.6176389 2291:1.6151688 2302:0.51465088 2303:1.0793926 2306:4.7369695 2308:0.070154935 2317:1.6533339 2320:1.4395056 2321:0.61609256 2323:1.4500403 2326:0.39119893 2334:1.8619543 2338:1.505023 2341:0.4444111 2342:1.2682337 2343:1.3586363 2345:0.89158678 2349:3.3201203 2353:2.1848025 2355:0.63948089 2366:4.7768664 2368:0.13221374 2370:1.0163871 2371:2.8161724 2372:0.63694179 2373:0.90522444 2376:3.6509335 2380:2.8739474 2381:3.2484479 2382:3.4204443 2385:1.5637169 2386:4.0999451 2388:2.7738075 2390:2.2892842 2393:0.53220785 2395:0.47227377 2396:0.91179478 2404:2.0841699 2410:0.055367887 2411:0.024840385 2413:3.8388684 2414:2.500864 2419:0.07257551 2424:5.1308336 2426:0.34349686 2430:0.85589129 2432:1.4791143 2434:2.5422227 2450:0.51355213 2452:0.19200253 2463:0.048845738 2465:2.0213702 2468:0.61359388 2470:0.4607133 2481:3.3942993 2483:0.41117212 2487:2.0456796 2489:2.0103126 2507:1.2099197 2511:0.022083104 2512:4.1040192 2513:0.52562487 2515:1.6417131 2519:0.5871712 2520:2.1358442 2524:1.3933506 2525:1.6980494 2527:1.3654019 2531:0.89431667 2532:0.23656528 2533:0.35558495 2534:1.0926217 2536:0.31650648 2538:1.4780185 2539:2.7448387 2540:3.8871348 2541:0.045207947 2542:0.54510713 2551:2.5681393 2552:0.17219478 2557:2.3505118 2559:3.3271737 2560:0.63931346 2561:0.78598791 2564:0.14244696 2565:1.4073312 2569:4.0441647 2574:0.55068046 2575:0.25097874 2576:1.4864429 2577:0.11156571 2579:4.9078078 2582:0.95156693 2585:0.90903765 2588:1.9367207 2589:2.3982935 2590:0.29813728 2598:6.6709929 2601:1.4597785 2602:1.7068968 2603:0.70961535 2606:0.20674163 2608:0.24580929 2609:0.17454657 2611:0.28222546 2612:2.202764 2617:4.0031681 2629:1.2685572 2635:4.2961979 2636:0.53695327 2637:1.3023987 2638:3.7069242 2649:1.1430181 2651:2.7438169 2652:1.3108275 2655:1.0900005 2658:1.3415638 2660:0.83130383 2666:1.9303293 2669:3.233109 2671:0.61190015 2672:0.45629823 2675:0.51051491 2677:1.0788261 2680:4.625104 2681:0.2591303 2683:0.80452621 2688:4.2074924 2689:0.54165381 2690:3.8647282 2691:0.47220996 2692:3.0930319 2695:1.3124244 2697:2.0979235 2698:0.062749326 2700:0.3693586 2702:2.6909873 2703:0.23468569 2706:1.0942158 2708:4.3898168 2714:2.418061 2719:0.66052085 2725:4.1202822 2727:0.62290376 2731:0.85928607 2741:0.55054122 2743:2.6339452 2744:1.3852166 2749:0.38981226 2751:1.1566699 2752:0.71308804 2754:0.3873322 2756:0.54666704 2757:1.9562595 2758:2.0800238 2763:1.3393524 2764:2.1744261 2766:1.0809669 2772:1.4722122 2773:0.38496834 2778:3.7298541 2779:3.5884845 2785:0.8552689 2787:1.3385617 2788:0.91752881 2798:1.7245753 2801:4.1674681 2805:0.24927515 2806:2.7052002 2807:4.910449 2814:0.65041995 2819:1.7217329 2821:0.42914999 2822:1.6529882 2823:2.7209845 2832:0.16589588 2837:2.1004913 2840:0.78628922 2843:0.20111199 2844:0.01010412 2851:0.44609025 2856:1.2093989 2860:1.7788706 2861:3.7803967 2862:0.49737588 2870:0.52967429 2872:1.1044774 2874:5.1426315 2875:0.3431572 2879:0.54039109 2889:3.260818 2890:3.246022 2901:2.5184324 2907:0.10483062 2908:0.38510722 2909:1.0902814 2911:1.6046979 2913:1.0130501 2914:0.53940046 2916:1.173573 2918:3.1169183 2920:5.4513879 2923:2.8576961 2927:1.8031797 2928:0.91294551 2934:1.1045835 2935:0.98393297 2937:0.70453525 2938:0.95814443 2939:2.2518382 2940:0.88655424 2943:0.2317307 2948:1.3602456 2949:2.7182355 2951:0.48563135 2956:0.81708395 2958:3.0958371 2960:0.69401425 2975:2.6607141 2982:2.3929048 3007:0.25141108 3008:0.88681626 3011:3.329653 3012:0.23832762 3013:0.30412081 3019:0.40004846 3020:1.8550925 3023:2.4041955 3024:0.50507271 3026:1.8788916 3027:0.94820023 3028:0.29866445 3029:1.7147708 3036:1.6106925 3037:0.14456581 3039:1.423805 3042:2.2194321 3043:1.4723307 3045:1.4200253 3047:2.3613186 3051:0.93103278 3054:1.4524777 3055:2.6083343 3058:1.5946529 3063:2.1450036 3067:3.4632351 3069:2.3947706 3074:0.034012079 3075:0.098904848 3076:1.4813042 3078:1.3180202 3079:1.811743 3082:2.7608223 3084:1.2244852 3085:0.2262888 3087:2.8338783 3088:1.6300273 3090:1.5306585 3091:0.30738088 3094:0.053225696 3096:0.8183707 3099:3.8014684 3105:0.9942255 3106:1.8678399 3107:2.1233804 3108:1.5386125 3112:0.61625463 3113:2.5942664 3118:1.9090016 3122:0.039360255 3126:2.0508597 3128:0.094329149 3136:0.15454715 3138:1.9584587 3144:4.3522186 3145:0.63983727 3146:0.55332035 3152:1.5141249 3153:1.4804645 3158:2.0775175 3162:2.019567 3164:4.0061765 3167:0.36849543 3168:1.0835626 3171:0.48580661 3172:0.54764652 3190:3.6959097 3191:0.013959944 3192:3.7147155 3193:1.0967697 3194:3.9154117 3196:0.25170261 3197:0.82144803 3203:0.77939665 3206:3.8737383 3208:3.6459467 3209:1.732985 3213:1.3159913 3225:2.8919921 3226:0.85058546 3231:0.51113653 3232:1.156039 3233:5.0506763 3234:0.23904139 3239:1.7259021 3243:0.14896029 3245:0.80992925 3250:2.2397652 3252:0.40821519 3254:3.4984493 3255:0.97991168 3257:4.1418982 3258:0.44815406 3260:0.089946121 3263:1.3197658 3268:0.076080203 3272:0.023469985 3273:0.16742235 3274:1.0793259 3275:1.256927 3276:1.7850783 3278:0.43850896 3282:1.9630351 3283:2.2364256 3284:0.67488384 3286:0.78390241 3287:2.3245323 3289:1.3673973 3292:0.058614224 3294:4.1495667 3295:0.052158177 3298:2.0648038 3306:2.2792366 3309:6.8952098 3310:1.9821727 3311:1.5643241 3314:2.822505 3318:1.7763113 3319:0.59151143 3322:1.7293736 3328:3.6348994 3334:4.7533975 3336:1.4835005 3338:1.4902235 3342:1.490196 3343:0.88025814 3356:0.37927023 3363:1.1878744 3375:2.6689711 3380:0.44386798 3382:0.18605089 3388:0.38010767 3389:0.030276716 3391:0.80305457 3398:1.6541394 3400:0.11078355 3402:0.62609148 3408:0.90681279 3412:0.97480214 3414:1.3124871 3417:1.7761235 3418:4.4965205 3419:0.56729627 3421:0.055574894 3433:1.7829123 3434:2.1326025 3436:3.2837613 3437:4.5995088 3438:6.133554 3439:1.6877453 3441:1.7048187 3444:1.1999002 3445:0.15924129 3447:1.5106502 3450:3.4024251 3451:0.17895167 3456:2.0338793 3457:0.78784996 3459:0.025428355 3460:1.5766156 3461:0.036533177 3466:0.87768555 3467:4.2118816 3468:0.57846206 3469:0.0072728693 3472:0.87532508 3475:0.31833816 3476:0.48102647 3477:5.4077644 3478:0.37794611 3481:0.69318652 3484:0.93005764 3486:0.8260541 3488:0.64220893 3492:0.92992008 3493:0.41140261 3496:2.0198255 3502:1.000051 3504:0.1295563 3511:0.30918527 3513:0.67945033 3515:0.48723084 3517:1.8090518 3518:0.22994092 3522:0.048479676 3537:1.7376988 3542:0.24022317 3544:0.55867338 3550:0.249147 3551:0.715361 3553:0.12880805 3561:3.8903439 3570:2.4599009 3572:1.2143462 3573:1.5837921 3583:5.2712736 3584:1.0351651 3585:2.5067952 3586:1.5114045 3587:0.75670201 3589:1.6982644 3594:0.48040324 3598:1.9426465 3600:3.3546116 3604:1.5963857 3605:2.1025412 3607:0.27916843 3608:1.2797995 3611:1.4491458 3615:0.36534673 3620:0.032199532 3621:0.83261895 3622:0.11099118 3623:2.6147285 3624:2.5407777 3625:0.28361842 3631:1.8698915 3633:0.31263679 3634:4.1040206 3636:1.3800298 3638:2.1857202 3645:0.38188875 3662:3.2305336 3672:3.2490869 3675:0.77641791 3676:1.313537 3689:1.261125 3695:0.71707988 3697:2.4897292 3700:3.6753531 3706:0.35107765 3708:4.0823646 3711:0.52026498 3714:0.59220278 3716:0.39172196 3718:0.81977183 3724:0.060803413 3725:2.8569231 3727:0.83863056 3729:3.91325 3733:3.4396381 3734:2.4105098 3735:4.155127 3742:3.0473423 3749:2.2658029 3750:0.60847187 3752:0.27034831 3755:1.9545727 3757:0.97000355 3763:3.1883688 3765:0.38447022 3775:2.292598 3778:3.9241462 3781:4.4380846 3782:1.9487141 3787:2.4446588 3788:1.8294784 3789:2.5388682 3790:0.37426823 3793:3.8122554 3794:0.2774905 3795:2.2722509 3797:2.3401957 3799:2.5031562 3800:1.5881822 3801:0.32983214 3803:0.77597272 3805:3.7189941 3806:0.54730439 3808:2.6013165 3810:0.97240114 3812:1.3878777 3813:0.50957394 3814:0.96622443 3816:0.08685334 3820:0.042206079 3821:1.1168216 3823:1.070784 3826:1.2373066 3828:0.41084781 3836:0.5369395 3837:0.32980829 3838:3.4232845 3842:1.0783374 3847:2.378377 3850:0.54749632 3853:0.91223139 3859:0.84764123 3865:1.0116385 3866:0.27221659 3867:0.1209259 3870:2.5516489 3871:4.1710768 3880:0.23103663 3881:1.1611325 3883:0.89454955 3885:0.99896383 3896:0.21965805 3903:3.6134019 3905:2.6940601 3906:0.25793785 3910:0.22979164 3913:1.3734982 3916:4.0622592 3923:0.096324742 3929:0.65184546 3937:0.015915141 3940:1.3469937 3948:0.31815347 3949:2.5347271 3952:1.3809329 3954:0.855281 3959:2.137655 3964:0.066679657 3965:2.3445961 3968:1.9014001 3970:0.26628733 3972:0.27316213 3974:2.4532921 3976:0.39466631 3979:2.3707027 3981:0.60583389 3982:3.5169535 3985:4.59589 4003:1.1346972 4004:1.4260602 4007:0.96297807 4010:2.3022282 4011:0.0085810423 4012:2.3326321 4016:1.8141336 4017:1.4008236 4020:2.1743727 4025:0.17843343 4028:3.8779049 4034:3.1850462 4035:1.1812391 4036:1.4977528 4037:2.8377743 4042:0.044820368 4044:0.63892138 4047:0.46724463 4049:0.1284202 4050:0.21727443 4054:0.60790497 4058:5.9778538 4066:4.8745461 4068:0.0054954886 4072:1.1521357 4073:0.10051489 4076:0.81191909 4081:2.2187576 4086:0.084154934 4093:2.3808973 4095:0.85074741 
