svm_type c_svc
kernel_type linear
nr_class 3
total_sv 166
rho -0.382238 -0.364214 0.411128
label 0 1 2
nr_sv 47 60 59
SV
0.0002681645764452769 0 2:0.56744707 6:2.5330131 7:0.36543712 18:0.11685194 20:0.00057211518 24:1.8592682 25:2.8083105 28:0.24780107 29:1.7015859 30:0.047562718 32:0.96506894 35:0.033067763 40:1.4200547 42:0.49303263 46:2.3334341 49:0.81209058 55:1.5594821 59:2.0653322 67:1.1219156 72:0.5571987 76:0.91708243 78:1.1662107 79:0.32149428 82:0.57283568 83:2.8130822 87:0.88791716 95:1.990591 96:0.64344305 100:1.6780882 102:3.1953623 103:0.22304851 105:1.3889709 112:0.79756743 113:1.3646272 114:0.52518779 116:0.99471897 118:0.41371104 119:0.43873268 121:1.1441454 122:0.52254224 127:0.30414981 129:0.68239224 130:0.37706083 132:0.41928095 136:2.3087234 143:0.44643611 144:1.0190911 146:0.48289812 161:0.85796332 162:1.4755008 164:1.0684447 165:0.15149033 167:1.1643924 169:1.1994566 172:0.691522 175:0.053011149 181:0.28892171 187:0.10682158 188:0.30052388 189:0.60678029 191:1.6902328 194:0.093321025 195:3.43539 196:1.6790795 197:0.52824605 204:0.877303 205:0.77120769 207:0.16499257 210:0.76264983 212:1.7733799 213:1.3481318 216:0.1023863 219:0.45459113 221:0.90120411 229:0.20269677 232:1.85759 234:3.1604328 240:1.2311121 241:0.84379995 245:0.57059515 247:0.40093824 248:0.084350705 249:0.16322073 250:0.42183024 251:1.0244225 254:0.14448124 257:1.690598 259:1.1790352 261:0.18262263 263:0.12109903 265:0.89909351 266:1.5493093 269:0.20293672 270:0.30601427 271:1.6317408 281:2.4024324 282:0.52920574 286:0.66764528 288:0.45837501 291:0.36221918 292:1.7027091 293:2.113204 296:0.59956002 297:0.87436682 305:0.63131326 306:1.4855628 308:0.48194966 321:0.56271392 322:0.45603737 324:0.6723032 325:0.24072894 328:1.2905879 329:0.17080528 332:1.3969369 335:1.2008965 341:1.4282582 348:1.0575693 350:1.2556746 351:0.36577895 358:0.94556612 361:0.92492354 365:0.28855968 367:0.72916567 370:0.18163551 376:0.18204686 389:2.3469856 390:0.9896605 394:0.62339795 407:0.34378958 411:2.6860669 418:0.40675575 419:0.43772382 421:1.049861 422:0.12056008 423:0.91062617 434:0.59543037 436:0.17959909 437:0.32185185 438:1.5623832 440:0.47352028 445:0.034885943 446:0.35481882 449:1.2449777 451:0.5451467 452:0.7343666 454:0.067936182 457:0.29459316 458:0.37095636 460:0.4913702 461:1.4392632 468:0.096211523 472:1.7236165 477:0.29194251 483:4.2926397 484:1.1437496 485:2.8037677 495:2.0092003 497:0.23978361 500:0.78588074 504:0.56264871 506:2.0302057 511:2.3719127 513:1.4194412 515:1.3529285 516:0.37935817 533:2.1716409 537:0.017993569 539:0.26580817 541:0.85552996 542:1.293187 548:2.8505976 556:1.9287913 557:2.8345048 562:0.97330415 564:1.3616771 565:3.1796565 568:0.03052631 569:1.2653421 577:1.2063549 588:2.413861 592:3.2208962 597:1.6635594 598:1.3019637 599:2.1509328 600:0.60362834 601:1.3882205 603:2.6148939 618:0.1546118 619:0.97166914 622:0.013400495 624:0.2499335 626:1.4413176 630:0.90506804 642:1.0920742 643:0.47535121 644:1.25159 647:1.6988368 651:0.8592633 652:0.76529884 654:1.7085761 655:0.18540698 656:0.46561247 657:0.64349395 664:0.42667592 665:2.3002093 666:0.19638038 667:3.1689906 669:0.81006455 680:1.055434 682:1.2193627 685:1.3608088 686:0.4871794 691:0.83368754 696:0.648049 699:0.77867162 701:0.20643109 710:0.19401734 713:0.34747112 714:0.98823148 720:0.56018996 723:0.55139816 724:1.1907461 727:2.3413682 731:3.2192025 733:2.6022127 735:0.42415503 736:1.0791334 738:1.7509544 739:2.4271474 741:3.4026461 749:2.8545194 750:1.9178293 753:0.16826633 754:1.3167653 759:1.151335 761:0.77939481 763:0.060715944 770:1.4986765 772:0.12798549 773:2.4067252 778:1.9385691 779:0.57774931 783:0.55264825 785:0.49888763 786:1.3673904 791:0.1445777 792:0.32089221 794:0.39089644 799:0.33228022 800:0.3541095 801:1.5455446 805:1.5081446 809:2.3651793 819:1.1231084 821:0.51614791 822:0.75646996 827:0.13404329 834:2.450706 839:2.1640127 840:1.6977935 846:1.697202 847:1.1396286 848:2.3952601 854:1.0753552 855:0.34432167 860:1.2551267 862:0.5398013 863:1.3831609 866:0.11160952 869:2.2809465 872:1.2283221 878:1.682084 886:1.9736207 893:2.3556929 894:0.79402828 899:0.034385055 902:1.7685895 909:0.97703779 911:0.68787736 912:1.1664051 913:0.0093128681 922:0.19459143 925:0.27828607 928:0.86913216 929:2.2214305 931:0.49942482 932:2.582469 933:1.7833637 935:1.3378513 938:0.5441854 939:0.5099479 947:2.747076 949:1.7495174 952:1.7234757 960:1.6350352 961:2.1099551 964:0.56548429 965:0.025349498 972:0.52594161 975:0.52687383 978:1.0907805 983:1.7842646 988:0.14839837 989:0.76031733 992:0.34076035 995:0.55270833 997:2.2142675 998:0.39903945 999:0.0025248826 1000:1.7927976 1007:1.2010937 1015:2.1900117 1020:0.44427127 1024:0.21285364 1027:1.282581 1032:1.1632247 1035:1.5039375 1039:0.010020196 1041:0.23287672 1042:0.20796573 1049:2.98366 1052:2.4414773 1055:0.39127475 1059:1.5072329 1060:2.980803 1061:1.6974099 1063:0.45368034 1064:1.186264 1067:1.0716159 1071:1.3363547 1073:2.0510738 1078:0.55000079 1080:0.1294944 1082:0.58667755 1088:0.01131022 1089:0.2948941 1090:0.90435493 1095:0.49146083 1096:0.5049789 1110:0.74869061 1112:0.54591215 1115:1.1004078 1117:2.1229961 1118:0.42699412 1122:0.40403429 1130:0.83333361 1133:2.6499567 1134:1.1583169 1135:0.31092125 1137:1.217196 1138:0.053674251 1141:2.0662642 1146:0.11544988 1147:0.4083758 1148:1.1746356 1151:1.8551533 1163:0.37514731 1166:1.7598355 1168:0.23335341 1170:1.5569644 1179:0.54004711 1181:0.23667136 1185:0.1500589 1188:0.90284348 1194:0.14462864 1197:0.9223876 1199:1.877105 1204:0.0034169555 1206:0.61770904 1209:3.4159257 1211:1.3869531 1212:1.2709272 1216:0.047069073 1217:0.97375673 1218:1.4706343 1221:3.0436711 1222:0.59801984 1227:0.93503416 1228:1.2153676 1231:0.91118264 1235:1.0558419 1237:0.20564935 1242:0.93755496 1245:1.2055172 1249:2.0110526 1250:0.11365825 1253:1.8833532 1255:0.6480248 1259:2.243866 1261:4.582139 1264:1.6927555 1272:0.41851866 1274:0.69786471 1281:1.155746 1292:3.0937796 1294:1.1481664 1295:0.01062566 1308:2.889395 1314:2.9281807 1316:0.78086042 1319:1.8555921 1336:5.5132809 1342:4.0173535 1344:2.769052 1345:1.6037545 1347:0.49008629 1348:0.58410007 1349:2.0979843 1350:0.020239547 1352:1.5621996 1356:0.038880706 1357:1.0491917 1358:1.5220342 1360:0.18415135 1365:0.43472606 1370:2.6405485 1376:0.49472851 1379:1.4179418 1380:2.1413834 1385:1.2942928 1386:0.18759495 1387:2.4673955 1388:1.4014976 1392:1.6273975 1401:1.4559567 1402:3.2898111 1405:0.34372175 1406:0.96680546 1410:1.4735821 1423:1.7974952 1426:1.1158619 1432:0.39146781 1437:0.35726529 1442:0.61677063 1444:1.0140973 1445:0.42563409 1449:2.7395093 1451:0.31498373 1455:0.069385976 1460:0.90647268 1461:1.0010415 1462:0.71578407 1463:1.1354761 1466:0.33754957 1467:3.9833589 1470:0.48622444 1479:1.4113097 1480:1.0350711 1487:1.218063 1489:0.51222134 1496:0.16583216 1498:1.5182914 1500:1.0651863 1501:1.3183174 1502:0.48195025 1507:1.7493513 1513:2.517647 1517:3.5309942 1520:0.32543072 1524:1.9829826 1525:1.7480938 1535:0.055636197 1541:1.0798974 1544:3.133786 1551:2.3981247 1557:0.38067982 1563:1.5825101 1575:0.6644848 1577:1.0952116 1578:0.34367448 1580:0.17620948 1583:0.034884214 1586:2.005842 1590:3.0291262 1591:1.0688089 1594:1.8105997 1597:1.4183424 1602:0.34251374 1607:1.017053 1611:3.1460369 1614:2.2538316 1615:0.50892639 1621:1.494988 1622:0.10937455 1623:1.004693 1633:3.4243765 1634:0.088575512 1636:1.830147 1637:0.98941052 1638:1.4363947 1640:1.72912 1643:0.95275581 1648:2.2938919 1651:1.8275962 1657:0.014211029 1661:0.40032834 1666:0.86239642 1668:0.010148227 1670:0.28807467 1677:2.4858363 1678:1.7360179 1679:0.39860392 1680:2.4382401 1683:0.46088284 1684:2.1819954 1686:2.7484004 1687:1.8864559 1688:3.073446 1689:1.977888 1690:1.2835348 1691:0.39976227 1694:1.9984223 1697:0.45802692 1698:0.42635778 1702:5.0898561 1703:0.024288654 1704:2.6490767 1706:0.080581129 1707:2.4226875 1715:0.82358527 1722:2.922838 1727:2.39027 1728:0.2160446 1736:1.015156 1738:0.0022554398 1744:0.31125736 1746:0.23180059 1748:0.11318481 1750:0.84674841 1752:3.1340647 1753:2.0146792 1754:0.58340192 1756:0.45910448 1761:0.52227843 1762:0.39860019 1763:0.22138146 1765:1.8508792 1767:0.75659943 1772:1.1747808 1774:0.45330369 1776:0.29890436 1779:0.70223969 1780:0.091676027 1782:0.21362492 1784:2.7977319 1786:0.13426603 1793:0.10904831 1795:0.43540329 1799:0.59842169 1801:0.17917562 1807:0.8362788 1810:0.11705557 1816:0.70424688 1818:0.11585158 1819:0.97207326 1821:0.27672386 1824:0.32369396 1828:2.0018883 1834:0.73444271 1835:0.59185356 1836:0.88914454 1838:0.45397606 1839:0.56100458 1840:4.1247225 1841:0.060697705 1846:0.66893184 1850:0.28406635 1851:0.15086716 1855:2.3246047 1856:1.8329982 1861:1.9650335 1864:1.7495282 1868:0.060560241 1869:2.1247139 1875:0.5746426 1877:0.70419514 1878:1.4785852 1879:0.78493184 1880:0.046892345 1883:0.40196911 1884:0.76913124 1886:2.2099907 1890:1.3057929 1896:0.13877206 1902:0.52865231 1903:0.45967132 1904:0.17873937 1914:0.63903397 1915:0.27514529 1919:0.60288012 1923:1.0928043 1929:0.35301569 1936:0.96275491 1940:0.88863099 1941:0.60577762 1947:0.47246748 1953:2.0551088 1954:3.177206 1956:2.2398856 1960:0.24413061 1966:0.43835598 1967:3.9324021 1968:1.9197373 1970:0.44284725 1974:0.1668981 1977:3.4796524 1978:0.038143665 2006:0.46324611 2007:2.3981674 2012:0.094565034 2023:1.5532315 2026:2.7352431 2027:0.24012744 2029:2.4001551 2031:0.46000656 2032:0.4503313 2033:0.15466222 2036:0.46691418 2039:1.1608776 2045:0.88982391 2046:0.81919676 2048:1.0607615 2049:0.50260109 2050:1.5708365 2054:2.2866392 2056:1.4289532 2060:0.69224483 2061:0.81455505 2062:2.3495779 2068:2.2701402 2070:1.0430787 2074:0.02752021 2075:0.5255779 2076:1.8188224 2077:0.36587518 2082:0.31091207 2086:0.11511075 2087:2.503546 2088:0.69980419 2089:0.98471439 2094:0.832798 2095:1.0268719 2096:4.0820346 2100:1.5822423 2110:0.42689496 2114:2.5875659 2116:0.75622994 2123:1.4445772 2132:0.29294181 2133:2.1665347 2148:3.3072689 2149:2.0749345 2150:2.3227427 2154:0.77499247 2158:1.8311872 2160:0.92605197 2161:0.25432548 2162:2.5528338 2163:0.37462309 2164:0.88197565 2166:0.90297985 2167:0.93053591 2171:4.1726313 2174:1.6765566 2177:0.022419244 2178:2.0014155 2181:1.9239776 2183:0.21912944 2187:1.4327555 2189:0.74430525 2194:0.72738004 2198:1.8915149 2208:2.3391786 2211:0.3188619 2216:1.7500052 2220:0.40225342 2221:1.5673736 2223:0.51761276 2225:0.45865604 2228:0.60606891 2230:0.015923187 2231:0.19656645 2232:2.7408626 2235:1.737129 2242:0.3408848 2245:1.8745492 2250:1.3013587 2252:0.54350978 2255:0.022734642 2260:0.9714855 2261:4.4381819 2267:0.58283269 2271:0.85303676 2272:1.2784028 2273:1.2850726 2274:0.65254265 2275:2.3781486 2278:0.72072339 2286:1.261791 2291:0.64927816 2294:1.0274959 2295:0.82225937 2303:2.1398213 2304:1.2470274 2314:2.2829928 2315:1.2027692 2318:0.10123 2320:0.44817054 2322:0.3970941 2323:2.3130021 2324:1.3533658 2327:0.4458465 2329:1.489578 2334:4.1373558 2336:0.039904296 2339:0.73077178 2344:1.65358 2349:0.18999952 2350:0.31393465 2352:1.0286191 2355:2.0297604 2357:2.4180286 2367:0.49750179 2370:1.1482927 2371:0.023250163 2377:1.0025661 2381:1.4734905 2383:2.8320432 2384:1.5662991 2385:0.96178573 2389:1.3027732 2390:2.5943723 2392:2.7260079 2396:1.0703214 2397:0.69405293 2403:1.1149346 2404:0.64941728 2411:0.32513449 2418:1.5845672 2424:0.45907629 2425:0.96511668 2428:0.92500335 2429:3.5425749 2430:1.476576 2431:0.042685211 2432:0.67057943 2435:0.25620887 2438:2.633625 2439:1.1436785 2442:0.10242498 2448:0.94676322 2449:1.070273 2450:0.50731891 2452:0.098680735 2458:0.17657503 2463:0.87874162 2470:0.27907127 2473:0.74088407 2475:0.25022447 2476:0.46690479 2484:0.011547327 2485:0.73968619 2488:1.1966966 2497:2.7118039 2500:1.5220416 2503:3.8296392 2504:0.64141309 2505:1.5853691 2509:2.2552128 2521:0.42083395 2526:2.3256135 2527:2.7583246 2528:1.2373629 2529:1.0625849 2530:0.37448412 2541:1.3680806 2542:0.4992466 2543:1.1662052 2544:0.84551013 2551:1.0064421 2552:0.20991309 2556:1.5611341 2562:0.44592947 2564:0.55735058 2566:0.74541461 2569:0.34378898 2571:0.64279681 2572:0.60820186 2573:2.0652103 2578:0.055749595 2581:1.4312145 2586:1.5772115 2588:0.59948957 2590:2.874022 2592:2.1669033 2593:3.2962945 2596:1.386279 2597:3.6793513 2600:1.8115655 2603:1.7413086 2606:0.89250052 2614:0.56554395 2617:0.15678698 2621:1.7025886 2625:5.4433923 2628:0.96883303 2634:0.41794845 2638:0.047746807 2639:0.81363326 2643:1.7212952 2648:0.084710181 2653:2.0337703 2654:2.3850188 2655:0.61486715 2656:0.53510445 2658:1.987528 2661:1.2853844 2663:1.0479336 2664:0.97460759 2666:0.52258372 2668:0.52578831 2671:0.032970667 2673:2.1211073 2678:1.0709705 2680:0.43459713 2682:1.0506321 2683:0.52122372 2684:1.8234639 2685:2.7088399 2690:0.99554479 2694:0.19313607 2698:0.54772216 2700:0.43021816 2702:1.2130448 2703:1.4735532 2704:0.38098472 2709:0.31672084 2714:0.62716603 2715:1.5254101 2716:1.2631602 2722:0.87441635 2723:0.01627177 2724:1.2743459 2726:1.0330976 2732:0.013754547 2735:0.16815716 2737:0.90566695 2738:0.73942161 2741:0.097627997 2745:1.2614887 2746:1.2665522 2748:2.3305984 2750:0.036859721 2757:2.6034217 2765:0.76993394 2772:1.4939933 2776:0.78478032 2777:0.75682098 2781:2.4713104 2784:0.96751165 2785:0.89611423 2786:0.32572207 2788:0.025688291 2790:1.1133814 2792:0.023870856 2793:0.4572075 2800:0.12915805 2810:0.76169586 2812:2.1027186 2813:0.43602651 2818:1.7910776 2825:1.0319223 2827:0.80623633 2829:0.37137601 2831:1.8843145 2834:2.6255686 2835:0.77518511 2838:0.94662225 2844:0.83245558 2846:0.80074012 2847:1.1348068 2848:1.2873161 2849:2.5304651 2852:0.27388114 2855:0.54337788 2861:0.34399748 2862:1.0623331 2863:0.42132467 2866:2.7600398 2867:1.1018149 2868:1.5294929 2872:0.18061659 2875:0.43173605 2876:0.89158833 2878:0.38450411 2879:1.0576591 2881:0.97591889 2883:0.27980584 2884:0.24137288 2885:2.5768611 2888:0.21333721 2889:0.25538746 2890:0.4240917 2894:0.44183409 2895:0.27754238 2896:0.66344589 2897:0.072466254 2898:0.41846326 2902:1.7001519 2903:0.95322728 2905:0.88125646 2909:0.47995704 2912:0.35330206 2925:1.4513049 2927:0.43481529 2929:4.1438589 2933:0.17861275 2937:2.1058822 2940:0.94176912 2942:0.48434436 2943:1.2571416 2944:3.4162447 2945:1.5534579 2947:1.864554 2949:1.2804506 2950:1.0619259 2952:2.4009583 2955:0.04088375 2963:0.26652017 2967:0.20414481 2974:1.2535071 2975:0.55545366 2982:0.094549417 2984:0.14493957 2985:1.4375057 2986:0.48460561 2990:0.5751943 2994:0.54997927 2995:0.21844682 3001:1.502692 3003:0.31433654 3004:0.10273251 3005:1.9615492 3008:2.0842414 3009:0.10354638 3011:0.99438411 3013:1.6731379 3019:0.47412595 3023:1.9223301 3025:0.56102604 3028:0.53025389 3030:0.13109738 3033:1.6650686 3034:1.4977925 3035:0.72384119 3037:1.7336636 3039:1.9179878 3042:0.54025477 3054:1.5100632 3055:0.22073334 3056:2.7577398 3073:0.042948723 3074:0.26702422 3076:0.92785525 3077:2.3226998 3091:1.2746469 3092:3.9689202 3098:0.82551098 3103:1.4360847 3106:3.0647855 3107:2.2104917 3116:0.19518489 3118:0.23838872 3120:0.01378271 3127:0.32038936 3130:2.5725026 3133:2.1382089 3135:0.14971948 3139:0.22167227 3145:2.5645914 3148:0.67550772 3156:2.3536978 3157:2.0736561 3158:1.2995852 3168:2.1144421 3170:3.0880003 3175:1.0356077 3176:2.4183095 3178:1.54624 3181:0.99841589 3187:1.030354 3194:2.1973324 3197:0.016458273 3206:0.37311405 3208:2.3470037 3211:4.4598904 3212:2.4802527 3213:0.51710856 3214:2.208998 3220:0.62994254 3222:1.7615364 3228:0.028128058 3231:0.76708394 3232:1.7362149 3234:0.93038857 3238:1.7667873 3239:1.2208195 3240:1.3680507 3243:2.1529388 3244:0.063046455 3245:1.1028758 3246:0.18185408 3248:3.4166987 3249:0.29141343 3252:0.31111249 3259:0.31901234 3261:1.6894286 3264:2.0328937 3265:1.9897821 3266:2.0914948 3267:0.67250955 3270:0.95107764 3272:1.0222024 3273:0.7094788 3274:0.87789905 3275:1.0737531 3276:0.1369113 3277:1.1586699 3278:0.38986135 3281:0.27842367 3284:0.84257168 3286:0.02571708 3290:0.77102488 3291:1.3306206 3292:0.31074923 3298:1.5804687 3300:0.35530561 3303:1.926337 3304:0.51011395 3306:3.5605943 3307:2.4551029 3323:1.1871063 3325:0.062086344 3326:0.58921766 3329:1.3954597 3331:0.48351121 3336:0.31703478 3337:0.21350712 3338:1.3119531 3340:2.8022976 3354:1.2002053 3357:1.4390887 3360:0.23804155 3363:1.7454137 3367:2.8087084 3373:1.0886735 3380:0.39129412 3382:1.6004691 3386:0.59101009 3388:0.49247497 3389:1.0575309 3390:0.56708664 3391:1.5431491 3392:0.74118811 3395:3.2553034 3398:5.2543397 3400:1.9968289 3404:0.42135412 3406:1.652133 3408:0.43447766 3409:1.666041 3410:1.8667728 3417:2.4541361 3425:1.2806811 3427:2.9986548 3428:0.92685348 3436:0.65191424 3440:1.4952735 3445:1.2675624 3447:1.8561069 3448:1.65579 3454:0.34885761 3456:0.48284179 3457:1.6761112 3460:3.0335836 3461:0.74547732 3464:1.0201159 3467:0.3517907 3470:1.6968062 3473:5.0141702 3479:0.64258581 3481:0.62127197 3483:0.060856581 3485:2.9739106 3487:0.19673693 3500:1.5516493 3505:1.2010911 3506:0.84592664 3510:1.577809 3518:0.11089224 3521:0.074291527 3527:0.010104835 3528:0.44710892 3533:0.61010057 3534:0.52696902 3535:0.92439163 3536:0.95755708 3537:0.51468271 3539:1.3445292 3541:2.4359589 3547:0.060523301 3548:0.67351747 3551:1.1412597 3555:1.2937956 3562:1.7455584 3563:0.86059624 3564:2.3685722 3566:1.1502047 3571:0.030036449 3572:0.31313649 3573:0.053711057 3574:0.54491889 3575:0.13340908 3585:0.8119747 3586:0.43615058 3587:0.4795261 3588:0.073439687 3589:3.6903729 3594:0.19798738 3595:1.7320132 3597:0.73866999 3599:0.30011678 3600:2.5492275 3602:0.50884461 3606:0.64576882 3609:0.29037762 3617:0.29058874 3622:2.0204232 3626:0.44884816 3643:2.158762 3645:1.1448308 3651:0.72473979 3652:1.427453 3653:0.32147908 3654:0.36348656 3655:0.66721559 3657:3.3038583 3659:0.59318495 3660:1.3687816 3665:0.16881816 3666:0.3015281 3671:0.1328969 3672:0.59440005 3673:1.2877684 3674:2.9244709 3676:0.59457976 3679:0.29857492 3683:0.89754784 3685:1.7528677 3689:0.51876181 3690:0.0094866157 3692:0.466088 3693:1.8338697 3704:1.6906013 3710:0.083832681 3717:0.37144768 3720:2.0678954 3727:1.3994272 3728:0.066511631 3729:0.36519247 3730:1.0253935 3733:0.19994715 3734:1.0436391 3737:1.1362062 3740:0.11345077 3742:0.57948965 3755:1.1119479 3759:0.017879903 3762:1.8707006 3763:0.73894674 3765:0.72680944 3770:2.2122722 3774:0.52889955 3776:1.451166 3777:3.3234084 3780:0.57730484 3782:0.42925081 3785:2.4677141 3787:1.27285 3792:0.87741303 3794:4.0282693 3801:0.84998047 3807:0.24981725 3810:1.4071109 3816:1.3244511 3824:1.6710279 3828:1.5343561 3829:0.25831032 3832:0.38165322 3837:1.2549067 3840:0.55118489 3843:0.36478734 3844:0.82058191 3845:2.1635141 3850:0.0560669 3851:0.98190188 3852:2.6262627 3856:0.092130661 3857:0.33623093 3858:0.15129268 3862:2.3498385 3865:0.48300099 3866:0.35605749 3867:0.59092748 3869:1.2250676 3870:0.74432027 3871:0.81255877 3877:0.40724567 3882:0.65755743 3886:1.4844027 3887:0.91118759 3888:0.29569307 3889:0.78969502 3890:0.66843575 3893:0.99958903 3898:0.36332363 3903:0.3682456 3905:0.089814678 3906:1.0852476 3908:1.4060652 3912:0.092363536 3914:0.60720384 3915:1.9463764 3919:0.39974993 3923:1.8104757 3930:0.37866688 3933:2.1363432 3936:3.3959525 3941:0.07407096 3944:1.4692374 3945:0.80204886 3950:1.4458789 3951:2.1631749 3952:1.8599261 3954:0.009085536 3956:0.6183821 3958:1.2356709 3960:0.70376855 3964:0.45133454 3969:1.2441136 3972:0.38361543 3980:0.77658802 3981:1.0976471 3985:0.016017616 3988:2.5689163 3990:1.1979961 3992:1.8700647 3993:0.30721927 4000:1.6460671 4007:1.7140359 4010:1.4354354 4013:1.4884286 4015:0.87582135 4017:1.8425266 4022:0.126798 4035:0.079798251 4037:1.2803377 4040:1.7248172 4048:2.5132859 4051:2.1242511 4052:0.12950383 4053:1.3144255 4059:0.23994032 4061:0.22607934 4066:0.3564879 4067:1.329657 4071:0.15289158 4072:0.10911134 4076:0.18134552 4079:0.15050805 4080:1.1921105 4085:0.42890668 4086:0.033822298 4088:0.58989829 4093:2.4120314 4095:1.3598266 4096:2.3383415 
0 6.747560418855862e-06 4:0.47123143 5:0.3889744 7:0.95916492 12:0.85589337 16:0.052019358 17:0.87369108 18:0.070169926 19:0.32318246 22:1.0340843 24:0.32775137 28:0.35764322 36:0.82900625 40:0.38567397 44:0.29514611 46:1.0522655 50:1.0185974 51:1.0245929 55:0.25194323 59:0.41852701 61:0.66009623 67:2.9215107 69:1.2356849 72:1.8342228 75:0.068506747 77:0.70934689 79:0.44812599 85:0.57757121 88:2.1646965 96:0.23825991 104:1.2775004 105:1.5778359 111:0.72033703 118:2.4641571 120:0.82775187 121:2.8631804 122:0.39069861 127:0.70673645 129:0.10767764 132:3.164305 136:1.5254068 137:1.2878828 138:0.34141684 145:1.0739725 146:0.14607468 150:1.6956482 152:1.1895422 154:0.98309129 155:0.79583389 156:0.45303899 162:0.21748352 163:2.4820969 164:1.3295016 165:1.8572813 173:1.5697234 177:0.65112352 178:0.073829651 179:1.7235798 185:0.70873439 189:0.61901224 191:0.015012622 196:0.12752289 201:0.4958061 202:1.7443899 207:1.0322974 208:0.092721641 209:0.13492861 211:0.01138097 217:1.7591301 221:1.3511593 222:0.74625057 226:0.9240396 227:2.7236705 228:0.7719301 234:0.35789293 242:3.5101819 245:1.8320123 247:2.0686722 253:0.048511803 258:0.59434724 259:0.1946044 273:2.3172557 281:0.7052862 282:2.4556067 288:1.0385208 289:0.46544132 291:0.3617512 293:0.73441374 296:0.68502682 299:0.54545617 302:0.049177706 306:0.77495694 309:1.571146 310:2.7535417 322:0.033772826 323:0.62440801 324:0.48271519 326:1.0612389 328:1.3702499 330:4.3875775 334:0.71549821 336:0.22626066 337:2.8006847 340:0.17322947 343:0.64178991 359:0.49168405 364:0.61600059 365:1.3073359 366:0.0081734657 367:1.0679857 369:3.1778712 373:1.6226588 377:2.2725382 379:2.0052226 382:1.2319402 387:0.48213446 388:0.34433195 393:1.9191614 397:0.29467532 402:1.7711053 404:2.5235417 405:1.2255769 406:1.5824697 409:0.1522629 410:1.6236019 411:1.4888685 416:0.89646912 419:1.2357702 421:2.7069159 423:0.14290571 430:0.04614085 432:0.074054509 433:2.9385233 438:0.95774096 450:0.1602785 459:0.20686369 461:1.3136271 462:1.387406 463:1.5422826 476:0.13396248 481:0.96727413 484:0.072715253 485:2.2162671 492:1.2918826 495:0.69247591 496:0.38622519 498:0.55083609 499:0.51205313 505:2.0920641 507:0.82121056 511:1.6155171 512:0.11189866 515:1.7496089 522:1.4757463 523:1.6364422 527:1.1930077 530:1.1842446 538:0.33357632 542:0.13749132 550:0.0028995275 551:0.93304634 554:0.084854275 556:2.0397217 557:2.3725157 558:1.3666754 560:0.84199703 565:1.5101787 569:0.37661266 571:0.99972057 572:2.1483247 574:1.1666453 576:1.4063381 581:0.038752973 582:1.3546251 584:0.77848464 587:0.22369733 593:0.48069006 594:0.43685278 598:1.534289 599:0.14702666 600:0.14474502 601:0.068161041 603:0.13551059 606:0.19639853 607:0.71324313 608:1.331447 609:0.92272484 610:1.8705535 619:0.061174095 620:0.22500557 621:0.52364916 623:0.37023559 625:1.4089657 629:0.48503232 630:1.1119475 631:2.7442241 633:0.48422751 640:0.31548607 644:0.89180857 649:0.10947153 652:0.12074396 655:0.45770869 657:3.2728262 662:2.2241793 664:0.75793362 667:0.30167583 669:1.0750616 672:0.10500768 673:1.9499691 674:0.33431518 680:0.24794355 681:3.3201582 682:3.4615047 685:1.6687258 686:1.7865355 691:3.5192373 695:0.31929168 696:0.0036985874 698:0.8193444 700:0.27486062 710:2.048389 715:0.37854931 719:2.7232652 724:0.65734184 727:0.52377599 731:0.69678485 734:0.63751084 735:1.419652 736:0.42451859 739:2.6994486 742:0.47367916 746:1.8928076 747:0.94923574 748:1.3151244 750:0.49238303 753:0.62394035 755:1.754827 758:1.2712556 759:2.7573948 761:1.1869344 772:0.10030961 773:1.946074 775:0.11399007 782:2.3707981 783:0.17987469 785:1.2586446 786:0.86568403 788:1.6936674 797:0.14815003 799:0.24577853 800:0.80404717 804:1.9076204 805:1.2341405 809:1.4483788 813:2.6071379 818:0.33980075 821:1.0488915 824:1.0928459 826:1.023123 827:0.9148407 833:1.6458807 834:0.35947639 836:1.8763289 838:0.50072348 839:0.52484459 841:1.4350268 846:0.66547823 847:0.076203451 852:1.6571612 854:0.30350524 855:0.54651278 858:1.248744 861:2.6128802 862:2.1721711 865:0.37853146 866:2.0022612 867:0.29463953 871:0.83353418 878:0.70479745 881:0.31669095 886:2.6466308 888:0.72607547 892:0.33570075 893:2.7855906 894:0.10176489 906:0.31260544 911:0.22375658 912:1.297158 914:1.1577778 915:0.2615113 919:2.8759809 921:0.55629331 922:0.38140541 935:0.83329004 937:1.4402107 944:0.27179083 949:2.0466354 953:1.0281022 957:0.57993412 961:0.10588396 965:1.8178644 966:0.50660771 967:0.30806929 970:0.74649191 973:0.2968021 975:1.0383378 977:1.9423474 989:1.4011464 992:1.4818157 993:0.63238132 995:0.03305614 996:1.1960496 1008:0.22845978 1009:3.009474 1018:0.32362825 1020:0.93872142 1024:2.2125168 1030:0.043489039 1032:1.1287148 1034:1.8834991 1036:1.9961314 1039:1.3834323 1040:2.2797046 1041:1.1509416 1044:3.3318493 1045:0.13487184 1051:0.099522218 1052:1.2911232 1056:0.55786693 1057:1.2237439 1059:0.32123256 1062:0.50400454 1064:0.92520583 1067:0.85791743 1074:0.71522558 1076:1.5218902 1077:1.0351448 1078:0.3878186 1081:2.5720477 1082:0.41102234 1084:0.59108311 1087:1.9333457 1089:0.86497664 1090:1.3911786 1092:0.89740872 1100:0.4680925 1101:1.3585238 1103:1.7214961 1109:2.038805 1112:0.744407 1113:0.34281656 1114:0.09398973 1115:0.94719052 1120:2.376457 1125:0.65735328 1130:1.1598768 1134:0.86099136 1139:1.5073919 1140:0.55623108 1144:0.46715051 1150:0.17773008 1152:0.28347576 1155:0.26940158 1160:1.7181878 1161:1.3086789 1163:0.49076706 1166:0.99505985 1167:1.9475703 1172:0.35183793 1175:0.054826707 1176:0.35652184 1184:0.95720541 1196:0.64681864 1197:1.7500795 1199:0.70382547 1206:0.59651095 1207:2.7148147 1208:1.3718019 1209:3.2755175 1210:0.15085328 1211:0.76896113 1214:0.2933161 1226:1.8222564 1228:0.90594274 1229:1.0862807 1231:1.5147786 1233:1.6500289 1242:1.6419028 1244:0.76755893 1251:0.062401861 1254:1.9538035 1259:0.74624616 1261:2.2128935 1264:0.35125715 1265:0.32916892 1266:1.7722349 1284:0.76429081 1286:0.018724054 1288:0.8263194 1292:0.25307244 1299:0.33053741 1305:1.8835253 1311:0.13614649 1312:0.47417709 1313:0.30306923 1314:0.36951655 1315:1.1627519 1317:0.72644019 1320:0.051661789 1321:0.86298966 1327:2.296087 1329:2.0431261 1330:0.37199569 1332:1.4474449 1335:0.99098992 1336:0.97976166 1338:0.44356722 1340:1.8802125 1342:2.8127627 1348:0.048370361 1350:1.2257931 1352:1.7453139 1354:0.85569149 1356:1.5389115 1357:0.68900335 1360:0.53690106 1361:1.2769144 1363:0.18597525 1366:0.035221428 1377:2.565968 1378:1.3518629 1385:2.6799519 1387:0.6684984 1388:1.8759117 1389:0.071211636 1390:1.7995622 1392:2.173346 1393:0.42969769 1394:1.5452759 1397:1.2912986 1400:1.1372083 1401:1.0256634 1402:1.4909142 1407:0.52426022 1409:0.037525922 1410:1.9730452 1411:1.0520242 1414:0.077796459 1415:0.27205878 1422:0.27673823 1423:1.7410676 1425:0.23780239 1432:3.2859139 1433:1.9112976 1435:1.777138 1439:1.7451313 1448:1.1575766 1450:2.6667645 1452:0.92758524 1453:1.9131279 1454:1.4525334 1455:1.262325 1457:1.8576361 1458:0.25937179 1459:0.0015198588 1460:2.8161421 1467:0.46531737 1468:0.39737591 1470:3.3993506 1475:1.2601366 1477:0.45983344 1480:1.3819863 1482:0.78664875 1483:1.8835235 1484:0.87276566 1486:0.92961824 1488:0.091157556 1492:0.527394 1495:1.1301172 1496:3.0966463 1497:0.2076637 1499:2.4171772 1506:0.80805635 1507:0.22401418 1511:0.72201371 1517:0.43212131 1520:1.366044 1521:0.2262454 1524:0.78879249 1525:0.27675894 1528:0.18171147 1530:0.73610359 1531:0.95488614 1532:1.3266184 1533:0.30204573 1541:2.1901627 1542:0.93446779 1543:0.20215756 1544:0.53168738 1547:0.32009298 1548:0.35638392 1552:2.139782 1554:0.83586061 1561:0.94870371 1563:0.2032001 1565:0.10876673 1566:0.56770462 1567:0.95920527 1577:0.20017728 1581:0.31547588 1584:0.014167428 1587:0.95398581 1588:2.5751266 1592:1.4843459 1594:0.72705102 1596:2.6815963 1602:0.081111252 1605:2.7991042 1606:1.8874419 1609:1.009509 1611:3.4775527 1617:0.22288987 1618:1.9091092 1627:1.3566929 1632:2.2465186 1641:0.87523246 1642:1.4255184 1644:0.54474837 1645:1.8008327 1646:0.84771663 1648:0.7796964 1649:0.97898722 1652:0.22479481 1657:0.69038719 1663:0.19910291 1665:0.42348897 1669:0.78360325 1670:2.0891502 1671:0.28178298 1675:3.3645124 1676:0.12737161 1683:0.059332907 1684:0.57259279 1687:0.30722865 1689:1.5147337 1695:2.2885182 1697:2.5143216 1698:0.62834764 1700:2.0001683 1701:0.49231279 1704:1.394743 1706:1.5041809 1708:0.16005632 1709:0.37286717 1710:0.98360503 1711:0.075298391 1715:3.3630574 1717:1.048677 1722:0.83141375 1727:0.1460056 1730:1.921912 1731:1.3640263 1734:1.6004272 1735:0.37047601 1736:0.20699906 1738:0.72471321 1741:2.7427189 1742:0.5492025 1748:1.4234304 1754:0.98156959 1757:0.99531674 1759:0.70853627 1763:0.28016999 1764:0.71319795 1767:1.555033 1771:0.24591547 1776:1.8184338 1778:1.4752854 1780:1.6025584 1781:0.26667958 1783:0.2919043 1784:1.1099012 1790:1.2310268 1792:0.96589303 1799:0.37984478 1801:1.9648023 1803:0.27887753 1804:3.3522298 1807:0.42039046 1808:0.39634588 1814:1.2929633 1817:0.36113301 1824:1.6205201 1826:0.70822906 1832:1.3284726 1838:1.9355698 1840:1.1613208 1843:0.65786612 1851:1.3287241 1852:1.1280522 1854:2.2754216 1855:0.037659913 1856:0.76003134 1857:0.0082583129 1861:1.1108676 1873:0.83635932 1881:0.21572812 1885:1.2027617 1887:1.2069571 1890:0.66201973 1892:1.1183245 1898:4.1261168 1899:0.0035074949 1903:0.7345643 1904:0.54522198 1907:0.37275237 1910:0.46429473 1911:1.5797096 1915:0.95630872 1918:0.155606 1919:0.24408045 1920:0.047211081 1924:1.7390181 1927:0.71452618 1929:1.1045809 1937:0.53860915 1939:0.6483708 1940:1.4075708 1943:0.52427733 1948:3.2237227 1949:1.599224 1952:1.4804972 1958:0.27286875 1960:0.29961205 1965:0.22972384 1967:0.68035501 1968:2.3390539 1969:0.36764944 1970:0.80116719 1976:1.3572042 1977:0.57191449 1979:1.6138635 1981:1.0365571 1982:2.299932 1985:0.4507519 1988:1.6406316 1990:2.4824162 1992:1.2695824 1993:0.37388888 1995:1.7388198 2013:0.10826972 2016:1.704309 2018:1.0039121 2021:0.56119525 2023:0.96456099 2031:0.019481361 2032:0.91096085 2033:1.7758946 2038:0.042017281 2043:0.28344384 2044:0.83646965 2045:0.52618247 2050:0.64964926 2051:0.6387462 2056:2.7476819 2058:2.1527433 2061:0.55610716 2064:0.68683624 2071:0.37044936 2076:0.94654095 2077:0.68422151 2082:0.078358054 2084:0.33083656 2089:4.3370667 2090:1.6268483 2092:0.47053942 2096:0.051150709 2097:1.3715317 2099:1.3710767 2103:1.1006534 2106:2.3908193 2114:1.116544 2115:0.47144023 2133:0.2881552 2134:1.5717041 2136:0.36525553 2137:1.8066857 2138:1.3830761 2145:0.18373969 2154:1.6721488 2156:4.498455 2159:1.443939 2160:1.1579802 2165:1.409132 2170:0.28621218 2172:0.31351596 2173:1.5980916 2175:0.65589309 2176:0.70542639 2178:1.4522831 2180:1.0298948 2182:1.4876127 2183:0.56051421 2195:1.9276638 2197:0.83423042 2199:0.99086201 2204:0.87750304 2205:1.5511193 2212:2.0662806 2213:0.2548154 2214:0.51921535 2216:1.3171085 2220:1.348979 2221:0.41244322 2222:0.38317299 2223:3.5822246 2225:1.2048507 2227:0.50795412 2232:1.6045029 2236:0.58188969 2237:0.52971435 2245:3.3629158 2247:0.36235523 2249:0.67025512 2250:1.7174171 2255:0.75302136 2258:0.23242863 2260:0.12535805 2261:0.14176545 2262:0.25937134 2263:1.8532974 2267:1.394448 2271:0.62040913 2275:0.73708057 2280:0.16474 2283:1.4038227 2284:0.16903391 2285:3.737632 2289:0.29766107 2295:2.399806 2303:1.2223123 2304:1.9446378 2306:1.4951081 2308:1.3263803 2318:0.26348147 2319:1.2595955 2321:1.1894684 2322:2.2688987 2325:0.51348501 2326:3.5173397 2334:4.0059099 2336:0.24451953 2345:0.80571949 2349:1.4457796 2350:0.41503128 2353:1.1760865 2355:0.41926825 2357:0.056795537 2364:0.81311864 2373:0.61131167 2375:0.11452611 2378:0.080539107 2380:0.97580433 2381:0.42686173 2387:2.250643 2390:0.13813341 2391:1.5687023 2392:2.0494432 2396:0.99778104 2397:0.42968419 2401:0.12929323 2402:0.21536762 2407:0.094675422 2411:0.93489301 2412:1.0811185 2414:1.5542639 2422:1.7268438 2424:2.3144116 2425:1.0568342 2430:0.24328494 2433:0.71525228 2436:0.632788 2437:1.557394 2441:0.14034912 2443:2.6798258 2447:0.59087706 2448:1.1497965 2449:0.96729803 2462:0.34163004 2464:1.5954394 2465:0.28757519 2467:2.8505087 2478:0.11190033 2481:0.41455656 2482:1.8103001 2484:1.2781672 2485:1.5952225 2489:2.091244 2492:0.86266363 2495:2.4965365 2497:3.5739632 2499:3.5994391 2500:0.56853771 2512:0.079639614 2515:0.16479844 2516:1.4162625 2519:0.47928679 2520:2.2473516 2521:1.8513837 2523:0.33303314 2524:1.896136 2531:0.087334722 2539:0.081449956 2542:2.146791 2543:0.85932744 2544:0.29752851 2548:0.31583658 2550:0.66913342 2553:0.5041042 2554:0.45575619 2556:0.06467396 2558:0.39193776 2564:0.41003162 2566:2.1776061 2567:3.6681116 2569:1.3134979 2570:0.089382648 2572:0.95792663 2575:0.16411239 2577:0.89083791 2581:0.12673098 2587:1.5982122 2588:0.48890555 2589:2.7392364 2590:0.17427352 2592:0.74603468 2593:1.459548 2596:0.076504022 2600:0.029328734 2601:2.4004834 2602:1.2983513 2606:0.52186865 2608:1.9916241 2612:0.11036432 2613:1.2760431 2614:0.25341105 2617:0.98956692 2621:1.1878026 2626:1.5938865 2628:0.72453982 2629:3.6910191 2632:0.9782548 2633:0.71002591 2634:0.5053817 2637:0.12906295 2638:1.615859 2643:0.26842171 2644:0.03031522 2645:1.0685751 2646:0.26661327 2647:0.096061647 2649:0.0067341626 2651:0.59710497 2656:1.4911493 2658:2.631227 2661:1.1010649 2670:0.43023324 2672:0.37147987 2676:0.39125359 2678:1.5380129 2680:0.75037467 2682:0.6043753 2684:0.35834891 2685:1.1695518 2688:2.6502814 2690:3.065299 2692:2.0445089 2696:0.42064402 2700:0.94646716 2704:0.44866446 2707:2.0696983 2708:0.43295735 2713:3.2057188 2715:1.2086853 2717:0.57938468 2726:0.012806624 2730:2.8194304 2740:0.69711101 2742:0.28005975 2743:2.7243948 2747:0.11475295 2748:0.1520423 2749:2.3422775 2752:3.0556693 2754:0.44472653 2756:2.5118148 2757:0.50793535 2760:0.28063405 2766:0.6847347 2767:0.91660917 2768:1.4937148 2771:1.2540398 2772:0.74123019 2773:1.9727128 2775:2.8318472 2776:1.1921723 2779:2.91868 2781:1.0387335 2784:0.53476244 2787:0.61286592 2788:0.43024412 2790:0.31558016 2798:1.9003067 2801:2.0206199 2805:0.72715259 2814:0.18324041 2821:0.87883401 2825:1.5477314 2829:1.1133006 2831:1.7267343 2832:0.9457072 2834:1.6245828 2835:1.8286233 2836:3.4380414 2837:0.8414675 2841:0.33535847 2845:0.71814352 2850:0.21546227 2854:0.59265327 2856:0.60539389 2860:1.3778372 2861:0.43848249 2865:0.47530106 2867:1.1208026 2872:2.9050279 2875:1.0416069 2876:0.51971257 2878:3.038445 2883:1.7417268 2886:0.03309083 2889:0.97843945 2893:2.5539069 2895:0.4136835 2899:1.9572239 2905:0.98311895 2913:1.50901 2914:0.12635171 2918:0.80014956 2920:0.41650209 2931:2.5304563 2934:1.3898033 2935:2.6823163 2936:0.58198649 2937:1.4298848 2939:0.0012867451 2940:2.8490086 2942:1.4678012 2944:0.42138907 2948:1.207267 2951:1.6608149 2952:1.1088049 2953:1.3342772 2955:0.22532031 2959:1.4352353 2961:0.43766075 2966:0.57176411 2968:1.2705996 2971:0.55288684 2976:0.045514315 2980:0.13967913 2982:0.96492386 2984:1.7435392 2990:0.3457422 2991:1.5609388 2992:0.041547835 2994:0.46420527 2998:0.73566985 3003:0.55151778 3007:2.0559955 3011:0.42295659 3013:2.2491114 3017:0.39604875 3019:0.15860879 3022:0.14270189 3023:3.4357626 3026:1.783276 3027:0.91266799 3028:0.15643775 3039:0.65572941 3045:2.6756287 3046:0.32822019 3049:0.97891688 3053:0.79774743 3054:1.3616743 3055:0.96182597 3056:0.4861424 3058:0.50365508 3059:0.23809868 3063:1.000846 3067:0.068274617 3076:0.29352522 3077:1.3193498 3078:1.6218095 3086:2.0256364 3090:1.337904 3092:0.42562973 3094:0.92650223 3095:1.3903393 3096:0.30949903 3100:0.45579773 3102:2.0538688 3105:0.62297249 3107:1.4397641 3108:1.4938499 3110:0.071645066 3111:0.0082002878 3121:1.6487216 3125:0.7102567 3126:0.59073496 3133:0.63658327 3134:0.46150324 3138:2.9697728 3139:0.15605018 3141:0.51030952 3144:0.76144344 3145:1.3566146 3150:0.90569878 3153:0.73948061 3161:0.65739381 3163:2.4922099 3166:1.8378557 3168:1.6138263 3172:1.1037649 3175:1.1857862 3179:0.87030149 3189:1.5009199 3192:0.13716042 3193:0.11649853 3194:0.80438936 3195:2.5067852 3203:1.972891 3206:0.32221359 3208:0.43617356 3209:3.3519793 3210:2.2149172 3226:0.67382997 3228:1.6546195 3229:0.2942377 3234:0.82863927 3239:1.1245143 3241:0.31513757 3242:0.85055184 3243:1.4782852 3245:0.047005117 3248:1.6833937 3253:0.45140284 3258:0.7624743 3260:0.17540866 3266:2.2904263 3267:0.44386902 3269:0.04181397 3274:1.3773469 3276:0.39338493 3277:0.51661313 3281:0.20716864 3283:0.3060461 3286:0.36631149 3287:1.6920838 3288:0.093095422 3292:1.447329 3294:1.5199853 3298:2.392065 3299:0.16388792 3300:1.0593948 3306:0.41034994 3313:0.31898567 3315:0.047563851 3318:0.14014751 3321:0.15585142 3325:0.26575974 3326:2.7811894 3327:1.6236943 3328:0.63177299 3329:1.2355626 3332:0.39451286 3334:1.3616576 3347:3.9298282 3348:1.4227767 3353:0.27927929 3354:0.4753724 3361:0.036945432 3363:1.5803269 3364:0.45529598 3366:0.70270884 3369:0.86641949 3373:0.175258 3374:0.96869516 3375:0.22395688 3376:0.32943168 3380:0.41827744 3383:1.0400133 3384:1.2943298 3386:0.52508807 3387:0.8011691 3389:0.85288012 3395:0.89761007 3398:3.874856 3399:1.2531157 3401:0.74738169 3407:0.59847748 3408:0.4723658 3409:0.040192008 3411:0.96490556 3414:1.0579605 3417:1.0583777 3418:0.38160831 3422:0.67130119 3424:1.3309278 3425:1.3303416 3427:1.4463733 3430:0.77449465 3432:0.5647608 3436:0.023848951 3437:1.0033474 3440:1.9189116 3441:1.0037936 3444:0.18814924 3447:0.96835929 3448:2.9357293 3456:1.7759707 3459:0.75015092 3460:2.0679896 3461:0.74879599 3467:2.1819086 3468:1.1937954 3484:1.3936176 3492:0.21068037 3494:0.82965434 3496:1.0380311 3502:1.7617276 3503:0.43772656 3508:0.53802103 3509:0.45481056 3513:0.099403918 3518:1.5240279 3521:0.64977002 3523:2.4317575 3530:0.17455067 3531:1.3742837 3535:0.20124468 3536:0.81841159 3537:1.1255624 3544:0.33468795 3548:1.0804583 3549:1.6338122 3550:0.91651356 3556:0.17342424 3562:0.74465781 3566:1.0385783 3572:0.28920642 3573:2.2697747 3574:1.2174714 3576:0.81952167 3585:2.180717 3586:2.2050238 3588:1.0860341 3603:0.98467088 3604:1.4581733 3609:0.69469482 3611:0.86550421 3616:0.042993635 3619:0.65315795 3623:0.46695417 3626:1.3723124 3627:1.1548479 3633:1.1057181 3634:1.2119577 3640:0.30555719 3645:0.30824226 3647:0.22890359 3648:1.8011961 3650:0.22521996 3655:0.0018494129 3659:1.8074105 3663:0.95874608 3673:0.069305956 3675:1.5500211 3676:0.37098742 3678:3.0468652 3679:0.76378119 3682:0.06257388 3684:0.82962179 3689:0.31958467 3691:1.1667786 3693:0.40693441 3696:2.7744811 3697:1.8364922 3700:0.82896233 3701:0.19008657 3702:1.4493451 3708:2.721714 3711:0.91615683 3715:0.48465306 3721:0.41806415 3722:0.62676275 3725:3.5663104 3729:0.10977829 3732:0.32763624 3733:2.2463822 3734:0.56439114 3737:0.41377759 3741:0.38777426 3742:4.9783688 3744:2.0797286 3745:1.676482 3748:0.37300575 3749:1.387825 3753:1.0628552 3756:1.2221026 3765:0.31225967 3767:0.41300184 3769:1.5616506 3776:1.7765106 3777:1.1887335 3778:2.0269816 3779:0.59819633 3783:0.98432887 3793:0.83907014 3799:1.0551751 3800:0.4467262 3802:1.3281441 3808:2.5262616 3810:1.2492886 3811:0.031211317 3812:1.5001333 3813:0.31619415 3814:0.16434464 3817:2.1234167 3823:1.1059074 3829:0.55963117 3832:1.1266472 3834:0.088599294 3835:2.7571263 3837:0.58024639 3838:0.13286543 3840:0.48430115 3852:1.0714256 3860:1.3512282 3861:0.10997587 3864:0.16261545 3865:2.3158724 3870:0.80128908 3871:0.016469628 3877:2.7231145 3882:0.32754976 3883:1.1897489 3886:0.28345677 3896:1.7090697 3908:0.38629565 3910:1.541178 3923:0.236448 3929:0.79862833 3933:1.2644265 3935:0.95925701 3942:2.986567 3944:0.14210427 3947:0.21149647 3949:0.20994183 3950:1.2090311 3951:0.57644236 3954:1.11761 3955:0.10836127 3956:1.6492655 3957:2.3226683 3961:0.41423905 3964:1.2851323 3981:2.3000906 3986:0.72270328 3990:0.13424164 3993:0.30877733 3996:0.47855729 4001:0.23821622 4004:3.8845403 4006:0.48077554 4009:0.85529286 4012:1.3383272 4016:0.33223996 4020:0.65509021 4024:0.080539703 4033:0.49771482 4036:1.2692794 4040:0.82365358 4044:0.36026788 4048:1.5304813 4050:0.26468265 4053:0.05646044 4059:2.758003 4061:0.42240739 4065:0.14136833 4067:2.9129744 4071:0.56646287 4073:0.35401511 4078:0.76168948 4080:0.74668598 4086:0.60865033 4087:4.9904699 4091:0.32927948 4092:2.5871019 4094:0.92405796 4095:0.37383974 
0 4.951839972112174e-05 3:3.6362777 6:0.8250528 7:2.8564353 15:0.23377535 17:0.25309521 18:0.81903422 19:1.5704463 21:0.6817019 23:4.592979 24:1.6550024 25:0.073405653 28:0.93747926 30:1.5496192 35:1.0327101 36:0.89936101 46:3.553683 53:1.7260098 55:0.41133514 58:1.0669472 60:0.021235168 62:0.49119756 63:0.080572277 65:0.19125074 66:0.65369439 69:0.57734859 70:1.175624 72:2.3817787 76:3.6804373 77:2.8932643 82:2.0870738 84:0.96761477 85:3.2826939 87:1.9515862 91:0.42354092 95:3.2018318 97:1.1453037 100:1.2505047 102:4.0218215 104:0.068946868 108:0.57223272 114:2.6144576 117:1.7148306 123:0.76859218 127:0.12344857 136:2.9834354 137:1.9807832 138:1.1844313 142:1.7352923 144:1.0033404 145:0.66764754 150:1.2277962 153:0.53929502 154:0.52747428 155:1.7730918 165:2.5488734 171:1.8588856 173:0.61299884 175:0.0063749552 178:3.2853985 187:5.3148451 189:1.2769421 191:1.0670867 192:1.3496878 197:2.8188028 199:0.087797105 200:5.5657554 212:1.8884723 213:1.2962289 216:4.573297 218:1.2785641 219:1.1172767 223:0.39043304 224:3.8528631 226:3.0730128 228:0.73164475 229:2.0662575 232:2.7205374 235:0.92427623 236:0.97250473 244:0.58694243 245:4.6464024 246:0.37386209 247:0.98863298 248:2.7712202 254:0.19394058 255:0.4432745 261:0.11519822 262:0.51882714 263:2.0151966 264:2.1877592 267:1.2388998 270:2.1765549 271:3.4363592 273:4.1031303 277:2.8481188 281:1.0748956 283:0.86910433 284:2.5804634 288:2.1640005 289:2.4109352 290:0.32902426 292:1.7932864 295:0.87195647 297:0.32878101 298:1.1410571 300:0.7738868 301:0.51045507 303:1.6287596 306:2.786932 308:1.2922373 313:1.1055279 320:0.097406566 322:1.5381773 324:1.7524141 326:0.24603269 328:2.5183818 329:1.1262432 334:1.4560021 337:0.7907722 338:1.2498385 340:0.97490501 341:1.5313046 342:1.4376836 343:0.59329093 347:0.29387772 353:1.6789618 365:1.8320287 370:2.3471329 371:1.2674919 373:1.0695543 376:1.1932393 377:1.4745924 389:0.21121061 394:3.3205397 395:2.1114256 397:1.9504973 398:1.3496656 404:0.78773463 411:0.18012126 413:1.6901817 414:1.5417349 421:2.5049469 426:2.0322959 427:0.14023253 430:0.64526486 432:1.5001464 433:2.6414273 434:2.5610156 438:1.7840533 443:0.56812656 450:0.99602699 451:3.7439115 452:1.7754011 454:2.5098677 460:1.2510904 461:0.51159763 462:0.96118391 472:0.92249727 474:2.0501933 475:2.5884259 477:3.8207145 481:0.77980161 482:1.253124 483:0.92641485 484:0.42058793 485:2.2840419 488:1.446131 495:0.46067369 497:1.7041781 499:0.7966423 500:0.95864546 503:0.56877804 509:1.2550652 510:0.29827532 511:2.8556385 516:0.04965046 518:0.90880394 523:1.0009387 532:1.6995491 534:0.17859417 537:3.126946 542:0.20030826 544:2.5995834 547:1.8509071 554:0.74270374 556:1.1878598 557:2.1462598 560:1.7506468 561:1.7972142 565:0.43815595 566:2.2497489 568:0.42686048 572:1.8945487 574:0.093108207 575:0.040862441 577:2.2477047 580:0.20092958 587:1.4328103 588:0.18333006 589:2.3191633 592:2.7895229 593:0.91040659 597:0.4682692 598:0.044452697 599:4.2829599 600:0.097050905 601:2.0193949 602:0.2919035 603:1.6590595 605:1.7199508 607:1.4129119 609:0.90916151 614:1.5230296 616:1.1515208 620:1.3406581 622:1.4929792 633:0.25372314 636:0.58846599 638:1.5805633 639:1.0578074 644:1.0898817 649:0.50205779 652:0.56706333 662:1.5477257 663:0.49012756 665:2.1438658 666:1.1002071 668:0.3088496 671:0.27815118 678:1.5935073 679:2.9479556 680:2.2410488 681:3.2589445 685:0.34973565 686:1.0865341 691:2.8525882 692:0.33315066 697:5.5518379 700:0.86736357 702:0.76159739 704:0.46574068 706:1.5514755 707:1.2851633 708:0.60704029 709:0.16231668 710:2.0949202 714:0.27688646 715:2.9517126 726:0.048675418 727:0.88967371 730:1.987395 734:1.7250174 739:0.39785942 742:1.994061 744:0.71199989 748:2.3990963 754:2.1800559 756:0.88666648 763:0.035550952 771:1.8310924 772:1.456708 774:1.8471304 783:2.1903887 785:0.27666572 788:0.91440505 798:0.39947793 799:0.2664482 800:1.8823333 802:1.4041196 805:0.9967469 806:0.2580252 809:0.93874025 810:2.4239244 816:1.8888915 819:2.3024037 822:0.38185817 823:0.20526448 826:0.8527568 828:2.0803554 829:3.2279615 833:0.39922455 834:0.79748243 838:0.6372124 841:0.078937322 842:0.40425086 846:2.1222491 848:3.4407132 851:3.0928521 852:0.26997197 856:0.96613324 857:0.00099909306 858:1.8330183 859:0.84685236 860:1.3901148 861:2.368788 867:0.20011491 870:0.61079878 871:0.13502982 872:1.115546 873:1.2432683 876:1.1254194 878:3.6753643 879:0.05724901 881:0.41585779 882:0.48483375 886:1.6581454 888:1.5521189 889:1.1732483 891:2.3039932 896:1.6456056 897:1.6498915 898:0.58615953 902:3.9346001 903:2.1248505 908:1.4969364 909:1.0194755 912:1.8665295 917:1.5585574 919:2.1453633 925:1.4259475 930:2.4643936 933:3.1322813 935:0.73423409 938:2.4301221 945:0.34401748 950:2.8185296 956:0.62951732 958:0.020679653 959:0.39514107 960:1.0863568 961:2.1354976 963:3.1982927 966:0.30486566 969:0.79854077 970:2.1295164 975:0.14231512 978:0.96763802 988:0.31371012 990:2.3423457 993:1.0794916 996:0.71976805 997:1.042119 998:0.36869785 1000:0.51687998 1001:2.3164592 1002:1.2879776 1003:2.2580619 1006:0.82108414 1015:2.3077328 1016:1.4534663 1019:0.12751549 1020:2.5682302 1021:0.47267532 1029:3.5572801 1030:1.6560251 1031:2.0316198 1033:2.9830232 1039:3.0285273 1047:0.81544006 1051:1.5435486 1052:2.3368576 1054:3.764082 1057:0.12879765 1058:0.71857637 1059:3.1154819 1060:1.572443 1061:2.0331972 1063:0.78154778 1065:0.68286234 1070:0.97597748 1071:0.54861993 1073:1.3019983 1079:0.66445696 1084:0.33315414 1087:2.8059461 1090:2.8631744 1091:1.2609375 1093:0.58012152 1096:0.82042617 1099:0.59270978 1102:0.35920233 1103:2.1492782 1106:2.7437739 1110:0.64019001 1112:1.6720519 1115:1.046797 1118:0.033421397 1120:0.57496673 1122:1.2289765 1127:2.3616505 1130:0.026152313 1133:1.0123522 1135:0.95435667 1144:0.092980146 1146:0.45411307 1152:1.2278134 1153:0.37935737 1154:0.16093704 1160:1.6229205 1166:0.74030662 1171:1.1020304 1172:1.0951192 1174:1.613642 1175:0.33816642 1178:0.71217334 1179:1.4965254 1181:3.6976562 1182:0.24360865 1185:0.40282997 1186:0.74215472 1188:0.64808279 1189:0.57776833 1194:1.7964242 1195:0.14689276 1197:1.6877056 1199:2.0148494 1201:1.3457966 1203:0.4990229 1204:1.0250587 1206:2.8009953 1210:0.35453475 1212:1.1362146 1215:1.1736534 1218:2.4442694 1219:0.48316035 1221:2.4254653 1229:0.20964205 1235:1.6152339 1239:0.15653458 1242:2.5352795 1244:0.17689595 1245:0.45369571 1249:2.1999652 1252:0.04625088 1253:3.0023611 1254:1.1059353 1255:1.0951871 1257:1.0174835 1259:0.3906036 1264:1.9202292 1269:3.5135832 1274:0.067448556 1275:0.61082727 1280:2.2103302 1282:1.117311 1284:2.2108579 1286:0.77596873 1290:4.1291866 1292:0.59355235 1293:0.30717319 1299:0.63589406 1300:2.0646305 1305:2.3836401 1306:1.323771 1312:3.5629473 1316:2.0396781 1318:4.4986858 1319:1.8789988 1320:0.75888306 1330:0.95704341 1331:1.5776989 1337:0.75427079 1339:1.2748009 1343:0.83752829 1347:1.0490401 1353:3.2659485 1355:0.42070186 1356:0.49639601 1357:1.9053595 1359:0.98873037 1361:0.45263892 1365:0.45784754 1368:4.3218784 1369:0.043897271 1370:1.8671668 1372:1.0446789 1374:0.45502445 1375:1.952002 1377:0.43111733 1380:2.6955326 1381:1.8727429 1383:0.52646255 1385:0.27980593 1388:0.15157652 1389:2.3802626 1390:0.33002517 1395:1.987191 1396:0.96956587 1398:3.0137134 1400:2.6648569 1401:1.3092444 1402:2.430398 1407:4.328691 1411:3.1806514 1412:1.1522009 1413:2.0100613 1415:1.8020235 1419:0.65712845 1422:3.7639642 1423:5.1517944 1425:0.6017518 1432:0.62652981 1433:1.0699561 1434:1.1342074 1440:1.1040666 1445:0.095414877 1449:0.4038294 1451:0.18810791 1454:2.6497617 1459:2.3743334 1460:1.3187991 1462:1.4672854 1470:1.1964833 1471:0.46433693 1472:3.1956444 1474:1.7460246 1479:2.0513535 1482:1.8919208 1484:1.8747921 1488:0.63502246 1489:3.1824858 1497:0.39184251 1498:2.415971 1499:1.6109247 1501:1.4214072 1502:1.8722149 1505:0.92630172 1512:0.64424205 1513:4.9401379 1514:2.6406124 1515:0.37949777 1516:3.1400688 1524:0.71281296 1528:0.027634978 1530:3.4672894 1536:0.63131708 1541:1.6652889 1543:2.3066444 1545:2.385155 1547:0.93881321 1548:0.76154375 1550:0.8233726 1553:1.2805541 1554:2.9656916 1557:0.54529095 1560:0.89125752 1563:0.45297709 1566:3.7100935 1569:2.8826456 1571:1.0296985 1573:2.4540524 1574:0.0037637651 1575:0.1725111 1579:2.5074999 1582:0.95721316 1588:0.5416742 1589:1.9042183 1591:1.5052781 1594:2.1087129 1597:0.57335883 1599:1.0788562 1603:1.8661263 1608:1.8716174 1609:0.013364494 1615:2.3779237 1619:0.28096914 1620:1.1281562 1624:0.18758562 1626:0.65949452 1628:0.7130717 1632:0.53379416 1633:0.51048708 1634:1.6744335 1636:1.3454506 1637:1.472564 1642:4.3259077 1643:1.8670161 1649:0.060848624 1651:0.077188611 1657:2.1817307 1659:0.90194476 1667:0.22197294 1669:4.072104 1677:1.3143408 1678:3.4108467 1682:0.8214488 1683:0.39355701 1686:0.68181431 1688:3.0080326 1690:1.2220424 1691:1.9792778 1694:3.5800686 1696:0.58986342 1697:2.9504352 1699:0.45997539 1700:3.1201026 1706:1.1580493 1708:0.79151845 1709:2.3847384 1710:3.0887094 1720:0.94405788 1722:3.237906 1732:2.6834536 1736:3.0485027 1738:4.3038111 1743:1.1805542 1748:1.2335336 1751:3.3355186 1755:0.44941679 1760:3.9603539 1762:0.50079793 1763:2.9803443 1764:1.8782059 1767:0.34406444 1771:0.72040999 1772:4.14814 1777:1.3393934 1784:1.6514597 1785:4.1146321 1788:2.1046026 1793:3.9829769 1794:4.0816693 1795:0.57095808 1800:0.9327383 1801:0.094418108 1806:2.2327166 1807:1.0887911 1808:0.26601419 1810:4.4021597 1816:1.265175 1817:1.0501697 1821:1.5107512 1823:3.2254593 1824:2.656158 1827:3.4919233 1830:1.9123658 1834:0.18629813 1838:0.1213524 1846:1.1720244 1850:2.1392696 1853:0.35748291 1854:0.89958757 1861:1.7101772 1863:2.1229451 1864:0.11953327 1871:0.16190431 1872:0.30604285 1878:3.479826 1886:3.4145095 1891:0.9911406 1894:3.5252523 1895:2.4538805 1897:0.949242 1898:1.8905536 1900:0.60840237 1901:1.6474626 1902:0.57990104 1903:1.4301468 1906:0.95570433 1907:1.2331947 1911:1.4546872 1919:4.62954 1923:0.46935517 1924:1.1332444 1925:1.0315065 1928:0.360358 1929:0.26814404 1934:2.2186747 1937:1.4773581 1941:1.5933623 1945:1.9956942 1947:0.42343742 1952:2.230042 1957:1.9087009 1960:2.1184812 1962:3.3826222 1965:1.2915092 1967:3.3924241 1969:2.2997124 1972:2.5963864 1975:0.41622013 1977:0.28080615 1979:0.76537108 1983:0.26470256 1984:1.135545 1985:0.13682786 1994:1.8426206 2007:1.4729867 2009:0.4460803 2011:3.1967607 2012:0.030736029 2017:1.990276 2021:0.75887966 2025:0.40549827 2032:1.4022425 2035:1.2400949 2040:0.56690276 2043:0.23793107 2048:0.20766 2049:1.1530545 2050:0.44532609 2051:0.76332498 2052:0.86121702 2053:0.77410269 2054:0.90984637 2057:0.67035717 2059:0.62962353 2060:3.000144 2062:1.570271 2063:0.47629434 2064:0.3633042 2065:0.47061232 2073:1.2098157 2075:2.7496498 2079:0.97768462 2081:0.21403173 2085:2.5284786 2086:1.4572792 2087:2.8512049 2089:0.30697155 2091:0.79849803 2094:0.32387453 2099:1.7181783 2101:0.37066677 2102:2.2185645 2111:0.76787114 2114:0.31992599 2118:2.1392629 2119:1.3412319 2123:0.43624458 2125:3.1370826 2129:3.3998079 2132:1.5770099 2135:0.82129186 2137:0.87341887 2143:1.1034799 2145:3.2874596 2148:1.3446041 2149:5.1782646 2150:0.36044556 2152:0.29671776 2153:1.0433905 2159:0.14098501 2160:1.5329647 2162:2.9402382 2163:0.068519771 2165:1.2340641 2167:0.27151665 2169:1.1431918 2171:1.3869752 2172:0.09921211 2174:2.6798353 2181:0.47921759 2182:0.23616627 2189:3.3283851 2191:2.3876712 2199:0.90845263 2205:0.50103414 2207:0.34386855 2208:3.5425138 2211:2.1642354 2213:0.1335879 2219:0.15316972 2220:0.53595173 2225:0.10906079 2227:0.1625458 2231:1.7519253 2232:2.1783309 2233:0.27662539 2237:0.52444297 2243:0.65483868 2250:1.0448767 2252:0.64549893 2258:4.3737359 2260:0.42975077 2261:1.9566334 2262:1.3396924 2267:0.86574334 2269:0.34938604 2270:2.2321582 2271:1.6989679 2272:3.0522242 2273:1.805226 2274:0.34571791 2275:1.9068666 2278:0.97962058 2285:0.40380749 2286:1.6103938 2287:2.4852481 2289:2.8954034 2290:1.2481687 2291:2.2680049 2295:0.26377794 2299:0.42852852 2305:2.5730925 2306:2.4549336 2307:2.2099242 2308:0.2284469 2312:1.3956934 2313:1.6768993 2318:2.2390182 2320:2.1065826 2322:1.2033758 2324:0.6713801 2325:1.9967335 2332:0.377022 2333:2.4519534 2334:0.81801665 2336:3.8639696 2337:0.22256899 2338:3.6632192 2339:0.51578188 2340:0.75317633 2341:0.44566649 2346:0.31376061 2355:0.61352718 2357:2.2947536 2366:2.5768056 2367:0.97899818 2370:0.40963867 2373:1.1293983 2381:0.77367777 2382:1.8574085 2392:0.088794053 2398:2.4334021 2399:4.8549223 2404:0.95501208 2405:0.15145561 2408:0.70403671 2410:0.70660067 2411:0.23677391 2412:2.754751 2420:0.42901579 2421:0.12098235 2422:3.4273643 2423:2.6212544 2428:1.6097387 2431:3.1973219 2433:1.2015187 2435:2.2817092 2437:1.6958147 2439:0.31731573 2442:0.87993169 2444:1.9652419 2446:2.0033355 2449:1.5962659 2452:0.92229748 2458:0.60931075 2465:0.015550017 2473:1.558434 2475:0.21783483 2476:0.20888108 2482:2.5449293 2484:0.88057095 2492:0.50527585 2494:2.1711957 2497:1.3044498 2500:2.0374622 2503:1.1238449 2504:1.7973043 2505:0.10230267 2509:2.981503 2511:0.1890687 2513:0.22412515 2515:1.2624803 2519:2.0032339 2521:3.0844405 2524:1.5468338 2527:2.1350732 2528:0.52146596 2529:3.7502038 2535:1.4435296 2541:1.0563316 2543:0.83499199 2544:0.92333889 2547:2.994854 2548:2.1647844 2550:0.099559903 2551:0.87797761 2557:2.5254028 2561:2.2738936 2562:1.2690291 2563:2.8441949 2564:2.0367711 2565:0.088033795 2568:0.075942039 2571:1.1786444 2572:0.066674739 2573:2.99104 2578:0.017660707 2582:1.7589132 2586:2.4571693 2587:1.6679343 2588:4.0410748 2589:1.1403544 2591:4.3288717 2592:1.1142329 2594:1.3050773 2595:3.4801042 2596:1.3349986 2600:0.48335022 2602:1.5506556 2604:2.6641641 2606:1.5172883 2609:1.457332 2612:4.4104147 2620:0.057702839 2621:0.1849556 2624:1.6524178 2625:5.3839631 2628:1.3235215 2630:3.0744665 2632:0.028065652 2637:4.0592165 2640:1.5592375 2644:0.81969857 2647:0.61729157 2648:0.04641965 2649:0.35238588 2661:2.3487477 2663:0.40964696 2669:0.084494412 2673:0.59663194 2674:0.35716695 2679:2.3794487 2680:2.1067247 2681:2.6891415 2682:0.29761565 2683:1.7983043 2685:1.5502832 2686:2.0995386 2687:2.7636714 2689:2.2540705 2692:0.057169855 2694:2.170409 2698:0.63038373 2704:1.4800211 2705:1.3460175 2709:2.7797799 2710:0.4024291 2715:1.0793475 2718:1.3160396 2719:0.28200752 2722:2.8415084 2723:2.4614131 2726:2.5942993 2733:1.3430287 2737:2.6129153 2738:0.01360482 2739:0.73364848 2742:0.41728294 2743:2.2626224 2748:0.35892266 2749:1.0088232 2751:0.15869594 2754:0.97236383 2756:2.8369455 2758:1.31373 2760:0.14189047 2762:1.6564919 2764:1.9444053 2772:1.5517249 2773:1.1983796 2779:0.91170418 2784:0.32919154 2785:1.6936954 2790:2.1504643 2792:0.12949222 2795:0.104334 2797:0.70130044 2813:2.7062733 2818:0.26075536 2823:0.47658569 2825:1.1666199 2828:2.0053213 2829:3.3937531 2830:0.3492645 2832:0.11510092 2833:3.0438914 2834:0.84438753 2840:0.8112185 2841:0.8716805 2842:0.33523118 2843:1.2500352 2844:2.3342283 2846:0.65170693 2848:0.057307601 2852:0.0024962723 2853:0.76542497 2854:0.11481297 2855:1.4975715 2860:0.0096901059 2861:3.7103422 2864:1.2396837 2866:0.0087636113 2867:0.4643926 2873:0.45065615 2878:1.564218 2882:0.23854734 2885:4.8704181 2888:1.5454707 2889:1.2125156 2894:1.4981813 2897:0.69981581 2899:1.1139295 2901:1.9152002 2904:0.44432384 2905:2.8291073 2906:1.1141605 2909:0.59373319 2914:2.8330441 2917:1.4568014 2918:0.76146191 2924:1.2643044 2926:0.36754286 2927:0.93708777 2931:4.3779716 2932:0.041171193 2936:2.3426933 2937:0.032894194 2939:2.3748333 2940:3.4258904 2941:1.9277885 2943:0.037860334 2948:1.763875 2949:0.28407791 2952:0.052341253 2954:2.8420813 2958:2.0124412 2959:1.7406249 2963:1.1306807 2966:2.6404953 2968:0.4638496 2973:5.1796341 2974:0.70577151 2977:5.28866 2978:1.8856924 2986:1.9712851 2987:0.60731417 2989:1.539541 2991:1.306929 2993:0.16264346 2996:0.73781717 3000:4.5335202 3002:1.1624668 3005:3.5186038 3008:0.21150374 3010:0.66782647 3012:1.9728732 3013:1.4365714 3016:2.3900971 3017:0.11067903 3021:0.16648155 3024:2.0907581 3026:0.36791185 3030:1.217497 3033:0.87470698 3035:0.16380432 3037:0.05766362 3038:0.058184981 3041:0.63106662 3048:0.41160956 3053:1.8006219 3054:5.7700562 3055:0.64966565 3059:3.3687847 3061:0.51298851 3063:1.3818767 3068:0.92091608 3074:3.5761158 3088:0.57645094 3092:1.2373729 3096:1.706339 3097:4.218112 3099:2.2788982 3100:0.55730116 3105:0.051340222 3107:0.56587172 3109:2.2904551 3113:1.0653368 3114:2.5295167 3117:1.9243546 3126:0.20965207 3130:0.40989155 3135:4.106319 3141:1.2256715 3142:2.3784487 3145:0.74971581 3148:1.2079049 3149:0.50778294 3152:0.23012781 3155:1.4830021 3156:0.22875255 3157:1.5945357 3158:0.28420058 3159:1.061047 3163:2.5490026 3166:2.6190286 3168:1.5298547 3171:2.3997304 3174:3.7634125 3178:1.273777 3179:2.4940398 3185:2.680428 3192:1.8242898 3194:2.1911976 3196:0.63108432 3199:0.90988851 3202:2.3019409 3204:1.0167997 3208:0.29658416 3212:1.6162245 3214:3.6991694 3218:0.39831924 3222:1.8802567 3228:1.9952087 3233:1.0331161 3236:0.13599366 3238:1.5724113 3240:0.099498212 3241:1.4882354 3243:1.2365595 3244:0.49822932 3245:3.072525 3246:1.0122507 3247:1.3811703 3252:1.928359 3259:1.6123093 3262:3.1667948 3264:1.8542194 3266:1.30897 3270:0.901842 3271:5.1049762 3272:0.88753426 3276:1.6579571 3277:4.1848559 3278:0.90715975 3281:3.8080711 3282:4.1220531 3286:0.36231649 3292:2.5971975 3293:1.3312178 3304:2.6915989 3305:0.071556807 3307:0.29686639 3312:0.91611433 3313:0.17781475 3319:1.6334825 3321:0.21569431 3322:2.36063 3323:0.25251508 3325:0.36400789 3336:1.1904373 3337:0.98722434 3340:0.37282035 3342:1.0354605 3343:2.7650728 3353:1.8082414 3357:0.16371527 3360:1.3028727 3362:2.2028255 3365:1.3229053 3367:0.65189803 3371:0.46006477 3380:3.2945187 3386:0.76094669 3388:0.55653268 3389:1.7357036 3391:0.23311497 3392:4.1935153 3394:0.47401884 3398:1.2652233 3399:1.8009838 3402:1.13231 3403:0.69627672 3406:2.5188582 3409:1.9976355 3410:1.6862774 3412:3.7920449 3419:0.73337466 3424:3.7742839 3425:0.88812107 3428:0.81233931 3430:0.64631641 3435:1.3552346 3437:0.71079135 3439:0.81243032 3443:0.2714656 3445:0.10050875 3453:0.42803341 3454:0.77103525 3459:0.42662504 3464:2.5741549 3465:1.1901464 3467:0.98719275 3470:1.2107308 3474:2.9037375 3479:1.2940061 3482:3.3594441 3492:0.1761286 3493:1.5598578 3504:0.16059905 3506:1.2850996 3507:0.98691779 3509:1.7786256 3510:3.6612065 3512:4.1911364 3513:3.2742956 3514:1.7021773 3516:1.3432667 3517:0.10637158 3518:0.9362675 3519:0.00027379394 3520:0.72624749 3523:1.4216232 3524:1.1156418 3525:0.84590507 3528:4.9954772 3536:0.26895005 3537:2.5412905 3541:1.9222449 3544:0.22049937 3550:1.8850658 3556:0.54460996 3557:1.853124 3561:0.57918853 3562:0.87279916 3564:0.9532479 3565:1.4911075 3566:2.5952945 3568:1.5709391 3571:1.8835649 3572:1.6507103 3573:1.0674342 3574:3.2043755 3588:1.4662186 3589:0.24677438 3592:3.0435822 3596:1.7173495 3598:1.488858 3604:1.1542928 3606:0.50456452 3607:0.068343252 3614:0.10763443 3621:0.9340086 3625:2.8357012 3626:1.5395378 3630:1.2542651 3632:1.1559449 3636:1.0941136 3638:0.58716583 3640:0.34489092 3642:3.8106425 3645:0.90437043 3646:0.80381787 3647:0.16302115 3649:1.3356467 3650:0.0041464567 3651:1.2194867 3653:1.6681631 3655:1.9476758 3657:0.8494035 3659:2.5479195 3660:0.3565771 3661:0.8574481 3663:0.36359107 3669:1.8832905 3670:3.9310656 3671:5.5098529 3674:4.1832223 3675:2.5746131 3680:1.7479191 3683:0.94263703 3684:2.9736667 3685:0.94699359 3688:0.84056866 3697:2.6696143 3699:1.5458583 3706:2.6914752 3710:2.2410223 3711:2.2636352 3712:2.8158617 3713:3.0297241 3714:1.4383516 3719:1.2027321 3721:0.78898048 3727:2.6586838 3730:0.30695608 3731:0.21462846 3732:3.2316504 3738:0.34441879 3741:3.5046031 3742:3.3382001 3743:0.29014429 3744:0.33355895 3746:2.1353171 3749:1.9249102 3751:0.45696631 3755:0.30056533 3759:1.5757542 3760:2.9450779 3762:2.1725781 3763:0.84821993 3769:0.22045282 3770:0.52166373 3775:3.2182741 3777:0.8817575 3779:3.3729403 3782:4.0428338 3784:2.8253336 3787:1.4819311 3790:1.2296119 3792:1.9399288 3801:2.8701468 3804:2.3913839 3807:1.7438099 3808:0.59265703 3810:2.3138969 3819:2.0839715 3820:1.0500898 3824:3.2906637 3826:1.0266186 3827:1.600476 3829:0.56311101 3830:0.75658798 3831:0.75101376 3834:2.6090596 3838:1.6022388 3839:0.46027893 3842:3.8114817 3843:0.10154667 3844:0.95049852 3845:2.3779769 3849:2.9606328 3850:0.25561887 3851:0.64872605 3852:3.4869277 3854:0.94154859 3855:0.36727899 3856:1.7725897 3858:0.34080526 3860:1.9921972 3865:0.014034927 3867:1.0441593 3871:1.2102152 3874:0.74021554 3876:0.70177203 3889:0.53178716 3897:0.32732564 3898:4.1485896 3900:0.43451944 3901:3.1210661 3902:3.6822777 3905:1.7928383 3908:1.7808355 3910:0.74887884 3913:0.96281117 3914:0.42127511 3915:2.1678877 3920:1.2082884 3925:1.7531478 3930:1.4094769 3932:1.4511032 3933:2.5660269 3940:2.2072287 3941:0.59477955 3943:0.14793232 3945:0.56975764 3947:0.14750117 3951:2.8259726 3952:3.969507 3953:0.40782255 3956:0.30727664 3962:1.9401894 3969:2.9906242 3972:0.28007352 3975:1.7113163 3976:2.2118478 3979:5.0604534 3981:0.117432 3983:2.3648083 3988:0.16247445 3990:1.6537416 3993:0.29702178 3995:0.48825902 3997:0.86866248 4001:2.1727037 4002:0.21018535 4004:1.2437688 4006:2.2843192 4007:0.017389566 4010:1.6193531 4011:0.34014091 4013:2.2326527 4015:5.5721502 4023:3.1389167 4025:2.7653553 4027:1.7551912 4035:0.74654633 4040:0.49388629 4043:1.363168 4048:2.0917969 4049:0.80016404 4067:1.8174191 4071:3.7958081 4072:2.4475439 4074:0.43120524 4075:0.25912648 4081:1.6880361 4083:1.8684613 4093:3.6334102 4094:1.1782069 4096:1.090865 
0 0.0002447066083882111 6:3.5834816 7:0.74239111 10:2.3204207 20:2.0179887 24:1.7768004 29:2.539284 30:0.36783347 35:0.70001692 36:1.4416665 37:0.25739592 39:0.19923425 43:0.59904343 46:0.59258211 56:2.8260844 57:1.8165811 58:0.52157587 59:1.5151491 61:3.4060616 85:0.87296581 94:0.70018947 105:1.7923584 107:0.89425266 113:0.87893939 118:0.3311815 136:2.677649 137:2.5513756 138:0.1604137 139:0.79299939 143:1.2680976 145:1.7167131 152:0.90267086 164:2.3274992 167:2.0923655 175:0.074236721 177:0.3422603 181:0.28500354 187:1.6792668 189:0.90948308 191:0.1958364 195:2.0254238 207:3.2211788 209:0.75344121 210:2.4242907 212:1.701735 215:1.1782904 218:0.66481423 219:2.2120488 226:0.86718726 233:1.4575506 234:0.56937838 245:3.6553373 248:0.32474288 249:0.73161554 250:1.0553949 251:2.4037995 252:0.75975454 254:1.5142757 255:0.020391405 258:0.36591518 261:2.3486595 262:3.3894231 263:0.4824411 264:0.51081324 265:1.392796 266:0.14894235 270:1.9871407 271:3.7190557 274:1.2749954 276:0.79854459 280:1.9505991 285:0.021400988 286:1.1508373 291:0.86415607 292:1.5989789 295:1.8924096 298:0.39361507 303:0.1635997 308:0.31387359 313:0.4903791 323:1.6876265 326:2.301512 338:0.14109075 339:1.0730063 340:3.0228937 344:0.2941995 348:3.1809433 358:0.63349307 369:1.0905511 370:1.8772094 372:0.22131549 376:0.55879539 377:3.1827319 378:0.16802441 382:4.8239245 390:3.834116 393:0.97498977 395:0.43876922 396:1.9743385 401:2.1065426 402:0.49462393 405:2.4506269 406:1.5084932 407:1.4784229 409:1.0500129 418:1.4766426 420:1.006668 427:2.5355897 434:1.6519793 444:1.3935708 447:1.9892346 449:4.9934464 451:2.2280111 452:0.1188215 454:1.6579621 456:0.90481746 458:1.4396523 459:2.2327559 460:1.1332407 461:0.61378264 468:4.2805295 472:2.2367644 474:0.16293895 475:1.1270214 477:2.0521181 483:3.4694822 484:0.3032442 486:1.1726689 490:0.71122652 492:0.64550126 494:2.0490854 496:1.3002791 497:2.3905618 500:0.41307175 504:1.1950392 505:0.66079074 507:1.0132647 512:1.2558498 513:3.7434945 515:1.0507343 518:0.92003596 522:0.36344039 523:0.99328625 537:3.8279328 542:1.1979619 543:0.072520226 548:0.064405084 552:1.0520197 557:1.3611826 562:1.0167828 564:1.9022138 565:3.0733073 574:3.3257453 579:1.1195602 588:0.29621896 595:0.59658068 600:1.8650084 610:0.77578664 611:2.4403801 618:0.40141815 619:0.94719326 624:0.11526042 631:1.8082082 634:4.1420527 640:0.36040193 642:0.57202089 645:1.5739261 646:0.73837477 652:3.9035435 658:4.8493056 665:0.2371143 666:1.845367 668:1.1309259 670:2.6060236 671:1.3232318 673:1.9989803 676:0.66369832 679:1.2214998 680:0.50426245 687:1.3250418 691:1.1696265 692:1.4106711 697:2.3319702 698:1.0213988 699:1.5103087 705:1.5197017 708:1.5294251 709:0.028728187 714:1.6738803 716:4.078825 722:0.68116677 723:0.30881062 724:0.044065833 726:0.87431699 727:0.56158423 728:2.708699 729:0.8823458 730:3.157846 733:2.0363877 734:0.82316303 736:0.72485518 739:0.7356953 740:0.70067221 742:5.4244881 744:4.648695 749:2.4781642 754:2.6285813 757:1.9829993 759:0.76632893 763:0.72328043 768:3.9785936 769:1.8430256 772:0.23046662 773:0.98973048 774:1.1586918 776:1.2953942 778:3.0727608 784:0.6002664 786:1.0555348 790:1.2627014 791:1.1618695 800:0.25223553 802:1.988301 804:0.06231302 805:1.797295 807:0.51968694 808:0.26084089 809:0.22518295 814:4.4756699 816:0.65937138 818:1.2377341 819:0.061695814 820:0.28156838 821:2.0641391 832:0.49359548 833:0.15325475 834:1.9344828 835:0.70030177 844:0.9315412 846:0.960796 848:3.8797429 850:0.97289562 851:0.1586622 852:2.0144048 854:4.1013851 856:0.53528053 857:5.9476471 858:0.59047377 859:0.67399317 860:0.28972706 862:2.9252896 863:2.949924 866:0.44718429 872:0.8093394 876:2.2171352 886:1.8646405 888:3.3378794 890:5.213614 895:1.285195 897:1.5835595 906:0.48529673 907:0.69932103 910:0.60718387 912:1.076084 921:0.27683443 926:0.24938813 932:1.0553936 933:0.77021754 935:4.380199 938:1.7579181 939:1.47615 940:0.12679148 941:0.63583893 944:1.742532 945:2.4905179 947:2.0734599 953:1.5715549 957:2.8816879 959:2.1471214 970:1.5247034 975:0.61180389 977:2.155848 978:0.15969253 979:1.7237239 980:4.0377779 995:0.67745858 997:0.89877427 998:3.0543392 1000:0.033057094 1003:3.8806202 1009:0.95792294 1020:1.3875369 1025:1.1255374 1026:0.54681718 1029:0.59704429 1031:0.44568002 1035:0.68850696 1037:2.3213158 1047:0.76423883 1049:3.9956596 1052:2.2013462 1059:1.0917602 1060:1.9899521 1061:1.8914393 1063:3.5285692 1064:0.04477483 1071:4.248023 1073:1.2942647 1074:2.2821326 1079:1.5096722 1083:0.63471013 1086:4.1979618 1087:1.8557274 1093:1.0357155 1098:0.53184277 1099:0.52057081 1100:0.54818571 1105:0.48291674 1110:0.62424552 1111:0.0099856853 1112:5.1677442 1115:0.50631231 1117:1.4638171 1125:5.460515 1127:1.3768371 1135:0.81256008 1137:0.92894828 1141:2.0693064 1152:2.3363245 1154:0.98769009 1160:2.3027439 1162:0.4206309 1163:0.95545119 1166:5.078763 1167:0.39277518 1171:1.2493625 1176:0.38207716 1181:1.9073095 1185:0.98754835 1188:0.87429559 1189:1.5211803 1198:0.18362817 1203:3.8856211 1204:1.868461 1206:2.2451684 1209:2.5122974 1211:1.757815 1216:1.2446756 1221:1.9673852 1227:0.66364312 1230:0.78387928 1233:3.8544581 1237:0.38662332 1239:2.6892977 1244:1.1783315 1249:1.6338177 1253:5.1142626 1255:3.8294814 1256:0.87918687 1259:2.487992 1261:1.2768784 1262:1.2193662 1264:2.9247956 1275:1.8270216 1280:0.50699127 1284:5.1503873 1290:2.1597049 1291:0.99854475 1292:2.1886401 1297:0.57822037 1299:1.8875169 1302:2.6731999 1306:0.080891788 1308:0.84479642 1309:0.33195281 1312:0.44773722 1314:0.43941581 1316:0.71419322 1324:1.0199742 1325:0.39213544 1328:0.34598812 1331:2.3256321 1332:1.2259383 1334:0.66199321 1336:2.2252111 1337:0.61582112 1349:2.3293746 1350:0.055626124 1351:2.4062519 1352:1.0985354 1358:0.16139808 1365:1.8255785 1370:3.6033285 1379:3.181277 1380:0.20510861 1382:1.7742503 1383:0.73560238 1385:0.30637208 1387:0.14341667 1397:0.56320745 1398:1.9818592 1401:3.9734385 1402:0.46886405 1405:0.85227221 1407:1.3053368 1408:0.022727072 1411:2.6229968 1419:0.44657087 1425:1.2717896 1426:2.8787272 1427:0.45412332 1429:1.8717761 1432:1.3837116 1433:2.363389 1434:0.32218739 1437:1.9871142 1440:1.199075 1445:0.8480984 1449:0.0088318884 1451:1.3643329 1453:0.92551184 1454:1.7174377 1458:1.1067506 1459:1.9072579 1463:0.0054207742 1466:0.8304323 1471:0.85731429 1477:0.48077628 1479:1.4932137 1482:0.40801936 1484:0.52574509 1490:1.6378697 1498:0.98835075 1502:2.99863 1506:1.2847435 1508:1.1589334 1510:0.61677361 1517:1.9437916 1520:0.83322376 1524:1.2052852 1527:1.1704595 1531:0.54727215 1535:1.5958003 1541:1.8322146 1546:1.5220084 1547:2.6232164 1567:0.53218454 1572:1.4998367 1575:3.4282489 1576:0.22860429 1579:0.019892156 1580:3.4654453 1581:0.45635483 1590:4.1218357 1591:1.4736491 1592:1.5311017 1594:0.55334097 1600:0.90156746 1604:2.1508217 1611:5.767427 1613:1.6618118 1628:0.91677105 1629:1.0091217 1634:1.6787899 1637:1.3615131 1638:1.0046915 1643:3.1892624 1644:1.1522803 1647:0.050624251 1648:0.30827647 1649:4.6816206 1650:0.6371696 1652:2.716053 1657:4.6002731 1660:1.1286851 1662:0.070579201 1664:1.2971832 1665:0.3039228 1666:1.1567961 1670:1.4199238 1673:2.2549171 1677:3.2836363 1679:0.51932824 1680:0.31012741 1681:0.46646261 1684:0.99161708 1688:0.90829563 1690:3.1567619 1694:2.3800774 1696:3.2417624 1701:1.4073906 1702:0.45548132 1704:0.50830775 1707:1.4858047 1711:0.12290505 1718:0.37959364 1722:3.2753351 1723:3.572305 1727:3.1463809 1732:0.22856565 1736:1.0347965 1738:2.1769252 1740:2.21121 1744:2.0832849 1748:0.072633415 1751:3.0769174 1761:0.9469533 1766:3.8464918 1767:0.62598091 1768:1.411432 1770:0.55460137 1771:0.62967503 1779:2.1947284 1780:0.79466248 1781:1.6333607 1782:0.60567713 1784:2.4383035 1785:4.0610614 1786:0.4829793 1797:1.9751573 1799:2.2123072 1804:0.95258778 1805:1.7116539 1810:3.0960813 1815:0.27170309 1819:1.0798252 1820:2.7513912 1821:0.76937354 1826:0.26093388 1829:1.0146623 1835:0.34095407 1840:1.6162293 1842:2.5057437 1846:3.7987328 1847:2.6067381 1856:0.35651809 1864:0.81636333 1872:3.1709688 1878:6.7183352 1880:0.57797647 1889:1.2136497 1891:0.78461993 1894:0.68879515 1895:1.6945069 1897:4.6919088 1898:0.54888046 1900:0.82445306 1903:0.672306 1907:2.5170548 1917:0.36425465 1919:5.1724725 1920:0.28441435 1922:0.16211087 1924:2.8284643 1929:0.63990289 1930:0.30841249 1932:2.3399606 1934:1.3729062 1948:0.7481603 1950:0.11526576 1952:2.3511579 1953:2.0497389 1958:1.9775571 1967:1.9512061 1973:0.75500029 1974:0.56880218 1977:1.7246734 1988:0.1379889 1989:0.51568472 2000:0.85070443 2009:0.85159636 2020:1.2091551 2022:2.1311765 2041:0.81665003 2043:0.88742888 2045:1.1133081 2053:0.37294048 2054:2.7403061 2058:1.2251844 2059:4.0032105 2061:0.39131749 2063:1.995741 2064:2.5108523 2068:0.98536468 2069:1.5369734 2071:0.91944396 2073:1.9477301 2075:0.15161787 2081:0.7977773 2089:0.16103759 2095:2.9193609 2102:1.9881873 2114:0.19269097 2115:2.1367846 2116:1.1146848 2118:3.452409 2134:2.8963206 2148:0.58660489 2149:1.1769621 2150:1.4260401 2153:1.9665496 2156:2.80476 2160:0.22344849 2164:0.01794526 2167:0.68409145 2169:1.2194337 2171:2.2748647 2174:3.2662432 2176:0.088050887 2178:2.3019629 2181:0.084046215 2182:0.65338498 2189:3.3028247 2194:3.0664673 2197:0.55710787 2199:0.94733852 2202:0.96950758 2205:0.48870161 2208:1.842953 2211:6.4149289 2216:1.5123758 2217:0.078206539 2220:1.0166109 2224:0.045413613 2227:1.3436642 2230:0.67926919 2232:2.794009 2237:1.1276382 2242:1.3911855 2247:1.2242979 2249:1.2556956 2250:1.6910466 2256:2.1128762 2261:3.6955492 2263:2.716702 2264:1.3228476 2265:2.4105656 2266:0.36778277 2267:1.3453023 2269:4.9848943 2271:2.4755504 2272:1.0429288 2274:0.8039754 2279:1.6660626 2291:0.96371543 2293:1.3639472 2295:5.474791 2299:2.9332919 2307:1.3907706 2312:0.049498379 2314:0.41429114 2318:1.3227065 2323:1.1797241 2324:0.15337574 2325:1.7832029 2327:1.3265029 2334:1.4492213 2336:4.1341114 2338:1.9255514 2342:0.8048678 2349:0.13130805 2352:1.2925439 2355:1.7984345 2358:0.3588317 2359:0.80773795 2360:2.9295247 2361:0.43615907 2366:1.3828021 2367:0.21954313 2372:1.1535835 2377:0.56958371 2379:1.4290241 2382:2.1524692 2384:1.7054508 2385:2.4098854 2391:1.3301511 2392:5.0610399 2396:2.4704745 2397:1.7165767 2398:0.40473107 2408:0.28653991 2411:0.035353929 2412:1.8233259 2418:4.1476402 2420:0.089441061 2423:0.40352383 2424:3.253438 2425:1.6785651 2426:1.1613417 2429:0.42084545 2431:2.0694246 2432:1.5407937 2435:0.17401886 2439:2.9827776 2440:3.7389593 2445:0.19687325 2452:0.37386 2455:2.2394147 2456:0.21264592 2463:1.7523632 2470:2.1639781 2473:1.7775245 2476:5.8837662 2478:1.0790372 2489:1.2860219 2497:1.0899445 2504:1.6831392 2505:1.8612744 2509:2.5113714 2511:0.98243868 2515:1.9851516 2519:4.6795821 2521:3.4147568 2527:2.3992507 2528:0.61363399 2530:4.783535 2531:0.097305447 2540:0.29510474 2541:1.8394182 2544:2.4361455 2546:0.93530983 2547:2.6073895 2552:0.23694879 2553:1.2060202 2557:2.5022311 2561:0.70796359 2569:0.067651331 2571:2.6239383 2573:0.65670854 2584:3.3993766 2585:1.9981399 2586:5.900147 2587:0.038857758 2589:0.13702992 2590:1.8817455 2593:0.3665272 2595:2.9346137 2596:0.35538328 2598:0.7017746 2601:3.1451283 2611:0.42069131 2613:0.7725836 2619:0.48343539 2621:2.3386955 2625:0.79247665 2627:0.56197405 2630:3.5523467 2632:1.5129937 2637:1.0028807 2640:0.48299658 2642:0.9836601 2643:2.9259326 2646:1.9759974 2649:1.2682655 2653:1.7448099 2655:1.0470599 2657:0.21884158 2658:0.87210262 2661:2.2150545 2663:0.50866759 2665:0.19572175 2669:0.025939763 2672:1.538723 2673:1.0743477 2680:1.0566782 2681:1.2860553 2685:0.70733535 2694:0.67822003 2697:0.3166424 2701:3.647579 2703:3.1174912 2704:1.3871217 2705:0.54517174 2709:3.598902 2713:3.8383236 2717:0.43409815 2724:4.0845022 2727:0.82263851 2732:0.8506301 2733:3.1129222 2743:1.072251 2748:0.94673538 2753:0.45058018 2754:1.2365303 2768:0.044751018 2772:1.2118909 2773:1.8949715 2781:0.47206435 2784:0.55428952 2788:1.3047984 2790:3.2871599 2792:2.300508 2796:0.60525352 2797:0.099237978 2803:1.7740977 2804:0.94476861 2813:0.86707962 2825:0.32333809 2827:0.57869238 2828:0.18250412 2831:0.86734605 2835:0.75045073 2839:0.64290124 2841:0.20615038 2843:0.11189887 2844:7.7185812 2849:0.58267993 2875:1.7072067 2879:4.8176875 2885:4.5978832 2888:1.0026906 2895:0.026783526 2898:0.22356008 2899:1.3854415 2900:1.9663579 2904:0.49684292 2910:0.27740586 2913:2.6197059 2914:2.6420822 2917:1.7072413 2920:1.3559271 2927:2.12186 2929:0.99451154 2931:4.2688556 2933:0.3578881 2937:3.3938634 2940:1.5679666 2945:0.97357631 2948:0.27232346 2950:0.047023475 2951:3.335556 2952:0.45869029 2954:0.93155777 2957:0.20035759 2959:1.8120775 2960:2.03529 2973:1.4557921 2974:1.0373644 2975:3.5557568 2977:1.655202 2986:1.1556828 3003:2.2647152 3004:1.4336017 3005:1.4372165 3008:2.7154391 3011:0.55266798 3013:2.8829498 3026:0.93897605 3028:3.5654013 3030:2.0644665 3037:1.8165106 3039:0.19654527 3040:0.83111304 3041:0.47953674 3042:0.42746139 3048:0.39234215 3053:0.33440235 3055:1.002948 3056:0.49377573 3061:0.77617633 3068:1.3985757 3070:2.3919458 3071:0.67277646 3074:1.7789959 3077:2.3161483 3078:0.14409238 3085:0.94676471 3089:0.46814588 3097:2.3371594 3098:1.3041453 3101:2.4343448 3103:3.3217359 3106:1.0591965 3112:0.78177476 3113:2.7045498 3114:3.8176036 3118:1.2475187 3119:2.4742699 3129:1.0450356 3132:2.3099682 3133:1.1367273 3135:0.50507224 3138:3.9877057 3141:1.5027308 3143:0.45360085 3145:1.373898 3147:0.42467499 3148:0.98246062 3149:0.011278331 3151:1.501472 3152:3.1952531 3154:2.893925 3158:2.1681552 3159:3.8623168 3161:2.3336594 3163:1.4423385 3166:1.3385121 3168:0.30651316 3170:4.7376442 3172:0.030262232 3174:2.0568233 3175:4.1697073 3179:2.0358591 3181:2.7968593 3186:0.50147223 3190:1.9301567 3191:0.078183919 3193:2.2345734 3196:1.267662 3197:0.13760075 3199:0.16656342 3210:0.92290413 3211:2.1421487 3212:3.1504595 3214:2.6556196 3220:0.74397361 3222:3.2156754 3227:1.7671299 3228:0.80357087 3230:0.3552345 3234:1.0444736 3238:0.93315917 3239:0.037994236 3241:1.7005537 3245:1.5958996 3248:3.1199236 3249:0.47354719 3251:0.49259776 3252:1.5599325 3254:0.061499119 3255:0.68433464 3259:2.189564 3260:0.42019936 3261:1.6718314 3266:0.98844492 3269:1.3376803 3270:4.427259 3272:2.1031935 3274:4.2550383 3279:5.6076374 3280:1.8164231 3281:4.0524898 3284:0.77162504 3289:1.6867526 3292:2.5800281 3298:3.382082 3302:5.5894918 3303:0.53234971 3314:2.7420406 3323:3.8314805 3325:0.22718218 3331:0.16646248 3334:0.99887335 3340:0.025287092 3343:3.4476173 3346:1.7573925 3347:0.94098687 3348:2.865653 3350:1.322695 3362:1.2542161 3367:1.7961357 3372:0.76835549 3373:1.6845675 3376:0.097420961 3378:1.9246504 3388:0.58028257 3389:3.045239 3391:2.9833717 3398:3.5219977 3400:3.7330134 3405:0.8168236 3406:3.3125777 3408:4.1529489 3409:0.94672638 3410:0.01707983 3411:2.2390981 3413:0.061580986 3420:0.51628339 3424:2.0888205 3427:4.1788769 3434:1.0037365 3440:1.4111699 3444:0.43695736 3448:0.05367744 3449:0.71706688 3456:0.070395559 3457:0.73619223 3460:2.5017028 3461:2.5860236 3464:0.49753305 3465:0.88617969 3470:0.05967772 3471:3.3447232 3473:0.96780699 3479:2.3052447 3485:4.1172252 3493:0.83954662 3504:0.028428853 3506:1.8457769 3512:1.2532277 3516:1.6645699 3520:2.0163479 3523:0.72252238 3531:0.056214929 3533:0.49174002 3535:0.80075097 3536:1.7004656 3537:0.30501419 3541:1.9116387 3548:1.2291105 3550:0.90757847 3556:0.0085391402 3563:0.57700491 3566:3.7180576 3572:1.6521244 3580:0.96293783 3584:0.080355346 3589:0.43656707 3593:2.079823 3594:2.9373312 3598:0.030475408 3603:0.33181977 3604:0.73501903 3607:0.92876542 3611:1.1873748 3614:1.3094871 3621:0.15271804 3622:2.5261979 3623:1.4254189 3630:1.4713365 3631:0.45963696 3632:0.85683692 3637:0.89510548 3647:1.820636 3649:3.9855516 3651:1.3225317 3652:1.6765485 3654:3.5005136 3657:0.23476869 3658:0.15972906 3659:0.17475705 3665:0.7336235 3666:1.5248563 3668:1.6493127 3671:0.74698877 3673:1.9303285 3674:2.1791451 3675:1.8819842 3677:3.4303801 3680:2.1228397 3681:2.4217129 3683:0.82064927 3685:0.79287612 3686:1.448094 3690:0.98175997 3693:0.61854053 3708:1.4896646 3716:0.19390118 3719:0.52246094 3721:0.038401783 3725:1.8657987 3727:0.39385128 3729:0.090762466 3730:2.8934443 3731:0.12132311 3732:2.6231484 3736:0.70771164 3742:1.8745463 3744:0.91808385 3746:2.4554577 3749:1.4608637 3758:0.29232362 3761:0.18909732 3763:2.5903656 3769:0.54811561 3770:2.9919329 3777:0.49957374 3784:0.93607718 3785:2.1743391 3792:1.0819992 3794:0.36755532 3799:1.7398061 3801:1.6489507 3806:1.709816 3810:3.7459059 3816:1.3102276 3820:0.57916349 3825:1.1654842 3828:4.1767788 3829:1.0820926 3831:3.9220753 3839:1.0632355 3840:1.162768 3844:1.1137657 3849:0.30110034 3852:5.9218698 3853:0.21930631 3854:2.2292504 3855:0.13189945 3856:0.26930285 3866:0.63821381 3867:2.5999076 3869:0.078604579 3873:0.96286285 3878:1.321625 3883:0.11360291 3885:1.9921262 3886:6.7198691 3892:0.24745262 3897:0.57523066 3898:1.8921411 3901:3.2434411 3902:0.18600488 3906:6.2409911 3910:1.4199001 3923:2.6555715 3925:1.5120831 3927:4.7674112 3930:1.4171674 3933:1.0699798 3934:2.4725661 3940:0.68659061 3945:2.365376 3947:3.3945792 3952:5.999053 3957:0.38962838 3963:0.63220298 3965:0.92116606 3969:2.3672905 3970:1.0371929 3972:0.097979367 3981:0.24093744 3982:0.37948677 3986:0.056266963 3988:2.0742297 3990:0.3319844 3992:2.2734394 3999:1.7607369 4001:1.4161639 4002:3.1514504 4004:0.79946387 4006:0.82595789 4009:0.076091766 4010:2.2458799 4011:0.84286994 4015:1.9223466 4017:3.958674 4020:1.9057847 4022:2.5109599 4023:0.3201451 4025:2.7001755 4035:0.91345489 4042:1.9194561 4043:1.0272899 4048:1.6994178 4053:6.3573484 4061:1.6883585 4071:1.3427505 4072:1.7383904 4074:2.5060849 4077:0.24474043 4080:1.1293187 4081:2.1888051 4090:4.971499 4092:0.064304948 4093:3.0790021 4094:2.2113047 4095:1.1159477 
5.438312077387956e-05 0 3:0.19972014 6:2.1678331 7:1.2573094 11:0.20576231 15:0.29695901 24:3.7181423 25:0.849985 29:1.6852151 32:0.57578921 49:0.53665686 55:0.15859041 59:2.1705759 63:0.066723168 69:0.27510417 72:0.47629756 75:1.0868466 77:0.27541679 78:1.8884985 88:2.6499934 90:1.5870638 96:0.55284715 103:0.53511184 105:2.5954223 107:1.0317323 111:0.92811942 113:1.9975762 114:1.13756 117:0.036641598 118:0.24073979 119:0.076804876 121:0.40071905 125:3.0094175 127:0.32387438 129:0.73619592 132:2.9992261 136:1.3759098 137:1.7014015 143:1.1053262 146:0.43759876 147:1.3942966 151:2.655786 152:2.2565963 153:0.72149175 157:0.49632224 160:1.1809278 167:2.677366 172:2.5227094 175:2.0423412 187:0.59088087 192:0.2871547 194:1.1625555 196:4.3373423 200:0.51764745 207:2.2098491 208:0.84869725 210:2.0376992 212:1.2225726 213:1.0849794 215:0.41619802 219:0.93806154 221:0.68453896 224:0.057366222 225:2.4161458 230:1.9249409 233:0.13571966 234:1.2159662 240:0.65536475 241:0.23558697 242:0.27262229 243:0.42353043 247:1.0369996 251:0.4094159 253:1.7504152 257:1.7194688 261:0.9369325 263:0.13200974 264:1.2847447 267:0.17034572 268:0.75808012 270:2.8383324 271:1.7631264 274:0.1399228 278:0.18237454 281:1.2562332 283:0.20040679 284:1.6723632 286:0.57533485 292:0.074655652 293:0.71592551 295:1.399074 297:1.0363256 298:0.61392307 313:0.22814246 318:0.17373058 320:1.4856114 321:1.0074291 322:0.22470036 329:0.096622735 332:0.9330852 340:1.3764802 341:3.4293554 343:0.68343371 344:1.5821422 348:1.9728009 352:0.38560128 358:0.2736634 361:1.7281116 363:0.47883913 365:1.1069613 373:0.4691456 377:0.019873261 381:0.12222797 382:0.020040512 388:0.37208879 390:0.47267979 393:1.929086 402:3.881402 405:2.9078071 411:2.6277776 413:1.0676916 415:0.14585671 418:1.3941712 422:2.4074028 426:0.15915328 427:2.576252 430:1.5958885 432:0.58812875 433:0.35572833 434:0.62482166 435:1.3215203 439:0.43106994 440:1.5969708 444:1.3849983 449:0.73983437 451:1.9126933 452:1.7257674 460:1.4863236 461:2.1905146 465:0.70817441 468:2.7556465 470:1.0907903 471:0.86208522 472:1.5125482 474:1.4093957 477:0.40111125 478:0.29060325 479:0.50875676 483:2.1938345 484:0.6100744 485:0.93312132 494:0.85545552 495:0.2434417 496:1.0952868 499:0.77995718 500:1.3862317 507:0.068034768 511:0.58879393 515:0.81449902 519:0.044824839 528:0.1439667 530:0.2158165 532:1.7556697 533:2.0894995 542:0.53813136 543:1.0231334 544:0.33106369 550:0.14939296 553:0.22732505 554:2.2456524 557:2.3194964 564:0.016232669 565:2.5869629 569:0.23698258 574:1.0216186 577:0.060333356 582:0.46334499 583:0.08988969 589:0.23441067 592:0.29190075 599:1.2062068 600:0.61495006 601:1.3660476 602:1.1583819 603:0.98554766 611:1.1989429 616:0.55758059 618:1.3110955 624:1.2685153 625:0.8429879 628:0.71626818 631:0.53696239 634:0.71769619 635:0.67100924 636:0.707412 638:0.15447772 639:0.0070189834 646:1.5505905 651:0.029284805 652:0.43573704 656:0.43704244 662:3.7931781 666:2.1306212 668:0.22720125 679:1.9230273 680:0.26098377 686:0.45201129 691:1.4036988 692:1.1456991 697:0.92887902 698:0.41038042 703:0.071115226 704:0.5563823 708:2.678318 709:0.11888731 711:0.33348948 715:0.058553755 716:0.67824322 720:1.9147068 727:4.7755976 729:0.64173526 733:0.91085368 734:0.27446753 735:0.15122473 738:0.81594074 739:1.7933736 742:0.32339275 744:2.8282037 747:0.54190212 748:0.93261474 749:2.8704538 750:0.68867773 753:1.7457449 754:1.3271649 756:0.15997916 771:1.0316383 773:0.72579324 776:0.028619587 778:3.2398441 783:0.95825088 788:1.6976002 796:0.91360927 799:1.0888402 800:0.096749932 801:0.70229751 811:1.7633338 814:1.693648 815:0.51911342 818:2.1139812 820:0.45270783 821:1.394307 822:0.40142196 826:0.19212341 834:0.77723384 839:1.8230811 844:1.1282996 846:3.3018336 848:2.4819083 850:0.016517341 854:2.0861666 856:1.4358696 857:2.5064998 862:0.049759805 863:0.047769248 864:0.13475285 866:0.35021153 872:1.2975833 874:0.56808287 876:1.7469788 878:0.16567859 886:0.76779771 888:0.52013808 890:0.7368179 894:3.0433316 896:1.1631449 897:1.1877266 899:0.91333652 900:0.76753378 903:0.86507046 907:1.2738008 909:0.26772782 910:0.057962298 911:0.45248225 933:1.4070755 935:1.5536175 941:0.097048044 942:0.35643262 944:0.05973056 945:2.0624774 947:3.1940579 950:2.4184887 957:0.54635233 960:1.2386057 961:1.0692427 970:1.0672957 973:1.0843413 975:0.7392174 977:0.6414113 979:0.44336629 980:0.84400266 982:0.11111313 991:0.065975338 995:0.091322213 996:1.1308618 998:0.31886357 999:0.8911165 1000:1.1294088 1006:0.76107413 1007:1.3988662 1009:1.0823114 1013:2.1607358 1015:0.4147923 1016:0.86790144 1017:0.24356934 1020:0.77111208 1026:0.24429965 1031:0.10020936 1035:0.054673702 1037:0.84870601 1049:3.2346711 1052:1.4336412 1053:0.20862794 1057:0.080355287 1059:1.7113616 1064:0.19764048 1067:1.0304791 1070:0.29156795 1071:2.9711831 1072:0.39482576 1073:0.68370318 1075:0.1903258 1082:0.25643075 1084:0.65991223 1085:1.0022349 1086:0.37036031 1087:0.86677849 1090:0.24182484 1093:1.2283506 1100:0.56039244 1102:0.39078864 1110:1.4177787 1111:0.10511225 1112:1.2845838 1114:0.02137804 1117:0.76843274 1125:2.8262675 1129:1.7791908 1133:0.83839673 1135:0.090343803 1136:0.26202416 1137:2.1887145 1141:0.95150959 1146:0.065086037 1147:0.51944005 1148:0.21719399 1151:0.66381723 1158:0.71957076 1161:0.82864112 1166:1.6572627 1170:0.36982149 1171:0.93688929 1173:2.3663883 1176:0.4476352 1179:2.0819032 1181:0.60322005 1185:1.124954 1188:0.32853952 1189:1.409107 1190:1.7187926 1191:0.20145634 1194:0.38098752 1197:1.6979707 1199:0.49396521 1200:0.15976959 1201:0.61255378 1204:0.74780679 1207:1.0658205 1209:1.3699601 1216:2.8299828 1218:1.6793914 1219:0.28144866 1221:1.8125921 1222:0.28850362 1227:0.54636657 1228:1.1254268 1229:0.34392053 1230:0.91584384 1233:2.7771094 1237:0.13718858 1245:0.34120455 1249:3.4403541 1253:1.4072094 1255:0.56026304 1259:1.1950865 1261:0.86641419 1262:0.34585175 1264:1.4706243 1267:0.17698041 1269:0.83742714 1276:0.51596016 1280:0.5044229 1281:0.83826149 1290:0.90536368 1292:3.2406287 1297:2.1175561 1305:0.80337304 1306:0.014732242 1308:0.7682091 1312:1.1563647 1314:2.5209227 1316:0.54220694 1319:1.8948493 1320:0.90374494 1326:0.037577033 1327:0.19596079 1332:0.17419875 1336:2.4592175 1339:0.19738537 1347:1.1090691 1349:2.1718175 1352:1.44187 1357:1.0317149 1358:1.0196656 1363:3.2855353 1369:0.74306595 1370:2.4524508 1371:0.16349617 1373:1.5975783 1379:0.5549385 1383:2.7639923 1385:1.0970669 1387:2.665369 1388:1.4909272 1390:1.1792575 1395:0.18071607 1401:2.4794111 1402:1.0912135 1411:1.3406674 1417:1.8115996 1423:1.0962665 1426:2.163605 1432:1.5203805 1433:0.87565261 1434:2.4447851 1437:0.91355067 1440:0.03967452 1441:0.49296045 1446:0.28478169 1448:0.039299428 1449:1.1205171 1451:1.5358382 1452:1.5549001 1456:0.080119252 1457:0.54792368 1458:0.14023241 1463:1.3358715 1467:0.61953282 1470:1.3045323 1472:1.3232374 1479:1.197261 1483:0.77728045 1486:0.17797539 1491:0.40790352 1502:0.9133693 1505:1.5082871 1506:0.83989894 1510:0.80913174 1511:1.4326653 1513:0.49090505 1517:0.88216919 1520:0.51232797 1523:0.17791241 1531:0.48788252 1536:0.21078655 1541:2.2879643 1547:1.7051492 1548:0.089223742 1549:3.1857767 1552:1.5219995 1563:1.3114616 1567:1.5469788 1569:0.16449153 1571:0.76505089 1575:1.6445047 1579:0.31158686 1580:0.56341231 1581:1.8908079 1590:0.54321778 1591:2.0158601 1594:1.9801128 1600:1.8398676 1604:0.72963679 1609:2.1000445 1611:2.8560388 1613:1.6065681 1614:1.0140355 1616:0.74323285 1617:0.68626803 1621:0.74852961 1622:1.8179379 1627:0.1255264 1629:0.0079188347 1634:0.70426095 1637:0.49675608 1638:0.82241523 1644:1.1598749 1648:2.5298924 1650:1.2274319 1652:1.4709187 1655:0.65547878 1657:0.64470553 1665:1.318548 1666:0.0013226569 1668:0.043028474 1670:0.28590083 1677:4.5083289 1679:0.50335944 1680:1.3662232 1684:1.5988975 1686:1.7204622 1688:0.86846668 1690:1.842633 1694:2.0517552 1702:0.82680798 1703:1.6722181 1704:1.732832 1706:0.40459335 1711:0.033128515 1715:2.5712235 1722:1.5212636 1723:1.7461501 1727:1.7838709 1728:0.64788723 1736:0.4008894 1737:1.408473 1738:2.4100933 1741:0.83467931 1751:0.20828712 1752:0.95972443 1756:1.2342215 1757:1.696543 1762:1.8143443 1772:0.45292771 1778:0.36267328 1779:0.5208872 1787:0.62010205 1794:1.2448044 1799:1.0141386 1803:0.24473543 1804:1.1744714 1808:0.30055028 1810:0.1089552 1815:0.54752785 1817:1.7859074 1821:2.3033259 1823:0.98090863 1824:2.3017483 1826:0.99224949 1840:2.6734989 1841:1.9566151 1846:4.9179921 1853:2.3030944 1854:0.16016418 1856:1.5656385 1861:0.95364898 1864:2.1869974 1865:0.48908824 1872:1.501597 1878:2.8355544 1886:1.3610265 1891:0.15607256 1898:0.061588377 1899:0.71562517 1900:0.93136233 1903:0.48754048 1907:2.5463533 1911:0.7523216 1919:1.9764807 1922:0.28727418 1924:2.3901777 1926:0.10729045 1929:1.7712102 1933:2.5689516 1940:0.62105852 1947:4.0604234 1948:0.1825735 1952:1.6436194 1958:1.7302721 1960:1.7432443 1967:1.1899996 1968:1.3554984 1970:0.75510693 1971:0.78052348 1973:1.1135032 1976:0.41547939 1977:1.6305096 1978:0.52721643 1987:1.3326385 1989:0.013426781 1992:0.19225293 1996:0.27517325 1999:0.42640454 2006:0.93027502 2007:1.3830602 2012:1.8585391 2014:1.9802089 2020:0.59372026 2026:0.24010572 2031:0.46385664 2036:2.2145762 2045:0.84337711 2048:0.18939477 2049:0.41547272 2054:1.9420922 2055:0.72794569 2062:0.61308736 2065:2.9252982 2068:2.0246942 2069:3.1214244 2071:2.7527938 2073:1.8798257 2075:0.27548268 2077:1.0782585 2080:1.4203951 2081:4.4946594 2086:1.5983876 2089:2.9187362 2095:0.54491705 2102:1.8104451 2118:1.2599024 2134:0.16896546 2135:2.5922501 2141:0.62174451 2148:0.35426986 2150:0.568636 2153:1.367198 2156:2.1724019 2159:0.56037211 2160:0.42489755 2161:0.10665286 2162:0.54103732 2164:0.93196839 2165:0.7185564 2170:0.49340206 2171:0.084187776 2173:0.34176201 2174:0.64897746 2178:1.5207608 2182:0.11882877 2184:0.74129069 2189:0.86352175 2198:0.84867555 2206:0.563761 2208:0.70898175 2210:0.042338669 2211:2.7275198 2212:1.2284191 2215:1.6640126 2216:0.40368393 2217:0.015384674 2218:0.32096699 2220:0.13815928 2221:0.32143626 2222:0.081576303 2235:0.2854332 2237:0.16879487 2240:0.29071194 2247:0.10378492 2249:0.34558809 2250:0.97409916 2251:0.033375293 2252:1.6013225 2253:0.34972885 2255:2.8941588 2261:0.016389221 2263:0.72082794 2265:0.45238253 2267:0.82647491 2269:2.055403 2273:1.166431 2274:1.0567828 2277:0.17269647 2285:1.6490552 2289:0.057554573 2293:0.21606341 2295:3.2042656 2297:0.1595522 2299:0.97568297 2301:0.90290934 2303:0.12396064 2307:1.2971005 2308:1.1426646 2314:1.970544 2319:0.85408819 2323:1.5321788 2325:0.2431775 2327:0.74872422 2329:1.2459984 2333:0.81185573 2334:1.0281923 2336:1.4631792 2337:1.046078 2339:0.49704039 2345:0.76781929 2349:1.8565594 2352:0.94122833 2355:1.7516689 2358:0.303114 2365:0.99101865 2367:0.5041427 2371:1.7817138 2372:0.044529527 2376:1.6185563 2377:0.67705715 2383:0.93300629 2384:1.1834614 2385:1.248665 2389:0.7790271 2392:3.355391 2395:0.59772331 2396:2.7489896 2397:0.2982139 2401:0.035941601 2411:0.049896061 2419:0.86797142 2424:1.9588339 2426:0.2902846 2429:0.72517949 2431:1.3631959 2432:2.6971214 2437:0.37666491 2439:1.3424767 2442:0.79554957 2455:0.54996252 2456:0.12913114 2458:0.37662145 2459:0.55593836 2470:2.4448063 2471:0.19402385 2473:3.6670306 2474:1.4959929 2476:1.074226 2503:1.5889869 2505:0.93203795 2507:1.2068086 2509:0.17234418 2511:1.0379736 2518:0.24980879 2520:0.1491484 2521:1.3433553 2527:1.7982811 2530:0.20124936 2531:0.28319693 2543:1.2034137 2552:0.81224322 2556:2.4075637 2557:0.30491868 2561:0.28707957 2564:0.51672584 2567:0.58102143 2571:0.34456757 2573:2.1832995 2584:1.1246631 2586:0.18988481 2592:1.7519006 2593:0.84816533 2596:0.32758439 2597:0.13918331 2600:0.55933762 2610:0.25231552 2613:3.573348 2614:0.31267041 2616:1.1075053 2617:0.13814315 2625:2.5933716 2626:1.8702732 2628:1.847407 2630:0.50845563 2632:0.13940883 2639:0.065278858 2642:0.15350983 2643:3.2126963 2654:2.7272048 2655:1.4266231 2658:1.6196861 2661:1.3801577 2668:1.8274741 2669:0.92800176 2671:0.59153759 2672:0.55242634 2673:0.24650082 2674:0.35682324 2676:1.0581599 2678:1.1211271 2680:1.5041267 2682:0.22628373 2683:0.3085984 2685:1.2973142 2688:0.32418072 2689:0.86593026 2690:0.65118694 2691:1.4883735 2694:0.34889311 2695:0.33036393 2700:0.70834595 2701:2.3917184 2702:0.020829141 2703:0.60301584 2704:2.9856503 2707:0.27150297 2712:0.16136706 2716:0.79751599 2717:0.65649426 2718:0.21734896 2720:0.75501674 2722:0.35856861 2724:4.2441945 2726:1.5298827 2731:0.70494705 2733:1.7283806 2737:3.8060427 2739:0.68666375 2743:1.1696202 2748:3.1099913 2753:0.26172781 2759:2.0459049 2765:0.16325465 2766:1.4762623 2771:0.050455421 2772:0.14691374 2776:0.66768974 2781:2.6550977 2790:1.5899379 2800:0.65391254 2805:3.0094738 2810:0.72418243 2813:0.97581208 2815:0.8644743 2827:0.10690603 2830:0.87727499 2831:1.1161833 2835:0.13525909 2839:0.5218575 2844:3.4847579 2847:0.80757225 2849:3.2274933 2850:1.3047656 2853:1.338305 2855:0.84489834 2858:3.3775434 2866:2.8038356 2868:0.77283037 2873:0.049626529 2875:1.9678643 2879:0.036151826 2882:0.97313654 2885:1.5143051 2888:0.03811878 2895:3.0671616 2898:0.96955073 2899:0.36111054 2900:0.043760151 2907:0.6675629 2912:2.1322362 2913:2.5925117 2914:0.31752193 2924:0.66823828 2929:2.1284964 2931:0.60989118 2937:2.0172298 2942:0.75386417 2945:0.52677369 2947:3.4933312 2949:0.29792389 2950:2.0057228 2951:2.2906413 2952:1.4693056 2958:0.27072096 2959:0.26489958 2973:1.2085023 2974:0.2518712 2979:0.95726919 2985:0.22168241 2994:0.64815938 2998:0.51249617 3001:0.28534123 3003:1.0886564 3005:0.23583633 3008:0.081835121 3009:0.32527438 3011:3.9127691 3013:1.7915363 3023:0.94030893 3028:0.97308373 3030:0.28951064 3034:1.2311389 3040:1.6961658 3045:0.40206072 3048:1.5665374 3053:0.23603959 3054:0.49316338 3055:0.43736637 3056:0.91397893 3057:0.24123946 3058:0.82528156 3061:0.61013734 3067:0.31696713 3069:0.34469989 3071:0.36886907 3073:0.50565857 3074:0.39888686 3076:0.65529734 3077:2.2002096 3078:1.170939 3083:0.605398 3092:1.4656188 3094:0.18324155 3098:0.96027792 3101:1.8635834 3102:0.22229642 3103:0.57064235 3104:0.30562198 3105:0.12063795 3106:0.15198171 3107:0.63873458 3113:0.20452943 3116:1.2741995 3117:0.10075447 3119:0.58784223 3127:0.11259439 3128:0.093795836 3129:0.50624853 3130:0.06343165 3132:0.21036947 3134:0.41351742 3144:0.97031415 3145:1.5485362 3147:0.17102891 3148:0.15880561 3150:0.86535132 3151:1.3954644 3152:1.8743649 3155:1.4100775 3168:0.10981759 3169:0.11091119 3170:0.71459383 3173:0.82879162 3174:0.94861555 3175:3.710182 3176:1.3279848 3179:0.841079 3185:1.1793406 3193:0.37097386 3194:0.73680532 3196:0.094609737 3200:0.12337589 3203:0.56334776 3206:0.60262144 3211:2.0630333 3212:3.3998611 3213:0.46473661 3214:2.0802987 3220:1.9615033 3222:1.3575649 3227:0.36445969 3228:1.2264357 3234:1.249496 3240:0.35988358 3248:0.60776597 3249:2.0258279 3251:3.0643327 3252:2.2270899 3253:0.0088273287 3254:0.886253 3261:1.1926219 3264:0.75420952 3265:0.24027023 3270:0.27953482 3271:0.43099913 3272:1.8207135 3274:0.86702979 3275:1.7275696 3279:1.9289864 3281:2.5093243 3282:0.59046233 3287:0.43108901 3288:0.075674891 3292:2.2058291 3296:0.28742272 3298:3.2130008 3300:0.29070994 3301:1.7519435 3303:1.2201777 3307:2.6056612 3322:0.70029533 3323:0.37326178 3329:0.96432829 3331:0.47522339 3334:1.2419541 3338:2.1557765 3340:0.18563434 3343:0.48511988 3346:1.707924 3347:0.49345067 3348:2.7048855 3357:0.83295178 3362:1.442019 3367:2.1195951 3373:1.0778797 3382:0.3184014 3384:0.40803856 3385:1.5731107 3387:0.36050475 3388:0.41657239 3391:1.3003018 3397:0.6023705 3398:2.9763846 3399:1.1056353 3400:1.5261403 3402:0.98026353 3405:0.51015735 3406:0.61472601 3407:0.11491203 3409:0.26285893 3419:1.4789543 3425:2.6115003 3426:1.3914456 3427:2.0274723 3428:1.1650441 3430:0.035860837 3435:1.069521 3440:0.8191098 3444:0.037997544 3447:0.034286797 3448:2.5772126 3453:1.3432112 3457:3.1798306 3460:0.92455196 3461:0.0073701143 3469:0.32314417 3471:0.29715538 3473:2.3409395 3485:3.0956395 3487:0.60433042 3493:0.95499825 3494:0.0053441823 3501:0.26435977 3504:0.28543887 3505:0.12254697 3510:2.5032771 3515:0.29017758 3516:1.3391308 3521:1.0838575 3524:0.44783711 3531:0.90308559 3533:1.3103877 3536:0.36474016 3539:1.9810026 3540:0.15069205 3541:0.59598768 3550:0.65837622 3553:0.2702966 3557:1.0910513 3563:0.10224712 3565:1.3072736 3566:0.040242538 3568:0.26545694 3569:0.41194361 3580:0.76528722 3581:0.15492941 3590:0.57620198 3593:0.99027807 3594:1.001616 3595:2.2670281 3597:0.46040517 3598:0.045781106 3600:1.1721282 3610:1.134938 3622:1.2947531 3633:0.2802906 3647:1.1720552 3651:1.4270146 3652:0.27692124 3654:1.2378838 3655:0.75056911 3657:2.6725399 3658:0.051575422 3659:1.4704193 3663:1.3312672 3664:1.504221 3665:0.46365523 3668:1.1047035 3673:0.18046032 3674:2.7660153 3676:0.51408166 3683:2.5925653 3684:0.10594583 3685:0.46757278 3686:1.7317951 3696:0.19325933 3698:0.90718937 3701:1.3673646 3702:1.053148 3703:0.82366472 3704:0.67180026 3710:1.7875122 3719:1.0119649 3720:4.2930193 3721:0.99076867 3725:1.4604106 3727:1.0792682 3730:1.8191613 3739:1.0873181 3742:0.35599324 3744:0.45736966 3746:0.115127 3747:1.371901 3755:1.6250167 3761:1.2561035 3762:2.8538373 3764:0.86319625 3769:1.9168674 3773:1.0096676 3774:0.80159372 3776:1.7386892 3777:0.29090548 3779:0.010735542 3784:0.92815435 3787:0.23000017 3792:1.9345326 3794:0.71184164 3795:0.29953191 3796:0.81046546 3799:1.7328252 3800:0.80552322 3802:0.50304478 3814:1.5659006 3816:1.143302 3819:1.6818534 3828:0.064667434 3829:0.70109653 3835:0.11002907 3837:1.0415826 3840:1.0286304 3844:0.69355518 3852:3.5057817 3854:1.4680262 3858:0.61586022 3870:1.2313123 3879:0.49130398 3881:0.47932968 3882:1.4426998 3883:1.5528672 3885:0.59347183 3886:2.5626807 3888:0.61039054 3890:0.41872841 3894:0.65819508 3897:0.58734572 3898:0.37677866 3902:0.17425418 3903:0.15921074 3906:1.1875938 3907:2.905973 3909:3.0305245 3910:0.022157758 3915:1.0480881 3922:2.7567382 3923:2.6698503 3930:0.82654738 3933:0.11806215 3934:0.76085532 3937:0.60809529 3941:0.36942866 3945:0.98550594 3947:0.48508003 3949:1.5700581 3950:0.46095616 3952:3.2012033 3954:1.0758637 3955:1.0323715 3956:2.4071734 3964:1.2381854 3965:0.29232514 3966:2.0499334 3967:1.2037433 3973:0.059895456 3977:0.65448147 3982:0.17795523 3988:2.5603971 3993:0.34145844 3998:0.6295414 3999:0.74443412 4001:2.7589412 4002:2.4681749 4009:0.17008072 4011:0.58349937 4015:0.32509238 4016:0.3933326 4017:0.84065747 4022:0.90678853 4025:0.72753584 4029:1.3072548 4030:0.89725029 4035:0.34278566 4043:1.2901024 4048:2.3191516 4050:0.28936857 4051:1.0027249 4053:0.35889947 4061:0.99603128 4064:0.45117235 4066:0.79492867 4067:1.9880855 4072:1.9619128 4074:1.8398327 4080:2.8332946 4081:2.057375 4084:0.49211836 4085:0.70133013 4088:1.9060594 4089:1.9661858 4090:1.9255047 4093:0.83133405 4094:0.23452267 
