svm_type c_svc
kernel_type linear
nr_class 2
total_sv 111
rho 6.47297
label 1 2
nr_sv 54 57
SV
0.08469133209932984 2:0.14995296 4:3.7047639 6:0.68199062 8:0.94091773 10:2.2158537 13:2.9911797 15:1.3882627 16:1.7555817 18:1.4970094 20:1.3679404 22:2.0615008 26:1.6394191 32:1.0214381 33:2.0518703 34:1.1663187 39:0.75451636 40:0.15510364 41:2.859241 46:4.8098607 47:1.2568827 48:1.7382905 51:1.7954878 53:3.3269348 57:0.5060181 58:1.3117514 59:0.08867909 62:1.529326 64:0.18094654 68:0.18970202 71:1.8334936 72:1.4700835 73:1.5702053 74:0.32660875 75:1.726015 76:0.49308509 77:1.3592989 78:0.2563695 84:1.4976472 85:0.63746697 86:1.744182 89:1.191543 92:2.1269736 93:5.6855626 96:0.60493398 99:2.0802889 100:1.0800692 102:1.088159 104:0.61027098 107:4.1954279 109:5.4812922 111:0.071056679 112:2.0978076 114:6.6855078 116:3.574734 117:4.1940742 120:1.1769542 121:1.8363168 123:2.0558252 126:1.603575 128:1.9985909 136:1.3291004 137:1.7903185 143:0.42282599 144:2.0897543 145:0.31653956 149:3.4597964 157:0.66875243 160:1.1694217 169:0.67147285 175:0.20444506 178:1.8835578 179:3.2209828 182:1.4194014 185:4.5528588 186:0.0012044031 188:0.28504336 192:2.1249869 195:1.6539955 197:2.4972503 198:0.010687917 201:0.53442419 202:4.2442451 204:2.3687308 207:0.57436395 208:0.5042606 210:3.806324 211:5.3187313 212:2.5982838 213:1.4491162 215:0.94441664 217:2.6972537 218:0.86462998 220:3.8808489 222:0.40012744 225:0.65861636 227:0.098370723 228:2.3635371 230:0.68172616 231:0.93419766 232:0.7555446 234:1.5626935 235:1.9712415 237:0.35973695 239:0.29529122 240:0.56639189 243:1.8771714 244:0.80086023 245:0.11178509 246:0.14056738 248:0.63785946 250:1.8676562 258:3.4736547 259:0.36164829 260:1.5659388 268:1.3860252 269:1.6601486 277:6.5874367 279:0.45552903 280:1.3882467 281:1.4295319 282:0.37527239 284:0.37211135 286:0.16953191 287:5.6059146 288:1.2173738 289:0.72854632 290:0.85127878 291:0.97096103 294:0.036700226 299:2.3059301 302:0.53000474 305:0.89540136 306:0.20558551 308:1.4150091 309:2.0006213 310:3.5864353 315:1.6678298 316:2.3879669 323:1.5567926 326:2.1191542 330:1.6194085 335:1.2888565 337:0.054528035 339:0.59335756 340:0.24264373 341:2.0723517 342:0.54321939 343:1.4303212 345:4.8200965 348:1.1275339 349:0.51287949 352:0.24407841 353:1.0167891 355:1.1346542 356:1.0729119 358:1.5722334 365:1.537832 369:0.73886919 372:0.41808903 373:0.3132441 374:1.3143058 375:1.4627515 376:0.15816694 377:0.022628013 378:2.5231991 379:0.46799657 380:0.77165359 381:0.44193456 383:1.1964245 384:2.2245409 388:1.2361906 390:3.5481648 392:2.4939806 393:0.69139743 396:2.1202955 401:0.9652282 402:0.5217787 405:1.1643137 406:1.1341528 407:0.27104419 410:1.3403856 411:1.3216059 412:1.6510998 413:0.050921448 420:0.20612094 421:0.3047553 422:1.1822785 424:0.23590982 425:2.1215813 426:0.53721201 427:0.58457452 428:1.8920454 430:0.78909397 431:1.0274066 432:0.72510785 434:1.9069443 441:0.81567556 442:0.45807517 443:3.4727898 445:0.17734754 446:0.67600071 447:1.447069 448:0.093924642 449:2.1637392 450:4.5397816 456:0.54802734 460:0.13864128 463:0.60036087 464:1.1610116 465:1.151233 468:1.1651603 469:0.68107313 475:1.4487613 477:1.9582653 478:1.3915085 481:0.20662422 482:0.28512171 484:0.72459573 486:1.2092407 487:0.25330114 490:1.6031319 491:0.34896362 492:0.36623687 493:1.5999634 494:0.23478234 498:0.23246744 500:0.7254259 504:2.2327759 505:2.3644576 506:0.59318429 510:0.393345 513:5.7663836 517:1.4749036 519:1.5799735 521:1.2422676 522:0.55685443 523:2.2323582 524:2.4701793 525:2.4500527 526:0.68405229 527:1.1407244 530:0.93768805 532:0.0055380245 535:3.6268768 536:1.1896441 537:1.8660644 539:1.878867 541:1.9397838 544:2.7203789 546:1.3527613 547:0.19190475 550:0.37822685 552:2.6718931 554:0.74551517 557:0.53491104 560:0.19032317 565:0.40384445 568:2.2262433 569:0.58935887 572:0.36059889 573:0.85444552 575:0.41284108 577:1.0565078 580:0.48355809 582:0.76245737 584:0.35350418 587:0.90357494 588:0.73968136 589:0.69206768 593:2.4233201 595:0.0020874757 597:0.24281096 598:2.6169486 601:0.33512381 603:1.4942551 604:2.4496522 606:3.1432397 607:1.7458568 610:1.2271529 611:3.711514 613:3.2215276 614:0.95191473 615:1.6976795 622:2.4661388 625:0.25395331 626:1.1500742 627:1.5440704 632:0.23732066 633:0.74174494 635:1.1695002 636:0.57266599 637:2.6295288 639:4.3008795 644:1.1489779 645:1.0116253 646:1.5659374 647:2.1388829 650:1.0562583 651:3.2317924 654:3.256253 655:1.3935272 658:2.6629629 660:0.84928745 664:3.6904364 666:1.2806199 667:0.15054114 670:3.0854263 671:1.2871518 672:0.52106684 673:3.0500455 675:0.88242948 676:1.1599077 683:4.2176156 685:0.97008479 686:2.8702085 688:1.7004912 689:0.60682362 690:1.0802538 693:2.3395355 698:0.18864177 699:0.89565581 702:0.980591 707:1.335637 708:0.13775872 712:2.3407831 713:1.7553216 714:1.4932985 715:0.68525314 718:3.1368561 719:0.21286136 720:1.1374139 723:2.2645822 725:2.5923772 732:0.04292544 735:0.28804895 736:0.25223047 737:1.4533823 739:2.3422713 740:0.22391734 742:3.3726401 747:0.64125055 750:0.78170973 751:0.67724156 752:2.1373005 753:0.16215977 754:0.33208269 759:3.2901175 761:0.34135288 762:1.0966974 763:0.86373973 764:3.0515525 765:3.3488317 767:0.39115754 768:1.3807905 769:4.2012887 773:0.14045328 778:0.28386432 781:0.29365563 782:4.2747706e-06 783:0.62214345 786:1.7695572 788:0.80839628 789:1.0187409 790:1.3501439 792:3.2437456 793:2.3754172 795:1.5856616 796:0.96972328 799:0.6538682 801:2.7064011 803:3.0123999 804:4.6331191 806:1.2730132 807:0.79276514 809:1.9151946 814:3.3597691 815:0.48949668 819:0.045798846 820:0.8733775 825:1.115967 827:1.4219694 828:2.4513819 830:1.3283626 834:2.8674331 835:0.64537692 838:2.0367451 839:0.70425123 840:3.182991 841:0.11935045 843:0.7449773 847:1.4547595 848:0.045789581 854:1.3843278 855:0.35514319 856:1.4563013 861:0.6671322 864:0.3161718 865:1.3010806 866:0.39544818 867:0.56698489 868:2.7265792 869:0.29111627 870:3.5598068 872:0.17243244 877:0.011610782 878:0.3992694 879:0.76087165 881:2.8000536 883:0.48669598 884:2.7264807 885:0.58080477 889:0.75589144 890:0.55296624 895:0.89039505 898:1.0711358 899:2.3621757 901:1.540337 902:0.36872017 903:0.043408874 905:6.8936043 906:0.29239482 908:1.8548232 910:0.52436674 911:1.8205042 915:0.38906395 916:3.6885316 918:1.6974568 919:0.4545759 920:1.0158828 922:2.4021542 924:2.8264925 927:3.472285 928:0.82838094 930:3.0983062 936:0.27474883 937:2.5857017 939:2.7169483 940:0.2582815 942:2.0776215 944:0.99236846 945:2.5926905 948:0.33334321 949:0.14957322 950:1.2641979 952:3.3030517 953:0.4394733 958:4.7087331 959:1.5009786 961:1.4392048 963:0.93882394 967:0.39080998 969:1.5415255 976:1.3062767 977:0.53195417 980:1.0857295 981:2.2218208 983:1.163486 984:0.60764575 986:2.3143206 987:1.9363014 988:4.5586271 989:2.2737527 991:5.0072875 993:1.4781004 994:3.3706677 999:3.2167695 1000:0.49597585 1001:0.46581924 1004:0.060052171 1007:0.814605 1009:2.1706238 1011:0.40458146 1014:1.2488121 1015:0.16549611 1016:2.3126545 1017:0.3649455 1021:0.33909634 1022:2.2226546 1025:5.2960305 1034:3.1504169 1036:0.4218103 1038:0.41515338 1042:0.066747762 1045:4.1979399 1046:0.36394557 1048:0.75038195 1053:1.5531937 1054:1.3976563 1058:1.1216744 1063:1.8070984 1065:3.69361 1070:1.8252113 1071:4.9965 1075:4.8483095 1076:2.3474677 1077:1.9749824 1079:5.4250069 1080:2.0594227 1082:3.0376141 1083:1.8004423 1084:0.36501101 1088:1.4789513 1089:1.1526051 1090:0.81851071 1091:2.1993971 1092:0.63550538 1093:0.3005245 1094:0.83927703 1096:0.97300512 1097:2.2150202 1098:3.4819033 1099:0.61416215 1105:0.056338932 1106:0.87814146 1108:3.2882543 1110:1.1699938 1111:1.9259882 1116:1.4672757 1117:0.52287108 1118:4.2118773 1119:0.59276813 1120:1.4697757 1122:1.3034704 1126:0.15684198 1128:1.6827784 1129:1.6340892 1130:0.1019297 1132:0.11340087 1134:2.9945688 1136:2.0969939 1138:0.35709098 1139:2.2048848 1140:5.0492592 1143:0.31527776 1145:3.2023585 1146:0.021503165 1147:1.1013731 1149:2.7162907 1151:0.16525206 1154:0.83537966 1155:2.3911421 1156:1.7727342 1158:1.3910785 1160:3.221102 1162:3.1070652 1166:1.1613783 1167:1.5048667 1172:1.6725971 1175:4.697371 1176:0.15322642 1178:1.262849 1181:1.1508678 1182:0.22965896 1187:4.9319878 1190:2.4199696 1193:1.0827008 1195:0.66739941 1197:0.93239647 1198:1.9101468 1200:0.57049817 1201:1.1262821 1204:1.9624684 1205:4.5556803 1209:2.7010984 1213:1.6250453 1214:3.8046808 1215:1.2576123 1219:0.79473293 1220:4.3109422 1221:0.83189613 1224:1.5616491 1225:2.5246081 1231:0.067034908 1234:1.4168481 1235:0.066105381 1242:0.74543983 1243:2.2723992 1245:5.2459059 1248:1.9964693 1251:3.3018949 1254:1.4505507 1255:1.6431592 1260:1.5938246 1261:4.1702795 1263:1.5317844 1264:0.10953934 1265:3.2412448 1266:0.67063463 1267:1.3012605 1268:1.2103307 1271:0.30396935 1272:0.095273376 1278:2.4536881 1283:0.40983936 1285:0.45815465 1288:0.56813622 1290:1.0813202 1291:4.0744309 1292:0.18225783 1293:0.28463599 1294:0.39575681 1297:2.3145299 1298:2.0352752 1301:1.2952112 1307:1.1482936 1308:1.6582258 1310:2.0238512 1312:0.287689 1315:0.53979808 1316:2.4702554 1318:1.4728743 1320:2.4577949 1322:0.73367196 1326:0.75977141 1327:1.581818 1328:1.1709476 1332:0.89527595 1337:0.43098825 1340:0.79865092 1341:1.6253426 1345:2.6243556 1346:1.8755432 1347:0.27601272 1348:1.3677335 1349:1.3092195 1350:2.8960977 1351:4.5572143 1352:1.663111 1353:0.7496146 1355:0.53460836 1358:0.48735407 1362:0.69538367 1364:0.75486988 1365:1.4414645 1369:1.5271971 1371:1.9950897 1376:0.49764889 1378:1.5482705 1380:1.1740159 1383:3.7258413 1384:3.4363623 1391:0.046951018 1396:1.7430965 1397:1.6647533 1398:3.0342071 1399:2.3242128 1400:1.4282326 1404:2.482935 1406:1.6723341 1412:1.9919808 1415:0.12397377 1416:2.0518203 1417:1.4445726 1418:0.4583039 1420:0.10902953 1425:0.17145137 1429:1.07105 1430:0.20658973 1431:0.069021277 1434:2.4598069 1435:2.114913 1436:2.5247715 1437:0.40884656 1439:1.3558258 1440:0.89131659 1441:4.4000678 1443:0.88401741 1448:1.4406849 1450:0.29214582 1451:2.3595846 1452:0.45882115 1455:2.1970525 1456:0.13824679 1457:1.1366322 1458:3.9466205 1459:0.39232129 1460:0.75267261 1464:0.27805936 1468:2.1537175 1469:0.23432958 1470:1.0812265 1471:2.0395064 1472:0.054625023 1475:1.7577362 1478:1.2621704 1482:2.6028221 1483:0.21640521 1484:2.6247334 1486:0.57362664 1488:0.89716387 1491:0.36171991 1492:0.14219894 1494:0.76832747 1495:3.6191819 1496:1.1759384 1497:1.5746661 1507:0.68448424 1509:1.9115531 1510:1.2783779 1513:0.076431163 1517:0.73966664 1521:1.4300351 1522:1.0085126 1523:0.55717993 1524:1.1957389 1525:2.9818525 1527:0.51840442 1528:0.29331392 1531:0.36933234 1532:0.15450652 1533:0.25203383 1534:0.85050976 1535:2.5953388 1537:0.76416236 1538:1.2297477 1539:2.1491308 1541:1.9611683 1543:0.57202274 1544:0.49096957 1547:2.6726909 1549:1.183924 1552:3.0587718 1553:0.14828159 1554:1.9246697 1557:0.75113565 1559:2.5672178 1560:0.62134534 1562:1.2584242 1563:2.1087494 1567:2.1471689 1568:2.2808876 1569:0.69753599 1572:0.66683072 1575:0.54014307 1580:2.7741194 1583:3.6613491 1584:0.87021285 1586:0.060876213 1588:0.846286 1589:0.78017288 1590:0.31141245 1594:0.4300029 1596:0.94006526 1599:2.1281507 1603:0.12732652 1604:2.9726164 1608:1.9204651 1610:2.4932511 1614:2.5012298 1615:0.064617753 1616:1.4222823 1618:3.5491083 1619:0.40007567 1621:0.010072988 1622:0.74995494 1623:1.4361411 1624:2.0356479 1628:1.4812789 1629:0.30630073 1631:2.5571995 1633:0.17843662 1638:1.3278525 1640:2.2311585 1642:2.3331602 1644:0.17981365 1646:2.2743542 1647:0.13434194 1648:0.3468363 1649:0.50367433 1653:2.188535 1654:0.6266014 1657:1.2855432 1659:1.8260242 1661:0.99258429 1663:1.7574912 1664:0.21076056 1665:0.88361663 1666:0.27755499 1672:1.3187751 1675:0.023291871 1678:0.19414641 1680:2.4694052 1683:1.8375053 1685:2.249218 1687:1.5960442 1689:0.75529689 1691:0.24284862 1693:1.5944872 1695:1.93898 1696:1.2621807 1698:3.4118385 1699:0.72014713 1701:1.6864797 1702:2.1556287 1703:0.17573234 1704:1.4287708 1706:1.4354367 1710:0.10167521 1711:1.7340577 1712:0.33122 1719:0.13076408 1725:1.3309331 1726:0.07421837 1727:1.0080845 1730:0.87690693 1732:1.5403693 1734:0.26671353 1738:0.57933122 1739:2.4166045 1742:1.0320356 1743:1.4170892 1744:2.6419494 1745:0.8542136 1746:1.4365847 1748:1.8756442 1753:0.36510161 1756:1.288233 1759:0.44674242 1764:3.5207825 1765:1.7813158 1767:0.27991861 1770:1.2960695 1772:1.8995775 1774:2.2475536 1776:0.44836777 1778:2.7466168 1780:0.25675237 1781:0.63591766 1782:2.9949253 1784:0.86365187 1785:2.1951661 1787:0.079252377 1788:2.9397836 1789:0.53228289 1791:1.368788 1792:1.3297067 1793:0.064641736 1800:1.5221205 1802:0.17517248 1807:0.96194243 1808:4.8008094 1809:1.0126106 1810:0.34299493 1813:5.5353074 1814:1.5831062 1815:1.4363676 1816:1.4066018 1818:2.4217768 1822:0.3953602 1824:3.1979828 1826:0.30059674 1828:0.18284875 1829:0.70529026 1830:3.5146506 1834:0.046973821 1836:0.66663074 1837:1.0244547 1842:1.9109246 1845:2.5563853 1850:2.3116565 1852:0.38252559 1853:1.1668851 1857:1.7511523 1858:1.6250787 1859:0.67723835 1861:1.3649524 1863:0.43327186 1864:0.023404296 1866:0.16261721 1868:0.14717153 1870:1.6088973 1872:0.804075 1873:0.2353079 1874:1.7053889 1876:1.9181384 1878:4.6048174 1879:1.3593533 1881:0.065680549 1882:0.82794076 1883:0.74668986 1884:0.02516447 1886:0.5178073 1888:2.2426183 1889:0.65708524 1891:4.4644113 1892:0.70832211 1896:0.89979929 1897:2.0591292 1899:0.76716423 1905:1.5516616 1906:1.1232417 1907:1.6637729 1909:0.3643831 1911:2.3119431 1912:1.6700208 1915:2.0863857 1916:1.3792896 1918:0.79242396 1920:1.9116637 1922:0.28847754 1923:1.5679654 1927:0.61443758 1928:0.25599381 1930:0.042919565 1934:2.3089254 1937:2.1211221 1939:0.30604124 1940:0.12312658 1941:1.9678465 1942:0.73150504 1944:2.3370123 1945:1.1855662 1946:1.4256635 1950:1.1497117 1952:0.50036186 1953:0.34266207 1956:1.5541993 1957:0.035282031 1960:0.054957338 1961:1.2330081 1962:0.61579889 1964:3.1639087 1965:0.16726413 1966:1.2153695 1967:5.6512165 1970:0.8953985 1971:2.5507443 1973:2.3064704 1974:0.1103782 1975:0.070785791 1978:0.24992923 1979:2.9231894 1980:0.98584425 1981:3.6151342 1982:1.7938174 1983:0.76773942 1984:1.2299945 1986:0.47540733 1991:2.5963013 1992:2.5318177 1993:2.6588132 1995:0.067945078 1996:0.31967032 1997:0.3127223 2001:3.2900565 2005:0.74501103 2007:1.4121789 2012:1.2834532 2013:0.54154098 2015:1.153464 2016:2.5455089 2017:1.2489567 2018:3.424134 2021:1.5568142 2022:0.21260919 2023:2.5732417 2026:3.1659133 2028:2.9575322 2030:1.7300286 2034:2.235193 2038:2.3709011 2039:0.77661943 2040:1.3235563 2041:0.23426649 2042:1.3685447 2047:0.40652937 2050:0.66527855 2051:0.57912731 2053:3.0939631 2057:2.7657893 2062:1.4665418 2066:3.487411 2067:0.21727741 2069:3.6805508 2071:0.27087057 2072:1.0448203 2077:0.33919734 2078:1.5560452 2080:0.22435103 2081:0.08197242 2083:2.7975924 2084:3.2627711 2085:0.32835183 2087:0.40071297 2088:0.068327203 2089:0.45421267 2090:0.22935288 2091:0.59520739 2093:0.55725521 2094:0.59420836 2096:2.5788732 2097:2.6951156 2098:0.81638044 2099:1.0583869 2100:1.6983645 2101:0.49513435 2102:1.0617753 2103:1.8398931 2105:1.1174947 2106:1.7442963 2108:1.4069781 2112:3.931953 2114:0.10446824 2116:3.2801676 2117:3.5265498 2119:0.80599272 2121:0.11472189 2122:0.18819112 2123:0.69543767 2125:0.6634481 2128:1.1931183 2130:1.2866926 2131:1.2639412 2132:0.077160873 2138:2.3503764 2139:0.66360939 2142:0.81500894 2145:0.42078826 2147:1.4748373 2149:3.4748101 2152:2.9510663 2154:4.2939186 2155:0.57708573 2156:5.5469422 2157:2.0548131 2158:0.29789627 2160:1.7620595 2162:1.5362943 2165:0.38830504 2171:0.83809936 2172:0.77650905 2179:0.99522614 2181:0.021974489 2182:0.5499047 2183:1.8656574 2184:1.2061754 2185:0.26972726 2192:0.42292988 2198:3.1624987 2201:0.47798869 2203:0.40054566 2204:1.428491 2205:0.82027149 2206:1.6242073 2208:1.3302884 2209:0.10557204 2210:1.164571 2211:1.1651074 2212:2.4163208 2213:0.16420612 2215:0.069071956 2217:1.04 2220:0.45235717 2222:0.039597571 2223:1.0510485 2224:0.60137147 2228:0.92775488 2230:1.1884547 2231:0.91960377 2232:0.82148117 2233:0.24720518 2235:2.0800421 2239:0.44083217 2241:1.4852555 2242:0.2294203 2244:2.9677358 2247:1.7596976 2248:1.1221726 2254:1.3034314 2256:1.7250484 2258:0.90485728 2259:1.2389777 2261:1.0512644 2263:1.1090308 2264:1.0037 2265:4.6663389 2266:2.4341936 2268:0.43647859 2270:0.62331671 2271:1.2829522 2272:1.4289323 2273:0.297023 2274:0.047317546 2275:0.67584819 2276:0.6708529 2281:0.52872044 2287:0.68585628 2288:0.11301246 2293:0.58850998 2296:1.1851032 2297:0.54389864 2299:1.3428017 2301:0.88528794 2305:0.5714559 2306:0.071460716 2307:0.31639728 2308:1.5447023 2309:0.80358261 2310:2.4069049 2312:0.11798894 2313:0.21068622 2316:1.5909369 2317:0.5072692 2318:1.7265048 2322:0.11720613 2328:0.11294325 2330:0.79392803 2333:0.18246458 2334:0.43263763 2337:0.54199356 2338:1.6601734 2339:0.37903488 2340:1.8788217 2343:1.2020375 2345:3.8518252 2346:0.29813737 2348:2.7613649 2349:1.8727112 2350:0.12480336 2352:2.4234879 2353:0.6175915 2356:0.092622928 2359:0.41745993 2363:0.50778967 2364:0.5261696 2366:3.7810888 2368:1.1396677 2370:0.10584997 2371:1.4326041 2372:2.6640675 2373:0.65853846 2374:0.067234963 2376:0.3297829 2377:3.6198215 2381:0.77305603 2383:0.52889758 2384:4.7704082 2385:1.0327342 2386:0.26909456 2387:1.5719535 2388:0.73040497 2390:0.18374947 2391:0.1523025 2395:3.1715367 2396:0.27946874 2398:3.8337989 2400:0.75079352 2401:0.28719667 2403:1.2830721 2407:0.30679899 2410:0.031359825 2413:1.2392389 2414:0.26488775 2415:0.54676908 2418:0.24829081 2424:3.2164633 2427:1.8067781 2430:4.2091203 2433:1.8285365 2434:0.26752704 2438:0.40952888 2439:2.398478 2445:0.64874655 2449:2.9077966 2452:0.40995035 2453:1.1253773 2454:2.2375247 2463:0.45433298 2464:0.84174573 2466:2.4208083 2469:1.2629006 2470:1.9696164 2471:3.2461498 2472:2.5040531 2475:1.1820154 2479:2.4379969 2481:0.37611541 2483:0.31510845 2484:0.02861366 2487:0.8512013 2488:1.1195025 2489:0.8802886 2491:1.5072901 2492:2.2972622 2493:0.71951407 2498:1.7337769 2501:1.2011244 2502:2.5350559 2504:0.35187417 2505:0.668962 2506:0.0098472387 2508:0.48227343 2509:0.68403065 2510:2.3328407 2511:3.70976 2512:5.5381851 2514:2.0859754 2520:1.0408834 2522:1.0882055 2523:2.0174215 2525:2.4988124 2526:0.15401047 2527:2.2446537 2528:1.6734043 2529:0.46881869 2530:0.722709 2532:3.8398943 2534:0.37417752 2537:1.6671276 2539:7.338666 2540:0.78455442 2541:1.9973079 2542:1.7304507 2543:1.8787451 2544:0.55414128 2545:3.9365239 2547:0.73520327 2550:0.67864925 2551:0.89164531 2554:1.7436596 2556:2.1540136 2559:0.080714375 2560:1.9346759 2562:0.39313856 2563:1.1251743 2564:2.6546872 2565:1.2208149 2567:0.8357836 2568:0.17816579 2569:1.3978746 2572:0.39080909 2574:1.7828102 2580:2.3637307 2582:0.037299357 2583:1.8364646 2584:0.14730655 2586:0.23511909 2589:3.2053068 2590:0.52466953 2591:3.3694911 2592:1.3780912 2593:3.1426618 2594:2.6465342 2595:3.9912138 2597:4.3236213 2599:1.4974751 2601:1.402439 2606:0.38862664 2610:3.9670835 2611:2.3067789 2614:2.377284 2615:0.45133844 2616:2.1197503 2620:1.2498507 2622:1.1658185 2623:0.15891308 2626:0.45979989 2630:0.84081864 2632:0.46340454 2635:1.4606478 2636:2.1347864 2639:1.708998 2640:0.81397957 2641:1.8487855 2645:0.52766812 2646:1.3942502 2647:2.0081005 2648:2.9800677 2649:0.14584762 2655:0.14312685 2658:0.53235352 2660:0.044781655 2661:0.18516776 2662:0.60211587 2663:1.1474688 2665:2.4196985 2668:0.5058735 2670:0.58533734 2671:1.6921513 2672:2.7541654 2673:0.66262829 2674:2.2878835 2675:1.0798503 2677:0.81289101 2678:1.1303835 2680:1.8673987 2682:2.1757517 2683:0.42529574 2687:0.6601088 2688:0.70372814 2689:0.055748712 2690:1.9440901 2695:1.7796299 2696:1.7670182 2698:1.6330252 2700:2.8566377 2701:1.102524 2702:1.3545377 2705:1.6088006 2708:0.30408755 2713:1.4399543 2715:2.5260627 2718:0.95766747 2719:0.9661752 2721:4.638206 2723:1.3517277 2727:0.43814301 2728:1.0426052 2729:1.3968459 2730:0.84755367 2732:2.1597688 2735:4.9108448 2736:4.7571487 2737:0.61536223 2738:1.0013417 2741:0.39880401 2745:1.3197297 2748:4.0356426 2751:1.095189 2752:0.60952568 2753:1.751888 2754:2.5503626 2756:2.021246 2758:3.5998247 2759:4.2928829 2760:0.53348535 2763:1.4859108 2766:1.855759 2767:3.1223462 2771:1.2968328 2772:0.64789164 2775:0.85535383 2776:1.3814455 2781:1.449689 2784:0.93337995 2785:0.16102535 2788:0.90385854 2792:1.0843662 2793:1.5972294 2797:0.18349093 2798:2.2251122 2802:2.6930223 2803:1.1533782 2804:0.43616095 2805:0.99833667 2806:0.80153728 2807:0.22056086 2813:1.3035885 2815:0.077867776 2820:0.31482333 2823:2.0528412 2824:0.83440369 2825:1.3441709 2828:0.098916613 2829:0.74356264 2830:2.2418747 2831:0.30788678 2834:3.0681655 2835:0.28402638 2837:0.3231521 2841:0.96294862 2842:3.7044344 2847:1.5053651 2849:3.554112 2852:0.2406594 2854:1.4493606 2859:0.43729612 2860:0.60685205 2862:1.1795515 2863:0.37401798 2865:1.3367727 2867:0.43552735 2869:1.3621814 2874:0.529809 2877:0.69893205 2878:0.12170815 2879:1.333665 2880:2.3231268 2881:0.064851373 2882:0.88170284 2883:0.14332961 2884:0.21919945 2891:0.78010827 2896:1.3891416 2899:0.40332106 2900:2.7818394 2903:0.73061877 2904:1.2922119 2905:0.680691 2907:0.58785665 2909:0.24377143 2911:1.9559026 2912:0.44747117 2914:1.1774781 2915:0.4687407 2916:1.1450022 2918:0.79252625 2920:0.34781 2921:1.8265866 2923:0.46039093 2926:0.77982414 2927:2.1493378 2928:1.6397686 2930:1.0308301 2931:2.3286316 2932:1.5800389 2933:2.7484086 2936:1.2915881 2943:0.63955712 2944:1.7774765 2949:1.8163625 2951:2.5816088 2952:1.0945426 2953:1.8578384 2957:0.15260433 2959:0.47009161 2961:0.7197113 2962:0.27247277 2964:3.8262298 2967:3.0500731 2971:0.01316539 2973:0.050785661 2977:3.3577588 2978:1.3700453 2979:3.1452456 2981:1.0415884 2982:0.81619763 2983:1.2820357 2986:0.99991077 2987:5.0114875 2996:0.76637477 2999:2.7979884 3000:0.49032259 3003:0.68400013 3005:0.92203879 3007:2.4586029 3008:0.39203584 3009:1.5069362 3010:0.88818341 3012:0.52605927 3013:0.35192409 3014:0.14480373 3015:4.0527287 3017:0.13574496 3020:2.3264446 3026:4.2784004 3029:4.0190029 3033:2.5300791 3035:1.1179535 3036:2.9824419 3037:0.98607183 3038:0.91535068 3040:0.69478834 3047:0.37119147 3049:0.041700415 3050:2.88641 3051:0.74485552 3053:5.5544262 3054:3.5474546 3055:0.3159464 3057:2.7464354 3059:1.7908496 3063:3.6451492 3064:0.33336973 3065:1.8167595 3068:1.2893775 3072:0.4670611 3073:2.0892637 3074:3.4588161 3075:0.5653016 3077:2.0681043 3080:2.5721977 3081:1.7023588 3082:1.1453902 3086:0.93088263 3088:2.5088692 3090:2.8473949 3091:0.11102118 3093:1.8926003 3094:1.4796798 3102:2.2287798 3103:3.4530418 3112:0.88175422 3118:1.3182487 3120:3.4127119 3126:1.9030339 3128:0.52363014 3129:1.3732247 3131:2.5663695 3132:4.4284887 3135:0.1937905 3137:2.3435755 3141:1.2369372 3142:1.2736981 3144:0.88263404 3146:2.582756 3147:1.9537596 3148:1.0796371 3150:2.9319177 3151:1.1442732 3153:0.92552984 3154:3.7043052 3155:1.7448574 3157:2.4190893 3158:4.0357127 3159:0.50677443 3160:1.8403124 3162:2.9840949 3163:3.9384601 3164:0.032162413 3165:1.0049837 3167:2.8873734 3169:1.5390975 3171:0.16301298 3174:0.061710477 3179:0.39662156 3180:2.7083364 3181:0.26359296 3184:1.8657424 3185:1.5123287 3186:0.3142145 3188:5.5353446 3189:4.1616592 3192:2.096493 3193:1.2878222 3195:1.3576555 3197:2.6186192 3201:0.80309492 3203:1.9155777 3205:0.55711114 3206:2.5524609 3207:0.5789631 3212:0.047233649 3213:2.5381937 3215:1.0969229 3220:2.9335351 3223:0.13107105 3225:0.1227627 3228:1.9859644 3229:2.8859031 3235:3.2158003 3236:2.565109 3237:2.5133967 3239:0.61594248 3240:2.5194633 3241:0.85415673 3242:0.62497306 3249:0.64448446 3250:0.63353336 3252:1.6787519 3254:0.92142302 3257:0.73896998 3258:1.4500853 3265:0.61951512 3268:1.2227792 3269:0.39847577 3271:4.5429683 3272:0.94490498 3273:1.7590408 3275:0.16376314 3279:2.6847124 3281:0.86037576 3282:0.9671666 3283:2.493392 3285:2.3057926 3286:1.8318397 3287:1.628073 3288:0.7534911 3289:0.3794091 3292:0.17406613 3297:0.34244391 3298:1.670252 3300:0.32375625 3301:1.2674395 3303:0.88769197 3307:1.6451565 3308:1.1102201 3311:0.80706817 3315:0.62258476 3321:4.6893191 3322:0.81155115 3324:1.4348452 3325:1.3858378 3326:2.8381491 3327:1.1024278 3330:3.5387859 3333:0.52384847 3334:0.49796903 3335:1.1511791 3336:0.0015391028 3337:1.9393152 3339:1.5194826 3342:3.3249822 3343:1.4157033 3344:2.4374139 3345:1.566604 3346:0.082022719 3347:0.86790967 3350:1.3220361 3353:2.3933754 3355:0.79619718 3357:2.0277996 3358:0.77160269 3359:2.9758401 3361:0.28983524 3366:3.4449425 3367:1.8356048 3373:3.7875643 3376:1.4886855 3379:0.59884948 3382:2.2010076 3385:1.2013242 3386:1.2116151 3388:0.22126371 3390:4.0137234 3391:0.27187067 3393:1.4386737 3397:0.15396963 3398:0.017399769 3400:1.9115498 3401:1.738781 3402:1.4291242 3404:0.37623721 3409:2.3700378 3410:1.0833145 3412:0.50398076 3413:0.73742408 3417:1.0571938 3421:3.1455743 3424:1.1031271 3425:2.1032913 3426:0.27994573 3429:0.31400749 3430:5.1367226 3431:1.3758783 3432:1.5742649 3433:2.0403507 3434:2.7365582 3435:1.0027124 3438:0.41381693 3439:1.5508503 3442:0.83572459 3443:0.95112973 3445:5.0134702 3446:1.5336264 3447:0.65427703 3448:1.78624 3449:1.7831199 3450:1.6321419 3451:0.013823212 3452:0.32865417 3453:1.4897318 3454:1.1561114 3457:1.1315101 3459:0.32701504 3463:0.16456921 3468:2.2298822 3469:0.3910093 3471:1.5319943 3472:2.753932 3473:0.36232352 3474:1.5345644 3476:1.9888625 3478:2.7289407 3481:2.5312531 3484:3.1232152 3485:0.95529974 3489:1.7390763 3494:2.024291 3495:0.28464589 3496:2.9331427 3497:2.7164106 3498:0.093228534 3503:1.7641588 3506:0.74889672 3508:0.25032568 3509:1.6521138 3510:0.34839588 3513:0.93431073 3514:1.1470442 3515:0.025872547 3517:0.059071422 3518:1.1583147 3520:1.0292501 3521:4.6220355 3522:0.64285326 3524:1.0768839 3525:2.8898399 3526:2.8416884 3527:0.84165394 3528:1.0889299 3529:0.8056891 3530:0.81122369 3531:0.57105267 3534:1.8249961 3535:0.84303206 3538:0.26328197 3541:0.20096424 3542:0.77700531 3543:3.0096502 3545:5.1489615 3546:1.2716033 3548:1.061404 3549:0.18907268 3552:1.3406426 3560:1.0923989 3562:0.55367178 3566:1.9766918 3569:2.2309723 3571:0.32341939 3574:3.1636736 3575:2.9071732 3577:0.70224029 3579:0.16826896 3580:1.1893698 3581:1.8942447 3584:2.1786079 3585:1.2001776 3586:2.161335 3588:2.012641 3589:0.61002839 3590:2.2600787 3591:2.306401 3592:1.2852832 3595:0.31818584 3596:0.31979689 3598:0.61120564 3599:0.84270447 3603:0.93752217 3604:1.7081728 3607:0.23601644 3609:0.47937566 3611:0.012987853 3613:0.47670648 3614:1.2643851 3615:2.6232946 3616:0.9217723 3617:2.3104098 3618:1.679732 3621:0.27354634 3622:1.3650626 3630:1.1475544 3632:2.2208414 3634:0.48801702 3636:4.4149537 3638:0.25551102 3640:0.6890766 3641:1.2188065 3646:3.1563957 3647:0.099636018 3651:0.8785727 3652:0.97594279 3653:0.69786882 3655:0.061031751 3656:1.8160087 3657:1.5964094 3658:4.6315341 3660:0.89392 3661:1.6620806 3663:0.23057221 3665:2.2145314 3671:5.3073578 3672:2.0729916 3673:0.6221171 3675:0.31062132 3677:2.3424642 3678:0.25007862 3680:1.8515362 3682:0.072044037 3684:1.3640652 3685:0.96430916 3686:1.6468201 3687:2.0833309 3690:0.25454894 3692:1.3509609 3694:4.6126471 3698:1.0632153 3701:3.150928 3704:0.18479261 3707:0.18184972 3710:1.5270061 3711:2.4647629 3712:2.3560143 3713:3.4816656 3714:2.0838335 3716:2.5194714 3717:0.43228477 3718:3.1739531 3719:3.0539074 3724:3.1377585 3725:1.9243053 3726:0.50470912 3728:0.25723857 3729:0.67621762 3730:0.48638269 3735:0.35023826 3736:1.1050603 3738:2.0900285 3741:0.98870605 3744:2.8460021 3746:0.79426032 3753:2.147229 3755:0.85261989 3756:1.0013365 3758:1.908161 3759:0.2834692 3760:0.37127039 3761:0.28072569 3765:3.1632142 3768:1.489482 3769:1.5467193 3770:0.91827351 3771:1.3382113 3772:2.2750578 3777:3.5463276 3778:2.4190624 3779:0.62280691 3781:0.26686245 3784:2.2575161 3785:0.44287679 3787:0.68183208 3788:0.53159773 3792:2.0757468 3793:0.9602192 3794:0.26682726 3795:0.51043487 3797:0.23840415 3799:0.96690792 3801:1.2309139 3807:0.032940969 3808:1.7628493 3809:3.493722 3810:0.69129938 3811:1.904101 3813:0.034391001 3815:2.035573 3820:0.28885734 3826:4.0687785 3827:0.49387607 3828:2.2755058 3829:2.6681557 3830:1.5407182 3833:1.8991876 3834:0.29522419 3835:2.0529344 3843:1.9094691 3844:4.513422 3845:0.2428339 3847:0.27613631 3848:0.94986248 3850:1.8341216 3851:1.1977091 3853:3.5447688 3856:1.234401 3859:0.52223587 3862:0.94565874 3863:0.33270007 3865:2.6005347 3866:3.6383269 3868:1.9495113 3870:2.8098264 3873:1.3838094 3877:5.084516 3879:3.3660223 3880:0.52794266 3881:0.63090265 3884:1.7141269 3885:0.62189275 3888:0.16653241 3891:0.5462392 3893:4.0624499 3896:1.6402241 3898:4.0397301 3899:1.0553551 3903:1.7355466 3906:0.56710351 3908:0.54211116 3909:1.6557629 3910:1.4662073 3911:0.3953909 3912:1.9288669 3913:7.3396726 3914:1.2785217 3915:0.29923058 3917:1.8185608 3921:0.11346655 3922:1.2359266 3924:0.10692064 3929:0.11899445 3933:0.42433763 3936:0.7489388 3938:0.30551681 3939:0.50192213 3942:1.1029425 3943:1.2688853 3946:0.20642522 3947:0.89078343 3948:0.37234956 3951:1.5485005 3952:3.4831755 3954:0.10811651 3958:1.0848943 3960:0.85876095 3965:2.0870938 3968:5.1378417 3969:7.6188712 3970:1.2009877 3973:0.89943367 3976:0.73297495 3977:1.1816404 3978:1.3495891 3980:0.59170324 3983:1.1537832 3989:2.8372824 3992:0.0037271157 3994:1.2856584 3996:0.49498996 3997:1.7199029 3998:0.8531338 3999:0.70277107 4000:1.0111381 4001:0.7735334 4002:2.8647821 4004:0.95439607 4005:0.67521501 4007:0.22065628 4009:1.0188892 4010:0.17575374 4013:0.37411281 4014:2.4673157 4016:1.031744 4017:0.40864891 4019:0.86934125 4021:0.032004274 4022:1.2058139 4024:0.46097553 4025:0.70237345 4026:4.1613398 4027:0.016056377 4028:5.8609672 4030:0.84702837 4031:0.96071845 4038:3.3030412 4039:1.0335966 4040:2.9101052 4043:2.8306637 4045:2.0849509 4047:0.035040379 4048:1.7139443 4050:0.84920442 4053:1.6471293 4057:0.50767177 4058:1.6817727 4061:1.2393585 4066:1.9516361 4071:0.34511387 4072:2.6004362 4073:1.9696754 4075:2.553266 4077:0.7900629 4078:0.44557944 4080:3.3652303 4081:0.39563397 4084:1.0983951 4085:0.84528345 4086:0.16559716 4087:1.6534472 4088:0.17044014 4089:0.23600781 4090:2.5656884 4094:5.3951359 4096:1.9484056 
0.06437027486831863 4:4.5898519 6:1.5087302 8:1.3005937 10:2.6257553 13:3.7036154 15:1.5839061 16:1.4413958 18:1.2578367 20:2.5304964 22:2.5687463 23:0.24975622 26:1.6234148 31:0.20208427 32:1.3295258 33:1.5870041 34:1.9850998 35:0.28588715 39:0.82240462 40:0.8444584 41:2.8896382 46:4.9193201 47:1.2704219 48:0.91775441 51:2.0100775 53:3.1049621 58:1.288017 62:1.9537344 63:0.080645606 64:0.31801867 65:0.12432334 66:0.14351551 68:0.50787991 71:1.9256651 72:1.9019734 73:1.9722929 74:0.79815799 75:2.451746 76:0.26264149 77:1.5729949 81:0.26352191 84:0.95314205 85:1.057155 86:1.7110771 89:2.0568473 92:1.8497458 93:5.6295424 96:0.63616759 99:2.5898056 100:0.89116383 102:0.62781525 104:1.2335311 107:4.6554484 109:5.7060304 111:0.7187562 112:2.2457407 114:7.1708593 115:0.25742418 116:4.0961747 117:4.6431856 120:1.7895821 121:2.0935423 123:2.6032364 126:1.6262057 128:2.2046635 136:1.6614399 137:1.3037024 143:0.98352265 144:2.7889855 145:0.50852191 148:0.4687272 149:4.5249052 157:0.97143757 160:1.3446269 164:0.934003 169:0.34967539 178:1.7779602 179:4.150661 182:0.6632427 185:4.8492322 188:0.13820156 192:2.007154 195:1.5356289 196:0.39760467 197:2.0221822 198:0.49239227 202:5.1462703 204:2.3088801 207:0.63878667 208:0.62204742 210:4.5738497 211:5.5978107 212:3.4069321 213:1.9085692 214:0.096848302 215:1.4708756 217:3.4962585 218:1.5062766 220:4.0017414 222:0.1124016 225:0.30191997 226:0.027226619 227:0.2339931 228:2.4940619 230:1.539477 231:1.1260478 232:0.13599411 234:2.3273892 235:1.7051973 236:0.14406367 239:0.46159646 240:0.68400496 243:2.2370653 244:0.37661082 248:0.95638317 250:1.8586023 258:3.3018 259:1.3333417 260:1.6464103 266:0.49904725 267:0.26287016 268:2.2776062 269:1.8912206 270:0.11777253 277:7.3436422 279:1.0101265 280:0.72846472 281:1.35234 282:0.85428339 284:0.17685364 286:0.086879745 287:5.7908564 288:1.3775839 289:0.30052722 290:1.1204662 291:1.5818425 294:0.081664532 296:0.50476348 299:2.3820934 302:1.3345367 305:0.69491607 306:0.42296618 308:1.9105587 309:2.7264466 310:3.4257972 314:0.38395321 315:2.4515278 316:2.2448905 323:1.9099262 326:1.9392415 330:1.5232667 331:0.26456591 332:0.015686279 334:0.45440811 335:1.6532807 339:0.7859531 341:2.5244691 342:1.1449139 343:2.2743621 345:5.2797809 347:0.032184277 348:1.9055978 349:1.0834497 352:1.1170588 353:0.96585602 355:1.7315409 356:1.1954134 358:2.2058623 359:0.25314707 360:0.22234671 365:2.2026434 366:0.10958677 369:0.39086249 373:0.21577857 374:0.73640239 375:1.3154708 376:0.22418837 377:0.59976339 378:3.3109725 379:0.65209752 380:0.47757038 383:1.3477408 384:2.3516386 387:0.0036274903 388:1.2935133 390:3.6642907 392:3.2353859 393:0.85017878 396:2.362695 401:0.8957454 402:1.2721953 405:0.90278143 406:1.1917061 407:0.19193195 410:1.6701013 411:0.72791177 412:1.8376204 413:0.080852084 420:0.44674423 421:1.2083617 422:0.79587185 424:0.18465288 425:2.2102611 426:0.68976623 427:1.0460869 428:2.0403967 430:1.1134162 431:1.4491601 432:1.4192338 434:2.2231939 441:0.53533572 442:0.35842833 443:4.1233702 446:0.10401043 447:1.4097291 448:0.1568031 449:2.0691347 450:5.0512719 456:0.4599407 463:1.1326413 464:0.80837965 465:0.88052142 468:1.6830777 469:0.2770226 475:0.89902133 477:1.533277 478:2.0295959 482:0.78838897 484:0.72603726 486:1.511142 487:0.2794714 490:1.550897 491:1.2552042 492:0.96801466 493:1.4851314 495:0.67351961 498:0.028615424 500:0.97224241 504:1.7062632 505:3.3843541 506:0.97194803 510:0.76725203 513:6.7834773 516:0.067076162 517:1.3469291 519:2.0558536 521:0.97861421 522:0.7693482 523:3.3573916 524:2.8840554 525:2.4661222 526:0.45099363 527:0.76630604 529:0.58988076 530:1.0879018 535:3.800693 536:1.3299832 537:2.4592838 538:0.1430196 539:2.8504071 541:1.9154159 544:3.3491285 546:2.5492096 547:0.32185608 548:0.2424629 550:0.13441661 551:0.033373132 552:3.9355278 554:0.72145259 557:0.29759777 565:0.1218456 566:0.64361209 568:2.886364 569:1.3594835 572:0.29895502 573:1.9851415 575:0.71021295 577:1.7756692 580:1.127346 584:0.37322435 587:1.6232991 588:0.96246809 589:0.83517307 590:0.040319078 593:2.8005674 595:0.012632849 597:0.38117453 598:3.489408 601:0.7246775 603:1.7974095 604:2.3161938 606:4.0965433 607:1.8230938 610:0.80331051 611:4.3040371 613:3.6325188 614:1.540182 615:1.5007976 622:2.9880519 625:0.60550004 626:0.90920287 627:1.8408507 632:0.54755765 633:0.77859563 635:1.4106044 636:0.87316895 637:2.6219923 639:5.4224629 640:0.16498393 644:1.9179778 645:0.77265292 646:1.7761949 647:1.6867431 650:0.78470773 651:4.5257907 653:0.05823946 654:3.2751207 655:1.7863662 658:3.197407 660:0.94529372 664:4.1268806 666:0.75960386 670:2.9327281 671:0.79740185 672:0.47143748 673:4.2038722 675:0.77237272 676:1.3157617 681:0.13336007 683:5.3579893 685:1.1819777 686:2.7683408 688:1.4150767 689:1.6288048 690:0.51265401 691:0.24350336 693:2.06113 694:0.33047247 698:0.85649687 699:1.3589915 702:1.314262 707:1.2346591 708:0.19693443 712:1.9209281 713:2.8044376 714:1.9111646 715:0.26616028 718:2.9079533 719:1.1404173 720:0.57353926 723:2.3538632 725:3.0898247 732:0.098537482 736:0.046684831 737:1.8345462 739:3.0443668 740:0.2964102 741:0.08597818 742:2.9516587 747:1.0696448 750:0.73689371 751:1.0782174 752:1.9915395 753:0.17401679 754:0.96630645 759:3.0922122 761:0.77527434 762:1.0512369 763:0.71647578 764:3.432832 765:3.0630877 767:0.57576811 768:1.9153538 769:5.1707873 773:0.48434126 774:0.39316475 778:0.23017199 781:0.36407578 783:1.3192155 786:2.2762253 788:0.47363955 789:1.1129559 790:1.6842341 792:2.5556574 793:1.7438591 795:2.3029041 796:0.87053674 799:1.0313858 801:2.4673002 803:3.502677 804:5.1113744 806:1.4360385 807:1.045763 809:2.9638495 811:0.41626504 812:0.2001642 814:4.4644742 815:1.0553899 820:1.279953 825:1.0610918 827:1.4112362 828:2.9050901 830:1.4260931 834:2.6668041 835:0.84871584 838:2.6058557 839:0.3776181 840:3.302254 843:1.9722234 846:0.20213827 847:2.1246588 854:2.0300565 855:0.78502047 856:2.1393447 861:0.15823174 865:1.4042377 866:0.50889969 867:0.21352731 868:3.4062688 869:0.4684546 870:3.5480518 872:0.34453344 877:1.693905 878:0.69325167 879:1.3387047 881:2.3974667 883:0.58877301 884:2.1742947 885:1.0916498 889:0.80214214 890:0.56405014 895:1.148038 897:0.09673056 898:1.3470625 899:2.741863 901:1.9133871 903:0.11829775 904:0.18847767 905:7.3577704 906:0.16287167 908:1.6009784 910:1.509725 911:1.1548232 916:4.3298674 917:0.12715432 918:1.9072071 919:0.30882004 920:1.0389923 922:2.1611226 924:2.251204 927:3.6022189 928:1.3641189 930:3.99651 936:0.6861375 937:3.958972 939:3.4596319 940:0.57420361 942:2.0216675 944:0.43484658 945:2.9522476 946:0.26871589 949:0.41399005 950:1.5461609 952:4.160913 953:0.85372776 958:5.0968895 959:1.6634101 961:1.6667104 963:0.62931633 969:1.1443808 976:1.2606285 977:0.33725467 980:1.1382407 981:2.5283687 983:1.1016339 984:0.57240319 986:2.7627645 987:1.6806993 988:4.9455652 989:3.4267423 991:6.5003171 993:1.2878129 994:3.643856 999:3.4971428 1000:1.1344635 1001:0.1796747 1004:0.48004097 1007:0.56306005 1009:2.832675 1011:0.79545456 1013:0.86254257 1014:1.4363276 1015:0.055201635 1016:2.9276276 1017:0.32611313 1022:1.610805 1025:5.8267117 1028:0.18148777 1032:0.1562892 1034:3.3183858 1036:0.42921692 1038:0.3853603 1042:0.24292825 1045:5.3558636 1046:0.3559463 1048:1.1519154 1053:2.5718896 1054:1.9932061 1055:0.32660183 1057:0.027149571 1058:1.3933326 1063:2.6049554 1065:3.7602377 1069:0.5305385 1070:2.292784 1071:5.8166919 1075:5.0512271 1076:2.2322836 1077:1.636336 1079:6.0987711 1080:2.2658234 1082:2.6254597 1083:1.8822602 1084:0.50231677 1085:0.86034501 1088:1.542866 1089:1.5927392 1090:1.5987395 1091:2.5999923 1092:0.72365558 1094:1.3717071 1096:1.0540636 1097:2.5243638 1098:3.3862984 1099:0.65322036 1105:1.0653504 1106:0.31076875 1107:0.16288707 1108:4.1394582 1110:0.60475487 1111:2.7642698 1115:0.12005243 1116:2.3526778 1117:0.43740222 1118:4.8529773 1119:0.64354414 1120:2.1769724 1122:1.4368935 1126:0.59601796 1128:2.2995548 1129:1.7900856 1130:0.16607326 1132:0.084018253 1133:0.18561585 1134:3.2379589 1136:3.1329532 1139:2.9778557 1140:4.8943272 1144:0.070726827 1145:4.1713772 1146:0.57628709 1147:1.6659384 1149:2.7696409 1151:0.052729025 1153:0.0067233201 1154:0.69066119 1155:2.617156 1156:2.3864958 1158:1.2155552 1160:3.6053078 1162:2.9838979 1166:1.3234098 1167:1.1136518 1172:1.1501235 1174:0.47151676 1175:5.0348663 1178:1.6534843 1181:1.7586114 1187:5.0425024 1190:3.0899343 1193:1.2449052 1195:0.23714653 1197:1.4657718 1198:2.6779914 1200:1.3727261 1201:1.5100927 1204:2.0251782 1205:5.0981808 1209:3.5823879 1211:0.034876134 1213:1.4406033 1214:3.4473798 1215:1.0580423 1219:0.49728665 1220:4.5979185 1221:1.0568093 1224:1.4913745 1225:3.4177196 1226:0.00023413263 1234:1.4302536 1235:0.71372229 1242:0.022300322 1243:1.889717 1245:5.480794 1248:2.1986377 1251:2.6375906 1254:1.029294 1255:2.2848253 1256:0.18072787 1260:1.4050885 1261:4.9977393 1262:0.37320858 1263:2.8005576 1264:0.39298832 1265:3.5534437 1266:1.295857 1267:2.4809675 1268:1.0331031 1271:0.52733123 1278:3.8312526 1283:0.22646442 1285:0.82139319 1288:1.3051831 1290:1.7368627 1291:4.6964397 1294:0.40960518 1297:2.6248755 1298:1.8440554 1301:1.7475516 1307:1.4319638 1308:2.4605494 1310:2.5797696 1311:0.11447254 1312:0.32413498 1315:0.69959122 1316:2.0924671 1318:2.846664 1320:2.5403678 1322:0.80324811 1323:0.14638838 1326:0.85026938 1327:1.5766102 1328:1.2942003 1332:0.30514088 1337:0.73817593 1340:0.39150158 1341:1.8343897 1344:0.27922261 1345:3.8793004 1346:2.747494 1347:0.40024155 1348:1.7978247 1349:1.5176302 1350:3.3977354 1351:4.6162157 1352:2.3481402 1353:0.95967495 1355:0.58237994 1358:0.40963301 1362:0.60915154 1365:1.1191697 1369:1.7182109 1371:2.4653399 1376:0.44120985 1378:1.5556884 1380:1.4189274 1383:4.3232203 1384:4.7509804 1391:0.067376278 1396:2.173764 1397:2.5493987 1398:3.4458694 1399:2.615129 1400:1.2069285 1404:3.2347388 1406:1.9655092 1411:0.67308724 1412:2.5557919 1414:0.25717717 1415:0.36107039 1416:2.1224928 1417:1.5053145 1418:0.63942629 1420:0.013854232 1421:0.21712251 1425:0.17842247 1429:1.1287358 1430:0.94768649 1434:2.3999183 1435:2.5443528 1436:3.3924 1437:0.80232197 1439:1.7646087 1440:0.75512069 1441:5.1773152 1443:0.63364977 1448:1.2720273 1450:0.21347341 1451:3.6460407 1452:0.47167736 1455:3.0866485 1457:2.5029151 1458:3.8936911 1459:0.27806592 1460:0.92072237 1464:0.42867485 1468:2.1722145 1469:0.067762181 1470:0.54455 1471:1.9366411 1472:0.42565361 1475:2.0479801 1477:0.24777159 1478:1.1575793 1480:0.076358691 1482:2.7210507 1483:0.012724116 1484:3.1977644 1486:1.1122921 1488:0.41725639 1490:0.62105525 1491:0.73855656 1494:0.86114258 1495:3.4455404 1496:0.81708074 1497:1.8168676 1500:0.011277577 1507:0.77440071 1509:2.8893642 1510:2.0681903 1513:0.22807601 1517:0.95734662 1521:1.3660833 1522:1.0178407 1523:1.0128314 1524:0.60680926 1525:3.1133511 1527:1.2896433 1528:1.0134819 1531:0.23678192 1532:0.99622226 1533:0.14836034 1534:0.73058558 1535:3.5859902 1537:1.6286045 1538:1.6260349 1539:2.8344581 1541:2.7207255 1543:0.6940006 1544:1.7166618 1545:0.27796775 1547:2.892287 1549:0.7924422 1552:3.6713119 1553:0.66604191 1554:2.2454953 1557:0.47290847 1559:3.365706 1560:1.4073126 1561:0.10870884 1562:0.99199361 1563:1.9663934 1567:2.4460547 1568:2.7108533 1569:0.69255596 1572:0.77012932 1575:0.70266545 1580:3.0766225 1581:0.11235842 1583:4.3809085 1584:1.3422282 1586:0.22582775 1588:0.76513535 1589:0.80620366 1590:0.30556357 1594:1.0106721 1596:1.306761 1599:2.4916923 1604:2.9219713 1605:0.60889077 1608:1.4532791 1610:2.4440417 1614:3.3274117 1615:0.23773187 1616:2.1369872 1618:4.3382258 1619:0.83616215 1621:0.53402144 1622:1.4293052 1623:2.0683627 1624:2.4716799 1628:1.9014182 1629:0.016404333 1631:2.1377952 1633:0.17945626 1636:0.33765146 1637:0.017654164 1638:1.5531335 1639:0.069759421 1640:2.502378 1642:2.8979056 1644:0.14144066 1646:2.3433762 1648:0.68002903 1649:0.36090401 1653:1.9059471 1654:0.49456429 1657:1.5782604 1659:2.2723696 1661:2.1631572 1663:1.867606 1664:0.28823361 1665:1.0007718 1666:0.026743058 1672:1.9897195 1675:0.94108963 1678:0.40469897 1680:3.0627956 1683:2.3530352 1685:2.2407625 1687:0.84635776 1689:0.46456364 1693:2.1825874 1695:1.632105 1696:1.2449158 1698:3.9064534 1700:0.23296398 1701:1.3761461 1702:3.1908622 1704:1.8837303 1706:0.7840066 1710:0.73568273 1711:2.5330648 1712:0.71486521 1715:0.55351973 1719:0.12127409 1725:1.5292042 1726:0.098960578 1727:0.8538937 1730:1.6142576 1732:2.535743 1734:0.58878386 1738:0.49531969 1739:2.7500484 1742:1.705099 1743:1.3805912 1744:2.8342028 1745:0.84248739 1746:1.689626 1747:0.1290044 1748:1.8000294 1753:0.087606952 1756:1.387598 1759:0.80629706 1764:3.1057107 1765:2.0446813 1767:0.20992036 1770:0.84590065 1772:2.2252481 1774:2.6966794 1776:0.68261349 1778:3.482146 1780:0.50036657 1781:0.34329021 1782:3.3791499 1784:1.3214228 1785:2.204237 1788:3.3183849 1789:0.7003687 1791:2.0885153 1792:1.3342092 1793:0.17674625 1795:0.092646711 1800:1.337544 1802:0.50657248 1807:0.52168065 1808:4.2723446 1809:0.5618726 1813:5.9729662 1814:2.0351007 1815:0.7119391 1816:1.0976688 1818:2.0429935 1822:0.58653396 1824:2.7378345 1826:0.10043608 1828:0.064658135 1829:0.83095014 1830:3.5158405 1834:0.22361387 1836:0.43277949 1837:1.2394758 1842:2.244132 1845:3.3628962 1850:3.3527837 1852:0.83770353 1853:1.053393 1857:1.8274674 1858:1.7486835 1859:0.010308512 1861:0.97888315 1863:0.50781178 1864:0.11124521 1866:1.1472465 1868:0.62658137 1870:2.483464 1872:0.74452597 1873:0.77665585 1874:2.082849 1876:2.4728818 1878:5.2336817 1879:0.80619204 1881:0.15089568 1882:1.9736513 1883:1.4493812 1886:1.0255952 1888:2.5124907 1889:1.2555176 1891:4.5783768 1892:0.18514727 1896:1.1600043 1897:2.5114946 1899:0.68473333 1901:0.32294181 1902:0.17082243 1905:0.72184086 1906:1.7428976 1907:2.4543805 1909:0.16327068 1911:3.3328865 1912:1.7461993 1915:2.6543622 1916:1.1933341 1918:1.1535815 1920:2.0427828 1922:0.61632603 1923:1.0593076 1928:0.54484624 1930:0.27857816 1931:0.18664046 1934:2.7444599 1937:2.4526451 1939:0.014321108 1941:2.3120613 1942:1.1934184 1944:2.232305 1945:0.97890484 1946:1.5681913 1947:0.15462048 1949:0.22399642 1950:0.22178037 1952:0.54958898 1953:0.97918546 1954:0.63309062 1956:2.0047419 1957:0.28878886 1960:0.020301307 1961:1.8919076 1962:0.52722204 1964:3.4742358 1965:0.24050571 1966:1.0811648 1967:5.9312968 1970:1.0937775 1971:2.3023119 1973:2.6140356 1974:0.15236522 1978:0.75215989 1979:2.9752994 1980:0.85027564 1981:4.4210887 1982:2.4746885 1984:1.7777401 1986:0.83312792 1989:0.32609248 1991:2.9410505 1992:3.8633003 1993:2.8141568 1996:1.2596157 1997:0.022746507 2001:3.44823 2003:0.04175669 2005:0.50113368 2006:0.65220726 2007:1.2374195 2012:1.1381462 2013:0.46943152 2015:0.79765272 2016:2.7199481 2017:1.8342903 2018:3.6806853 2021:0.53731072 2022:0.26745299 2023:2.5863359 2026:2.8919511 2028:2.920928 2030:1.6751322 2034:2.1215227 2037:0.6624012 2038:2.5758429 2039:1.2013009 2040:0.53783864 2041:0.074945152 2042:2.0820339 2045:0.3288438 2047:0.71906936 2050:1.3228381 2051:0.27393585 2053:3.377229 2057:3.1176097 2062:1.2612551 2063:0.024445884 2066:3.985961 2067:0.19066358 2069:3.8589585 2071:0.32402039 2072:1.5982499 2075:0.13284324 2077:0.61047584 2078:0.82372975 2083:3.0508883 2084:3.2060177 2085:0.92989969 2087:0.58070236 2089:0.91638768 2090:0.54858518 2091:0.43498385 2093:0.62670535 2094:0.70050853 2096:3.568428 2097:3.3659499 2098:0.87079126 2099:1.0249902 2100:2.031678 2101:0.21715942 2102:1.7347631 2103:1.4830562 2105:1.8646239 2106:2.2704899 2108:1.9034612 2109:0.20129937 2112:3.9582238 2116:2.7061586 2117:3.9845958 2119:0.95436561 2122:0.57461387 2123:1.0939009 2125:0.82995731 2128:1.9608389 2130:1.0802344 2131:0.9953143 2132:0.28404826 2138:3.5080674 2139:1.652056 2142:0.9154979 2145:0.5890348 2147:2.2769346 2149:4.1523275 2152:2.7025342 2154:4.4341006 2155:0.22123614 2156:5.8949361 2157:2.0406044 2158:0.37570241 2160:1.6330446 2162:1.9137284 2165:0.49376681 2170:0.030478291 2171:0.88339847 2172:1.2516363 2179:1.4132644 2181:0.030975558 2182:1.1431309 2183:1.5346276 2184:1.8410503 2192:0.78657746 2198:3.1578503 2201:0.32124028 2203:0.88799047 2204:1.5756651 2205:0.68823886 2206:0.77548671 2208:0.85426903 2209:0.60632676 2210:0.92479193 2211:1.0192283 2212:3.3549006 2215:0.1617471 2217:1.2337533 2220:0.40488854 2222:0.46619827 2223:1.1017305 2224:0.80166352 2228:1.6424669 2230:1.6998556 2231:0.32521525 2232:0.80884606 2233:0.38862497 2235:3.0415552 2239:0.81318313 2241:1.796123 2242:1.2124178 2244:2.9617424 2247:1.62271 2248:1.4171131 2250:0.042952899 2254:1.386021 2256:2.0029113 2259:1.7134486 2261:1.7612851 2263:1.1970439 2264:1.0174899 2265:4.6237216 2266:3.2362211 2268:1.2322224 2270:0.94858032 2271:1.8661597 2272:1.7869562 2273:0.11163875 2274:0.16428213 2275:1.379802 2276:0.51328075 2281:0.60735023 2287:1.7841527 2288:0.65138602 2292:0.14567755 2293:0.58774281 2296:1.0429759 2297:0.99341476 2299:1.2310934 2305:0.75213653 2306:0.20669118 2307:0.010529555 2308:1.3177998 2309:1.1134386 2310:3.142504 2311:0.30990946 2316:2.0279465 2317:0.75293553 2318:1.5284208 2322:0.64946347 2330:1.2181617 2333:0.17538403 2334:0.65622163 2337:0.75948626 2338:1.0773928 2339:0.21515182 2340:2.9355867 2343:1.5415416 2345:4.6882348 2346:0.7574206 2348:2.8467524 2349:2.1404815 2352:3.6347106 2353:0.59222746 2359:0.069697604 2363:0.3790465 2364:0.90729207 2366:3.7690272 2368:1.4921957 2370:0.62564284 2371:1.690037 2372:1.879074 2373:0.52758861 2374:0.25673965 2376:0.19699173 2377:4.175292 2379:0.17426556 2381:0.58016908 2383:0.085895576 2384:5.1832867 2385:0.78663594 2386:0.37507114 2387:1.9783061 2388:0.80011594 2390:0.80017924 2391:0.30237412 2395:2.9711986 2398:3.8531539 2400:1.4250281 2402:0.13930239 2403:1.2343992 2407:0.32170767 2410:0.24113779 2413:0.47253531 2424:3.5328643 2427:1.9767774 2430:4.8932667 2433:1.6430547 2434:0.21417533 2437:0.14955159 2439:2.5643544 2440:0.45341977 2445:0.66146797 2449:2.956718 2452:0.57534671 2453:1.2669446 2454:2.3561864 2460:0.068351947 2463:0.34752548 2464:0.42549336 2466:2.8264143 2469:0.99568963 2470:1.9454565 2471:3.8812387 2472:3.605351 2475:1.4160765 2479:2.8874717 2481:0.15146714 2483:0.91171366 2484:0.023558389 2487:1.3288332 2488:1.787876 2489:0.71426272 2491:2.1297572 2492:2.0030804 2493:1.2789515 2498:2.0286458 2501:2.3520885 2502:2.2384374 2504:0.74237126 2505:1.31946 2506:0.30914822 2508:0.38764217 2510:2.3861067 2511:4.3259778 2512:6.1205859 2514:2.5159538 2520:1.0437708 2522:1.5966223 2523:2.1461542 2525:2.5595338 2526:0.35192668 2527:2.724714 2528:0.45152056 2529:0.68006533 2530:1.1003313 2532:3.9560041 2534:0.34421441 2537:1.0200942 2538:0.26716754 2539:7.9831166 2540:0.22980005 2541:1.861232 2542:2.6446688 2543:1.8510131 2544:0.80889463 2545:4.9929276 2547:1.2369162 2550:0.59933293 2551:1.564443 2554:2.3245177 2556:2.9319878 2558:0.22423357 2559:0.28735858 2560:1.6702886 2563:1.4621577 2564:2.7374458 2565:1.1169139 2567:0.90974826 2569:1.3107636 2572:0.22817902 2574:1.924666 2580:2.4313049 2583:1.2386415 2584:0.47367367 2586:0.34602159 2589:3.7328541 2590:0.91775703 2591:3.445682 2592:1.8530993 2593:3.0848129 2594:2.4570391 2595:4.8955474 2597:4.6055293 2599:1.2076709 2601:1.7075889 2606:0.28411978 2610:4.1311517 2611:2.605926 2614:3.1039574 2615:0.1611304 2616:2.8373814 2620:0.88745564 2622:0.97734046 2623:0.058822028 2624:0.038429242 2626:0.87782896 2630:0.63019252 2632:0.34493747 2635:0.88386536 2636:2.2655544 2639:2.5009143 2640:1.3349375 2641:1.3595235 2645:1.0671388 2646:1.7098352 2647:2.33373 2648:4.3588901 2649:0.93459171 2655:0.14001432 2657:0.45619598 2658:0.14583299 2660:0.18223256 2661:0.67071456 2662:0.897439 2663:1.7375691 2665:2.0143576 2668:0.34510988 2670:1.1681942 2671:2.1873112 2672:3.325489 2673:0.0071400125 2674:2.5946765 2675:1.0457848 2677:1.1708362 2678:0.94441628 2680:1.770116 2682:2.5062594 2683:0.65241772 2687:0.092825226 2689:0.078180984 2690:2.4917002 2695:1.8139452 2696:2.1335878 2698:1.8494079 2700:3.3720744 2701:1.0481521 2702:1.4599521 2705:1.5913235 2708:0.38121146 2713:2.2586107 2715:3.3270404 2718:1.3386214 2719:0.91012895 2721:4.8689404 2723:1.2282375 2724:0.019666791 2727:0.44058317 2728:1.1528819 2729:0.95482951 2730:1.2890798 2732:2.1568642 2735:5.1206079 2736:4.9775691 2737:0.93121958 2738:0.71272796 2741:0.68592197 2745:1.0807642 2748:4.2482028 2750:0.16651319 2751:1.3207912 2752:0.7247858 2753:2.1848447 2754:3.1815941 2756:3.2247281 2758:5.3009758 2759:5.0499134 2760:0.58573735 2763:1.4145575 2766:1.9271777 2767:2.3370702 2770:0.14446522 2771:1.7242972 2772:0.63509387 2775:1.2787868 2776:1.0530475 2781:1.6698537 2784:1.2739667 2785:0.33703873 2788:0.90179753 2790:0.12170368 2792:1.1251816 2793:1.2643944 2798:2.289516 2802:3.0947232 2803:0.80741268 2804:0.28740501 2805:0.97446793 2806:1.1762631 2807:0.038170338 2813:0.80879188 2815:0.046146154 2820:0.67387617 2823:2.0364041 2824:0.75144023 2825:1.1417488 2828:0.5809539 2829:0.46399996 2830:3.0417426 2831:0.40764755 2834:3.1748459 2835:0.57495743 2837:1.3354006 2841:1.3568836 2842:4.0468335 2847:1.3348597 2849:3.6974797 2852:0.27384108 2854:1.7534602 2859:0.75058639 2860:0.57049632 2862:1.6941266 2863:0.68848139 2865:1.5133131 2867:0.46596789 2869:2.0208552 2874:0.24599235 2877:1.2498884 2879:2.0690081 2880:3.1067183 2882:0.97966164 2884:0.34426644 2885:0.069385663 2891:1.0496494 2896:1.2405819 2897:0.084981151 2899:0.14534429 2900:3.3849454 2903:0.92547351 2904:1.3687761 2905:1.2519267 2907:0.54265863 2909:0.79668307 2911:2.2662952 2912:0.056594875 2914:1.2670515 2915:0.46613264 2916:1.2643855 2918:0.48880506 2920:0.92930233 2921:1.8973812 2923:0.583161 2926:1.19636 2927:2.2964511 2928:1.5719897 2930:1.404442 2931:2.8000605 2932:2.1644387 2933:3.2729371 2936:1.1716939 2941:0.49839193 2943:1.4314489 2944:1.7834529 2949:1.9193141 2951:2.466743 2952:1.2521397 2953:2.4807005 2955:0.00044309953 2959:0.48994285 2961:0.69797492 2962:0.48442018 2964:3.7217624 2967:2.9379933 2971:0.20911412 2973:0.62489104 2977:3.1611731 2978:1.3850514 2979:3.4553189 2981:0.94995129 2982:1.0388864 2983:1.0792238 2986:0.57439405 2987:5.910244 2996:0.5589186 2998:0.42042831 2999:3.3876555 3000:0.43856624 3003:0.85122186 3005:1.4516497 3007:2.7535734 3008:0.31714019 3009:1.4257803 3010:1.1663069 3012:0.66272348 3013:0.23638846 3015:3.5255935 3017:0.55188429 3020:1.7006812 3026:4.8069105 3029:4.7357941 3033:2.6290395 3035:1.1434766 3036:3.0096421 3037:0.94721395 3038:1.5605921 3041:0.01793199 3043:0.12330159 3050:2.6799293 3051:0.83174717 3052:0.11569548 3053:5.9733076 3054:2.8140864 3057:2.7892413 3059:2.3064494 3063:4.9485407 3064:0.14128463 3065:2.2686865 3068:1.9748074 3072:0.14257717 3073:3.138612 3074:4.0403929 3075:0.46626094 3077:1.8860258 3080:2.6505733 3081:1.7689819 3082:0.63404143 3086:0.60859489 3088:2.6405275 3090:2.4072099 3091:0.52666175 3093:1.5042154 3094:1.777277 3102:2.6328039 3103:3.8467236 3107:0.20247725 3110:0.22239141 3112:0.9097563 3118:0.62473118 3120:3.8917835 3126:1.8465914 3129:2.6591768 3130:0.4473843 3131:2.6218088 3132:4.8934188 3135:0.16813694 3137:1.3362976 3141:1.0856782 3142:1.1810039 3144:1.3597155 3146:2.8888052 3147:1.7137773 3148:0.58068013 3150:3.4506829 3151:0.77641618 3153:0.73715043 3154:3.5405302 3155:2.2089884 3157:1.757906 3158:5.115715 3159:0.65467215 3160:2.1927769 3162:3.7148943 3163:4.7158742 3165:1.4883788 3167:3.6439641 3169:2.5168581 3171:0.4370577 3174:0.13254024 3177:0.046061575 3180:2.2563069 3181:0.07564576 3184:1.5825806 3185:2.7253761 3186:0.88313317 3188:6.5740919 3189:4.0624599 3192:2.0716159 3193:1.4241294 3195:1.1755954 3197:2.2494941 3201:1.6961579 3203:1.3829349 3205:0.52978003 3206:2.2455544 3207:0.76193857 3212:0.18156205 3213:3.1413279 3215:1.1995528 3220:3.7573202 3223:0.22787257 3225:0.6136359 3226:0.20774573 3228:1.9121621 3229:2.849293 3233:0.033499353 3235:4.8897367 3236:2.1007922 3237:2.4802866 3239:0.34584221 3240:3.3566964 3241:0.76109797 3242:1.5236683 3249:0.48539099 3250:0.66925097 3252:2.0252631 3254:1.0501878 3255:0.5324986 3257:0.32334164 3258:1.4750756 3265:0.5478949 3268:1.9064806 3269:0.37024653 3271:4.9811354 3272:1.6183124 3273:1.9827298 3274:0.17725477 3275:0.58733004 3279:3.0679998 3281:1.6613659 3282:0.83671129 3283:2.8787262 3285:2.8282568 3286:2.2366772 3287:1.3300223 3288:1.4775914 3292:0.27296317 3297:0.16797382 3298:1.446543 3300:0.050958335 3301:1.15578 3303:1.2758663 3306:0.38301629 3307:1.3200903 3308:0.85653347 3311:1.3789235 3315:0.2626462 3321:5.5982652 3322:0.95101094 3324:1.4785677 3325:2.0074065 3326:2.7949154 3327:1.1375868 3330:3.7408543 3331:0.039709952 3334:0.5587604 3335:1.8057703 3336:0.018933184 3337:2.0966103 3339:1.5135937 3342:4.1593404 3343:1.4714814 3344:3.1852553 3345:1.7357001 3347:0.78688681 3350:1.4778893 3353:2.7029347 3355:0.86165148 3357:1.9202338 3358:1.1005338 3359:3.2082613 3366:3.62923 3367:2.4312589 3373:4.1168828 3376:1.3329486 3379:1.1885978 3380:0.093516678 3382:1.9093809 3385:1.6739899 3386:1.4492503 3388:0.1821557 3390:4.2541132 3391:0.36914998 3393:1.7003671 3398:0.37089682 3400:1.2116885 3401:2.0624092 3402:1.1185896 3404:0.59359413 3409:2.9099987 3410:1.0269156 3412:0.90086448 3413:0.85078251 3416:0.42396513 3417:1.1512936 3421:3.4883196 3424:1.1599702 3425:2.584548 3429:0.41986158 3430:5.1232409 3431:0.14471807 3432:1.5507239 3433:2.1819851 3434:2.263813 3435:0.75866723 3438:0.62704933 3439:1.8681577 3442:1.0059266 3443:1.7212889 3445:5.0250673 3446:0.98101461 3447:0.19247809 3448:2.4611802 3449:2.0075119 3450:1.6946859 3452:0.085247174 3453:2.0979915 3454:1.4101613 3457:1.6867174 3463:0.71911484 3468:2.7028952 3469:0.33666873 3471:1.9409231 3472:3.3222017 3474:1.2708387 3476:2.7423546 3478:3.2801757 3480:0.14088091 3481:3.001003 3484:3.6204684 3485:1.1482097 3489:1.5429875 3494:2.7392983 3495:1.1897916 3496:3.4872594 3497:2.5376971 3498:0.4015311 3503:1.9339681 3506:0.91720176 3508:0.10304364 3509:1.6126847 3510:0.8972801 3513:1.1732352 3514:1.4202083 3515:0.01891895 3517:0.21327122 3518:1.0596987 3520:0.32077301 3521:5.1040611 3522:0.83343059 3524:1.3080575 3525:2.2212744 3526:2.8108339 3527:0.65800536 3528:0.98554069 3529:0.73767084 3530:1.3054118 3531:0.17491682 3534:1.5773481 3535:0.75826085 3538:1.131575 3541:1.0141455 3542:1.1922174 3543:2.6389878 3545:4.3624635 3546:1.1354322 3548:0.67151284 3549:0.23004505 3552:1.9297098 3560:1.2044185 3562:1.4629587 3565:0.10866349 3566:1.840217 3569:2.5590439 3571:0.73888332 3574:3.2006259 3575:3.6165655 3577:1.0494763 3580:1.6743518 3581:1.8604953 3584:1.8305666 3585:1.5294676 3586:2.5523503 3588:3.2755315 3589:0.3323907 3590:2.3187773 3591:2.5475748 3592:0.96080047 3594:0.46967426 3595:0.18331127 3596:0.82426274 3598:1.0852023 3599:1.2716297 3603:0.87694955 3604:1.5753736 3607:0.47499043 3609:0.54148841 3610:0.085018039 3611:0.72555542 3613:0.034395367 3614:1.3830035 3615:3.3817339 3616:0.72805333 3617:2.9365432 3618:1.8697478 3621:0.57635152 3622:1.1587015 3627:0.082445741 3630:1.6075193 3632:2.5620856 3633:0.0033627022 3634:0.62212723 3636:4.8243332 3638:0.26442268 3640:0.85548937 3641:1.0443923 3646:3.5467544 3647:0.21229115 3651:0.3983148 3652:0.82581681 3653:0.40688241 3656:2.1852872 3657:1.3728733 3658:4.8821049 3660:0.89902568 3661:1.8361564 3663:0.3800275 3665:3.5848222 3669:0.31635517 3671:5.7869143 3672:2.5929689 3673:0.57827491 3675:0.67855161 3677:2.747107 3678:0.3323037 3680:1.7515219 3684:2.0036371 3685:0.55898941 3686:1.3656487 3687:2.5535598 3690:0.78901923 3692:1.4806728 3694:5.367352 3696:0.11330257 3697:0.39168864 3698:0.88229311 3701:3.2550323 3704:0.57924509 3707:0.24003224 3710:2.2743547 3711:3.21102 3712:2.5733581 3713:4.0808845 3714:2.4803321 3716:4.0074077 3717:0.88617253 3718:3.7126718 3719:4.1052351 3724:3.343179 3725:1.7043847 3726:0.8853758 3728:0.0032671923 3729:0.52688813 3730:0.66414374 3735:0.19999747 3736:1.9302977 3738:2.42905 3741:1.5557981 3744:3.0701296 3746:1.4564997 3753:2.1371226 3755:0.93663239 3756:0.55520618 3758:2.6938601 3759:0.50311387 3760:1.054137 3765:2.6746347 3768:1.5662305 3769:1.6862012 3770:0.98765594 3771:1.3040067 3772:3.2717142 3773:0.23739882 3777:3.4292607 3778:2.6778104 3779:0.96244335 3781:0.79024506 3784:3.3147147 3785:0.99916714 3787:1.2889364 3788:0.31319541 3792:2.4987624 3793:1.223731 3794:0.027259136 3795:0.56311184 3796:0.15800197 3797:0.78004271 3799:1.2936581 3801:1.261296 3807:0.18655553 3808:1.876166 3809:3.3952909 3810:0.48867455 3811:2.5142269 3813:0.67383724 3815:2.3602889 3819:0.12942216 3820:0.3970935 3823:0.96709055 3826:4.4843626 3827:0.77144301 3828:1.7579359 3829:2.981287 3830:1.6269915 3833:2.5047591 3834:0.86288321 3835:1.8632013 3841:0.14336868 3843:1.7711142 3844:4.6975088 3848:0.48733786 3849:0.45642638 3850:2.5253394 3851:0.76182228 3853:5.136488 3856:1.3985699 3859:0.16192378 3862:1.0745565 3863:0.71470851 3865:2.8116856 3866:4.2682772 3868:2.2283623 3870:2.9697714 3873:1.9953678 3877:5.9161286 3879:4.1882124 3880:1.0110867 3881:0.43144274 3884:1.5383976 3885:0.93386739 3888:0.31732842 3891:0.17764282 3893:4.8929663 3896:1.7960937 3898:4.1449928 3899:0.82115918 3903:1.5208728 3906:0.26707533 3907:0.17022064 3908:0.14254248 3909:2.6447749 3910:1.6464149 3911:0.035091124 3912:2.4645259 3913:8.3267488 3914:1.7020437 3915:0.39662376 3917:2.3742774 3922:1.1896417 3925:0.21307436 3927:0.27955499 3929:0.73138916 3936:0.78201979 3938:0.13986202 3939:0.085077383 3941:0.088681564 3942:0.84168702 3943:1.7111964 3946:0.30864555 3947:1.1989409 3948:0.49119884 3951:1.2064617 3952:3.7128768 3954:0.34266809 3958:0.58848894 3959:0.55480623 3960:0.78896976 3965:2.3711464 3968:5.4261808 3969:8.3997755 3970:2.1512885 3973:1.3239022 3976:1.1585742 3977:1.1690394 3978:1.5642204 3980:0.03385435 3983:1.2101547 3985:0.31964359 3989:3.3324933 3994:1.2408063 3996:1.4557612 3997:2.1227672 3998:0.92609555 3999:1.0368918 4000:0.98966706 4001:0.75434357 4002:2.8956025 4004:1.6689368 4005:0.32185328 4007:0.18227102 4009:1.2046582 4010:0.33181861 4013:0.43802232 4014:3.033119 4016:1.2027165 4019:0.91739935 4021:0.67766839 4022:0.37866706 4024:0.71543694 4025:0.84567136 4026:3.7395499 4027:0.36744267 4028:6.3180976 4030:1.1600823 4031:1.2143294 4038:3.3989112 4039:1.5043161 4040:2.8897026 4043:3.5024996 4044:0.062294587 4045:2.9122427 4048:1.8214647 4050:0.98412955 4053:1.6711562 4057:0.54487222 4058:2.1516652 4061:1.0848823 4066:2.3917267 4070:0.097245336 4071:0.73056 4072:2.6458027 4073:2.3606298 4075:2.2742105 4077:1.6342475 4078:1.1241566 4080:3.5153773 4081:0.37934512 4084:1.1611856 4085:1.2444427 4086:0.28907335 4087:1.8705378 4088:0.59185368 4089:1.0394454 4090:2.7154715 4094:6.3193321 4095:0.027138427 4096:1.823308 
0.006987083177533153 4:3.5121951 6:1.0350293 7:0.24022757 8:0.57702732 10:2.4336534 11:0.35530612 13:2.8104064 15:0.92413509 16:1.9973173 18:2.4067082 20:0.99859977 22:1.2459027 26:2.0704556 32:0.803262 33:2.0785706 34:0.8363114 39:0.77406955 40:0.54887539 41:2.7784193 46:5.0954342 47:1.2774605 48:2.5273781 51:1.6110909 53:2.7393394 57:1.2810984 58:1.329975 59:0.65244722 62:1.5241364 64:0.21944557 68:0.063232034 71:1.7912327 72:1.2741023 73:0.92728901 74:0.51125383 75:1.6091895 76:0.64928913 77:0.67137736 78:0.36554682 82:0.14077279 84:1.6444987 85:0.44567534 86:2.1351693 89:1.4850206 92:2.8583696 93:5.6084323 96:0.26522014 99:1.2522272 100:1.4210125 102:1.0249673 104:1.4149027 107:3.9362962 109:4.7616944 112:1.4971927 114:6.1779232 116:3.36289 117:4.3831377 120:1.0954535 121:0.63406682 123:0.99244136 126:1.4125227 128:2.0437264 136:1.8620198 137:2.1542716 143:0.46687824 144:1.2588364 145:0.82589042 149:3.2637613 156:0.48364702 157:0.49965471 160:0.60646135 169:0.87648803 173:0.31856897 175:0.32125527 178:2.0326426 179:2.9323761 182:1.9109906 185:4.5249429 188:0.092876069 191:0.61433887 192:2.1254461 194:0.15025306 195:1.7250074 197:2.7167757 201:0.78701711 202:4.2710204 204:2.8796709 207:0.65324187 208:0.7930252 210:2.5934639 211:5.2852302 212:2.0083103 213:0.8924287 215:0.65968728 217:2.1782095 218:1.3655641 220:4.0034184 222:0.49298823 225:0.71723324 226:0.17276309 228:1.8846518 230:0.22694221 231:0.38378277 232:1.3522128 233:0.30807769 234:2.0309873 235:1.9640685 237:0.41697881 239:0.11896109 240:1.6391255 243:2.1182375 244:0.86629891 245:0.56109911 246:0.17670541 248:0.71668434 250:2.5240984 258:3.6132967 259:0.49930096 260:1.607792 265:0.157607 268:0.83933574 269:1.7507868 277:6.3501773 279:0.68549961 280:2.1004422 281:0.81433511 282:0.51578218 284:0.1754784 286:0.57316333 287:5.820168 288:1.6373878 289:1.10656 290:1.2974581 291:1.0203277 296:0.35493812 299:2.2269986 302:0.54825455 305:0.5420264 306:0.21820103 308:1.5589064 309:1.5173645 310:3.59742 315:1.6400371 316:2.2047048 320:0.017185736 323:1.7527529 326:2.373683 328:0.063154951 330:2.0295012 335:1.18902 337:0.053976424 339:1.0858028 340:0.4311797 341:1.896273 342:0.42778948 343:1.0601995 345:4.4538083 348:0.71234834 353:1.2007016 355:1.2932605 356:0.51195312 358:1.1503121 360:0.27665576 362:0.1301952 365:1.7560952 369:1.6616416 372:0.95211291 373:0.34926429 374:1.6440381 375:2.1231227 376:0.59291422 378:1.881065 379:0.90261996 380:1.0690955 381:0.63249129 383:1.2124139 384:1.8140661 387:1.0460092 388:1.2232188 390:3.3820024 392:2.258364 393:1.1234977 396:2.1985009 401:1.0754139 402:0.11448247 404:0.36019692 405:1.6580466 406:0.57394296 407:0.1544247 410:1.5919459 411:2.0615237 412:0.91226852 413:0.11703243 420:0.5263375 421:0.0056865104 422:1.6444126 424:0.59407216 425:2.1651485 426:0.23531973 427:0.47798228 428:1.9803303 431:0.60560995 432:0.80503941 434:1.1730385 441:0.44929823 442:0.4470301 443:3.2420311 444:0.23574272 445:0.67576027 446:0.014112532 447:1.4688239 448:0.45454744 449:1.6737529 450:4.9898987 456:0.37847885 460:1.3855258 463:0.57427526 464:1.1963059 465:2.0998921 468:0.54911125 469:1.0678357 475:1.9462321 477:1.4390231 478:1.1033871 482:0.57764065 484:1.1486382 486:1.468865 487:0.20840393 489:0.087978005 490:2.110641 493:1.8798093 494:0.32954893 498:1.3427942 500:1.0504752 504:2.4049087 505:1.585749 506:0.02277205 513:5.5172472 517:1.5555615 518:0.078713879 519:1.8602141 521:1.6952641 522:0.94983315 523:1.1739854 524:2.2371585 525:1.760703 526:0.53696156 527:1.4654962 530:0.98634732 531:0.24409036 532:0.15262766 535:3.6765809 536:1.0872924 537:1.3919386 539:1.2584351 541:2.7293365 544:2.3065715 546:0.21114591 547:0.51577777 550:0.94115078 551:0.76908571 552:2.4185185 554:1.0159527 557:0.60084265 560:0.5386613 565:0.62300867 568:1.6700292 569:0.092003718 572:1.0086664 573:0.57149875 575:0.2315509 577:0.92746294 580:0.30087036 582:1.0980564 583:0.34357554 587:0.054966174 588:1.0005503 589:0.62326318 593:2.2458606 595:0.34403497 597:0.28958234 598:2.4954934 601:0.36735585 603:1.4107023 604:2.0431135 606:2.8312371 607:1.3878658 610:1.4212688 611:2.8692946 613:2.0726702 614:1.2369925 615:2.48124 622:2.1236274 626:1.3866702 627:1.5731826 632:0.0023593772 633:0.13560286 635:0.20077524 636:0.81349891 637:2.9425225 639:3.8397338 644:0.67130715 645:1.3435609 646:0.9854092 647:2.2959721 650:1.2785014 651:2.5133514 654:3.3015118 655:1.6084931 658:3.288898 660:1.0916715 664:3.2875144 666:2.1012263 667:0.82768232 670:2.4827323 671:1.5334679 672:0.27747014 673:3.0052071 675:1.277003 676:0.83139241 683:4.0975008 685:0.56076819 686:2.1184297 688:1.7449977 689:0.1681072 690:0.85708994 693:2.3034563 699:0.6732251 700:0.12172046 702:1.195407 707:1.4560066 708:0.60052848 710:0.24697323 712:1.998391 713:0.94424301 714:0.73492694 715:0.83901685 718:3.4732161 719:0.55083573 720:2.4193244 723:2.3068845 725:2.4297075 732:0.094230503 735:0.60754657 736:0.17677306 737:1.3873161 739:2.4613197 740:0.47757974 742:3.7586827 743:0.56958276 750:0.74232215 751:0.41688591 752:1.8798088 753:0.18527623 754:1.1057361 755:0.52831757 759:3.6959424 761:0.18815878 762:1.2089298 763:0.87476844 764:2.5056441 765:3.6546733 767:0.53238326 768:1.2743347 769:3.6368351 771:0.0083545214 774:0.2062158 778:0.28173363 781:0.50979352 782:0.014392717 783:0.40761805 786:1.4060721 788:0.86634743 789:1.157486 790:0.9348731 792:3.4030745 793:3.1012857 795:1.0091245 796:1.0534889 799:0.28170702 801:2.9322479 803:3.3213212 804:4.6319432 806:1.1906835 807:0.24823341 809:1.6150619 814:2.9379265 815:0.39170435 819:0.80174536 820:0.879637 822:0.13163561 825:0.51088047 827:1.6765031 828:2.3026137 830:1.4042963 834:2.7776163 835:0.6840291 838:1.4931761 839:0.73331463 840:3.470576 841:0.57536352 843:0.45330676 847:1.354619 848:0.62270963 854:1.3082479 855:0.38350919 856:0.92344165 860:0.13153455 861:0.59709811 864:0.70856094 865:1.1343715 866:0.67672753 867:1.1398371 868:2.9494853 869:0.20031662 870:3.4811897 871:0.46716771 878:0.17026144 879:0.78095376 881:3.3706467 883:0.21654293 884:2.9174972 885:1.1757147 889:0.83372951 890:1.1546017 895:0.69547731 898:0.78694892 899:1.6119853 901:1.3936342 902:0.19754347 905:6.1912813 906:0.85320795 908:1.2427469 910:0.11839984 911:2.6925123 916:3.1665494 918:0.98550588 919:0.86684573 920:1.1125227 922:2.4932003 924:2.8483701 927:3.2164967 928:0.49473405 930:3.1137896 937:2.4251595 939:2.3358047 942:1.7520627 944:1.0152733 945:1.6266264 946:0.046264522 948:0.44673395 950:0.73983103 952:2.5883462 953:0.84159309 958:4.9685049 959:1.5209541 961:1.1396335 962:0.043515764 963:0.87250012 967:0.57755792 969:1.8285278 976:1.3896964 977:0.61173898 980:0.75237572 981:2.2899666 983:1.1912993 984:0.39142507 986:2.0517399 987:2.3360996 988:4.0512376 989:1.8014174 991:4.8496742 993:1.7541717 994:3.768477 995:0.35850048 998:0.15474647 999:2.7585876 1000:0.087772548 1001:0.8971464 1007:0.60996884 1009:2.1490908 1014:0.73860186 1016:1.6361351 1017:0.79684579 1021:0.6637817 1022:2.3473217 1023:0.060214449 1025:5.0703244 1034:3.7962677 1036:0.57013649 1038:0.34805459 1045:3.8098388 1046:0.50676697 1048:0.73031229 1053:0.97099739 1054:1.2191869 1057:0.43928897 1058:1.4579595 1063:1.1894691 1065:3.5905731 1070:1.8322072 1071:4.1836834 1075:5.3075924 1076:2.5569379 1077:1.7370665 1079:4.9709396 1080:2.2196915 1082:3.5738032 1083:1.7668418 1085:0.019215278 1088:1.978192 1089:0.84582269 1090:0.62345761 1091:2.6669693 1092:0.5815531 1093:0.68245548 1094:0.21765932 1096:1.0349832 1097:2.6713099 1098:4.2478423 1099:0.86513704 1106:1.9682082 1108:3.0387013 1110:1.4759316 1111:1.2890811 1114:0.098893374 1116:1.0140142 1117:0.12630911 1118:3.6792231 1119:0.35458621 1120:1.392599 1122:0.94232917 1126:0.76486921 1128:1.5759997 1129:1.8997835 1130:0.092744552 1132:0.74124157 1134:2.7710869 1136:2.142972 1138:0.31806996 1139:2.4138689 1140:4.7421818 1143:0.64371055 1145:2.7668509 1147:0.22728388 1149:3.2548509 1151:0.32263133 1154:0.92604357 1155:2.8845818 1156:2.1044266 1158:1.1191005 1160:3.4253895 1162:2.9215703 1166:0.45957884 1167:1.2459583 1168:0.1469938 1172:1.6723461 1175:3.5712104 1176:0.7015245 1178:1.2900937 1181:0.89430231 1182:0.30694175 1187:5.1621079 1190:1.7108667 1193:1.1938775 1195:1.021937 1197:1.0053697 1198:1.9537976 1201:0.69159424 1204:2.2085125 1205:3.8950937 1209:2.3046396 1213:2.2778442 1214:4.5435815 1215:1.3594233 1219:0.80920732 1220:4.0911269 1221:0.51604176 1224:1.8197826 1225:2.348002 1231:0.13226734 1234:1.21372 1237:0.40339077 1242:1.1751436 1243:1.6426209 1245:5.9343314 1248:2.4748392 1251:3.0890975 1254:1.7295784 1255:1.7540588 1260:1.32531 1261:3.8911209 1263:1.1849291 1264:0.20445225 1265:2.7151673 1266:0.43198246 1267:0.42314142 1268:0.95211351 1271:0.020329177 1272:0.23504743 1278:2.0626485 1288:0.15781879 1290:0.56468946 1291:4.2609038 1292:0.18531059 1293:1.2681367 1294:0.59311962 1297:2.1339059 1298:1.5736945 1301:1.4178133 1307:1.5120603 1308:0.76890653 1310:2.3348911 1311:0.35072216 1315:0.55653471 1316:3.2700491 1318:1.4545183 1319:0.35196421 1320:2.887718 1325:0.1391675 1326:0.22254357 1327:1.2525258 1328:0.78822106 1330:0.13024202 1332:0.84616745 1337:0.16144615 1339:0.52010608 1340:1.0957655 1341:1.434866 1344:0.073881641 1345:2.5883756 1346:1.6437969 1348:1.2912117 1349:1.1842178 1350:2.9062669 1351:4.612937 1352:1.3347157 1353:1.5282439 1355:0.33286878 1358:0.50156021 1362:0.77979195 1364:1.0520524 1365:2.0107524 1369:1.2219026 1371:1.983225 1376:0.34258473 1378:1.2476578 1380:0.77008975 1382:0.18019295 1383:3.4508832 1384:2.1891098 1385:0.46625924 1396:0.82047546 1397:0.55082047 1398:2.6488605 1399:2.1090839 1400:1.3299798 1404:1.5252126 1406:1.1360266 1412:1.7062706 1416:1.8303729 1417:1.1349887 1418:1.1370305 1420:0.1560677 1425:0.094904356 1429:1.095906 1430:0.068910256 1431:0.76110309 1434:2.8403239 1435:1.6554998 1436:2.3896606 1439:1.0076393 1440:0.0014890116 1441:3.7558019 1443:0.80771959 1448:1.3697252 1450:0.58024561 1451:1.9840319 1452:0.37878704 1455:1.6416521 1457:1.0111938 1458:3.4830093 1459:0.23285033 1460:0.72442466 1464:1.1684657 1468:2.7980077 1469:0.35766566 1470:1.5494813 1471:1.9001467 1475:1.6723163 1478:1.6920897 1479:0.010026717 1482:3.3249424 1483:0.21969719 1484:2.735214 1486:0.72901815 1488:1.0195589 1491:0.33969858 1494:0.59729183 1495:4.0641108 1496:1.6723427 1497:0.84810269 1505:0.21047348 1507:0.82619691 1508:0.18531178 1509:1.4461448 1510:0.87035257 1517:1.0573823 1521:1.4152502 1522:1.1728956 1523:0.53416586 1524:1.3341424 1525:2.9828312 1527:0.12873912 1528:0.10583934 1531:0.22510171 1533:0.27289018 1534:0.84450984 1535:1.7439375 1538:1.0660968 1539:1.8145533 1540:0.14837891 1541:1.6307865 1544:0.017317297 1547:2.6480045 1549:1.4728268 1552:2.4535868 1553:0.24399413 1554:2.4256294 1557:0.84090334 1559:2.0183065 1560:0.2361998 1562:1.4167283 1563:1.8853374 1567:1.9589448 1568:1.9763942 1569:0.32268938 1572:1.1324655 1575:0.72039747 1580:3.3129597 1583:3.8102872 1584:1.0993127 1588:0.75985813 1589:0.6538353 1590:0.20212038 1592:0.30083492 1593:0.27167144 1594:0.016667549 1596:0.30230507 1599:2.5424695 1603:0.21201709 1604:2.5490286 1608:1.5532557 1610:2.40273 1614:2.0841103 1615:0.97900039 1616:1.6676445 1618:3.3059993 1619:0.0059697889 1623:1.3081166 1624:1.8772334 1628:0.73009688 1629:0.34457624 1631:2.8087764 1633:0.36362052 1638:0.46871507 1640:1.838956 1641:0.013792142 1642:1.5155417 1644:0.44395256 1646:2.2705617 1647:0.26381356 1648:0.41077968 1649:0.22347482 1653:2.2850206 1654:1.4187186 1657:0.81572658 1659:1.453339 1661:0.67096782 1663:2.018826 1664:0.53487724 1665:0.66552299 1666:1.0313416 1670:0.05904286 1672:0.88695049 1680:2.6763842 1683:1.6221943 1685:2.3143721 1687:1.6870757 1688:0.33108631 1689:1.3304634 1691:0.25978652 1693:2.0484209 1695:2.805687 1696:1.6872364 1698:3.3515012 1699:1.4501307 1700:0.16077144 1701:1.9519819 1702:1.6750253 1704:0.8989113 1706:2.0172753 1709:0.66263658 1711:1.5593942 1712:0.018058851 1716:0.10298901 1719:0.018669717 1725:1.4065313 1727:1.2017068 1730:0.57199585 1732:1.5300324 1738:0.94605833 1739:2.5281596 1742:0.93028939 1743:1.230726 1744:2.6676795 1745:0.44506091 1746:1.1439011 1748:1.9500316 1753:0.37661088 1756:1.3483053 1759:0.30282435 1764:4.1855812 1765:2.0557079 1767:0.63847369 1769:0.59368855 1770:1.6299106 1772:1.8223315 1774:2.5992155 1776:0.50639915 1778:2.7666125 1781:1.1480521 1782:3.1712499 1783:0.45294547 1784:0.32315317 1785:2.6433773 1787:0.77061433 1788:2.4779599 1789:0.60636008 1791:0.87615967 1792:1.4295827 1795:0.31339318 1799:0.15553367 1800:1.059021 1801:0.21029367 1807:0.63266516 1808:4.9341269 1809:0.87537551 1810:0.17900833 1813:5.7280874 1814:1.6385986 1815:1.50858 1816:1.4378058 1818:2.5837049 1822:0.45318016 1824:3.6538746 1826:0.35599574 1828:0.37517172 1829:0.31083965 1830:3.7907221 1836:0.79444563 1837:1.3145777 1839:0.18591435 1842:1.2170016 1845:1.8093981 1847:0.04542603 1850:2.3190286 1853:1.8431891 1857:1.3708322 1858:1.8708488 1859:0.91815013 1861:1.5995013 1863:0.11989176 1864:0.24795914 1870:1.4032601 1872:0.65918016 1874:1.8810809 1876:1.3954405 1878:3.9808586 1879:1.4639293 1881:0.11791298 1882:0.18955433 1883:0.76728618 1884:0.42470127 1886:0.22904535 1888:2.049252 1891:4.7669234 1892:1.593897 1894:0.47950676 1896:1.0012473 1897:1.7478133 1899:0.91776955 1902:0.080993332 1905:2.0367749 1906:0.5976544 1907:1.688691 1908:0.38078922 1911:1.8552073 1912:1.7753758 1915:1.9111841 1916:1.7725347 1918:0.33386567 1920:2.1855311 1922:0.19914901 1923:1.3425688 1927:1.4192542 1928:0.10658065 1930:0.23593108 1931:0.078693479 1932:0.13723896 1934:2.2375348 1937:2.1086953 1940:0.095028818 1941:1.4641244 1942:0.12498755 1944:2.6917326 1945:1.2859136 1946:0.62835765 1950:1.2233615 1952:0.96829432 1954:0.37163094 1956:0.9767589 1961:1.1321099 1962:0.61954123 1964:2.7860601 1965:0.31787294 1966:1.1794817 1967:5.7750001 1970:0.37580591 1971:2.0807049 1973:2.3194954 1974:0.91690201 1976:0.3955586 1979:2.8980899 1980:0.86040145 1981:3.0353327 1982:1.667294 1983:0.85387409 1984:1.0193462 1986:0.45106757 1989:0.16225293 1991:3.0665858 1992:1.8902019 1993:2.7785549 1995:0.53171855 1996:0.55412143 1997:0.14728101 2001:2.7405272 2005:0.7601617 2007:2.1334879 2011:0.071864635 2012:1.3565174 2015:0.9584977 2016:2.1856489 2017:1.2061217 2018:2.9834135 2021:1.9463308 2022:0.10557404 2023:2.0098968 2026:3.3720379 2028:3.4330363 2030:0.75733483 2034:2.0149431 2038:1.8735293 2039:0.19421691 2040:2.2726834 2042:1.0456249 2045:0.27929401 2047:0.64733642 2048:0.20577046 2050:0.69266313 2051:1.0610772 2052:0.04978279 2053:2.9995573 2057:2.7318606 2059:0.12579997 2062:1.6533699 2066:2.9438813 2067:1.3576101 2069:3.6603727 2071:0.44405445 2072:1.3584923 2077:0.45534235 2078:2.1977587 2080:0.083127961 2081:0.30268013 2083:3.2068291 2084:3.0756865 2087:0.86192513 2088:0.31326628 2089:0.63020545 2090:0.085950151 2091:0.67022049 2093:0.54203272 2094:1.1588112 2096:2.7271078 2097:2.4712396 2098:0.72114593 2099:1.194874 2100:1.7181283 2101:0.81476068 2102:0.30775434 2103:1.8379967 2105:1.0459539 2106:1.8870621 2108:1.0517576 2112:4.3407526 2114:0.064172551 2116:4.3544593 2117:2.7646658 2119:1.4784033 2121:0.33570108 2122:0.044952519 2123:0.47654104 2125:1.0996127 2128:1.9788747 2130:1.9902961 2131:1.489095 2138:1.6297827 2139:0.62554365 2142:0.72255117 2145:0.49931481 2147:0.75570601 2149:3.0997365 2152:2.8791993 2154:4.4849596 2155:0.8319822 2156:5.3607593 2157:1.9890338 2158:0.22119455 2160:2.0052128 2162:1.55958 2163:0.7462827 2171:0.10582739 2172:0.61710215 2179:0.56450891 2182:0.0061859963 2183:1.3728501 2184:1.077463 2185:1.0042856 2192:0.77506989 2198:2.7967691 2201:1.0672656 2203:0.38474286 2204:1.8448443 2205:0.94951361 2206:2.3676138 2207:0.55403262 2208:2.1118979 2210:1.2831384 2211:1.3927854 2212:2.0546758 2213:0.28350341 2214:0.17538854 2215:0.041440509 2217:0.63963473 2220:0.16336562 2223:1.142205 2224:0.34827736 2228:1.0394933 2230:0.71470517 2231:1.2578731 2232:0.62089467 2233:0.26274142 2235:1.7803471 2239:0.36690921 2241:1.6995261 2244:3.1747506 2247:1.5396966 2248:1.4485459 2254:1.1199477 2256:1.6616536 2258:1.4759276 2259:1.5185548 2261:0.44189364 2263:1.4618704 2264:1.2996105 2265:5.4427156 2266:2.1022918 2268:0.28866616 2270:0.61988366 2271:0.91389656 2272:0.63241911 2273:0.49777061 2274:0.22749619 2275:0.025829418 2276:0.43377382 2278:0.034309294 2287:0.060806628 2288:0.14424558 2293:1.3582122 2296:1.0315747 2297:0.85154212 2299:1.353478 2301:2.4198763 2305:0.20256372 2306:0.25081879 2308:1.9600595 2309:0.87930995 2310:2.7619588 2312:0.15306872 2313:0.39307135 2316:0.47704601 2317:0.16863011 2318:1.3461722 2321:0.27749676 2322:0.29387555 2328:0.86208814 2330:0.65699697 2334:0.6524958 2337:0.71656233 2338:1.3869354 2339:1.2761743 2340:2.0385211 2343:0.19044048 2345:3.5642598 2346:0.11210824 2348:2.6210442 2349:1.9292393 2350:0.33643067 2352:1.5035801 2353:0.42724729 2356:0.31229061 2359:0.042860661 2362:0.28420153 2363:0.65306884 2364:0.82290369 2366:3.8447769 2368:1.5125144 2371:0.8793872 2372:2.6523447 2373:0.069793701 2374:0.37459612 2377:3.115016 2381:0.86703843 2383:0.46230537 2384:3.9514279 2385:1.1366783 2386:0.46970558 2387:1.5500094 2388:0.50589311 2395:2.7275739 2396:0.50324935 2398:2.5891376 2400:0.75245929 2401:0.97302353 2403:0.84563279 2406:0.41269058 2407:0.1454237 2411:0.55261886 2413:1.7436099 2414:0.2815052 2415:0.54235733 2418:0.66063619 2424:2.7790108 2427:1.4842645 2430:3.5526156 2433:1.6417243 2434:0.10506535 2438:0.97800863 2439:1.7415603 2442:0.22048149 2445:0.94738477 2449:2.7440522 2452:0.20644966 2453:1.0787166 2454:2.4756241 2463:1.1763638 2464:0.46867862 2466:2.2586329 2468:0.27846941 2469:1.4860677 2470:2.1649456 2471:2.8890758 2472:1.8813037 2475:0.6189577 2476:0.1853282 2479:2.118125 2481:0.78224063 2484:0.39278385 2485:0.4163118 2487:0.69087887 2488:1.1618584 2489:0.59401476 2491:1.0058748 2492:2.0054748 2493:0.26361087 2496:0.29743922 2498:1.2280922 2501:0.49848428 2502:3.3233423 2505:0.22129919 2508:0.74973178 2509:1.4159034 2510:1.7843369 2511:2.623735 2512:5.4343972 2514:1.6326618 2519:0.14267866 2520:0.80033773 2522:1.3077116 2523:1.9006158 2525:2.2604122 2527:1.3900819 2528:2.3545289 2529:0.43098974 2530:0.57815939 2532:4.3459539 2534:0.41006169 2537:2.6587167 2539:7.7194161 2540:1.2492591 2541:1.1362786 2542:1.5747236 2543:1.9523923 2544:0.4515155 2545:4.0286379 2547:1.0609052 2550:0.015133523 2551:0.92464584 2554:0.9268322 2556:1.7771353 2558:0.01007664 2559:0.69647586 2560:2.0310233 2561:0.36623496 2562:0.46883523 2563:1.2120222 2564:2.4522707 2565:1.4559122 2566:0.15358618 2567:1.0482703 2568:0.69482887 2569:1.7281374 2572:0.13616392 2574:1.6006459 2580:2.1628435 2582:0.39800996 2583:2.1520219 2586:0.25185272 2589:2.3879411 2591:2.5570569 2592:1.2491087 2593:2.9397731 2594:1.970768 2595:3.2712221 2597:4.7094474 2599:0.93777996 2600:0.16739988 2601:0.93406731 2604:0.32409668 2606:0.90061384 2610:4.6123991 2611:2.4857512 2614:2.3355391 2615:0.088020287 2616:1.510098 2620:1.144788 2622:1.0229722 2630:1.4383452 2632:0.38559484 2635:2.4266508 2636:2.6204269 2639:2.3733416 2640:0.11948284 2641:3.0593638 2644:0.18748631 2645:0.35135531 2646:0.97807413 2647:1.9165401 2648:3.1396911 2649:0.53596401 2655:0.056921609 2657:0.11158915 2658:0.49534628 2660:0.33574232 2662:0.15178391 2663:0.53742284 2664:0.47183144 2665:3.1494334 2668:0.58844751 2670:0.23746987 2671:1.1523929 2672:2.6926849 2673:0.79336566 2674:2.7286143 2675:0.77982664 2677:0.056515928 2678:1.3984314 2680:2.258074 2682:1.3405774 2684:0.01571006 2687:0.81262773 2688:0.91784692 2690:1.8182952 2695:1.7316912 2696:1.4842074 2698:0.84400481 2700:2.3922925 2701:1.0026866 2702:1.5313914 2705:1.5318385 2708:0.43499196 2713:1.1589278 2715:1.8715284 2718:1.4676554 2719:0.86304879 2721:4.9947696 2723:1.5278422 2727:0.35588276 2728:1.1110102 2729:0.61663151 2730:0.20740445 2732:2.565804 2735:4.6322799 2736:4.6814356 2737:0.02567696 2738:0.74970055 2741:0.28683123 2745:2.0513794 2748:4.237 2750:0.52569544 2751:1.6282974 2752:0.19469842 2753:2.5644939 2754:2.0891259 2756:2.0330334 2758:2.480206 2759:4.3910484 2760:0.56377274 2763:1.373909 2766:1.064611 2767:3.7505417 2771:1.2300929 2772:0.32554933 2775:0.64865744 2776:1.5886385 2781:0.85541505 2784:0.89274764 2788:0.57929105 2792:1.0925133 2793:2.5609155 2797:0.15529096 2798:2.4822919 2802:2.6653004 2803:1.8250393 2804:0.53366083 2805:0.78160298 2806:0.5711996 2808:0.07713706 2813:1.5283355 2815:0.38728637 2820:0.3192583 2823:2.065479 2824:0.90809506 2825:1.7535169 2828:0.071169876 2829:0.71871954 2830:1.8344434 2831:0.2506904 2834:3.0773432 2835:0.073832273 2836:0.73484004 2837:0.35255712 2841:1.1088666 2842:3.4966445 2847:1.9447143 2849:3.421371 2852:0.03371381 2854:1.620568 2860:0.96810055 2862:0.6958949 2863:0.2137827 2864:0.12897906 2865:1.3098422 2867:0.57505512 2869:0.84361154 2874:0.31562129 2877:0.83253318 2878:0.5234502 2879:1.696138 2880:1.4439991 2882:0.65595418 2891:0.37483647 2896:0.18110386 2899:0.79578173 2900:2.5832922 2903:0.49298507 2904:0.79036826 2905:1.0379704 2907:0.65585154 2909:0.0017032921 2911:2.2764065 2912:0.09610945 2914:1.3677245 2915:0.70813245 2916:1.3892206 2918:0.75598043 2920:0.1488395 2921:1.9587504 2923:0.44960791 2927:2.3475461 2928:2.6686022 2930:0.91181332 2931:2.2191327 2932:1.6247483 2933:3.0155261 2936:0.78472167 2943:0.28012267 2944:1.9139222 2949:1.1157426 2950:0.41257304 2951:2.6296065 2952:1.4826772 2953:1.6697314 2957:0.65044916 2959:0.85939533 2961:0.096261658 2962:0.056086451 2964:3.0918095 2967:2.9481454 2977:4.0734391 2978:1.1124518 2979:2.2863572 2981:1.1697865 2982:0.5800122 2983:1.4713048 2986:1.0403528 2987:5.1720233 2990:0.19624722 2991:0.31217366 2993:0.27374163 2996:0.7288782 2998:0.050727256 2999:3.2837622 3000:1.1630546 3003:0.36922878 3005:0.32597771 3007:2.1533222 3008:0.029079687 3009:1.4174752 3010:0.60379416 3012:0.55565029 3013:0.89824992 3015:3.9949965 3017:0.086057432 3020:1.8577119 3026:4.5874147 3029:4.8730273 3033:2.0138841 3035:2.0016181 3036:2.4434686 3037:1.549351 3038:1.1232103 3040:0.64497399 3047:1.304487 3049:0.30283451 3050:2.540535 3051:1.3026508 3053:5.5527844 3054:3.6432209 3055:0.36970752 3057:2.686713 3059:1.8618354 3062:0.18670076 3063:3.3605943 3065:1.0854181 3067:0.067500412 3068:1.5278898 3072:0.88157803 3073:1.8874037 3074:2.8417935 3075:1.3250903 3077:1.4189214 3080:2.1510932 3081:1.8419739 3082:1.1689543 3086:0.97805834 3088:2.1661642 3090:3.3925261 3093:2.340286 3094:1.5587666 3096:0.22828765 3102:2.2159965 3103:3.3474579 3107:0.12442944 3112:1.0915056 3118:1.3601956 3120:3.1607771 3122:0.015726676 3126:1.7210095 3128:0.82259029 3129:0.82093042 3131:2.2344642 3132:4.0468993 3133:0.2585578 3134:0.23998986 3137:3.0804601 3138:0.060348034 3141:1.2418141 3142:0.20263132 3144:1.1004665 3146:2.2950559 3147:1.7901804 3148:1.6645738 3150:3.3762293 3151:0.73070258 3153:1.1135827 3154:3.4446976 3155:1.2393501 3156:0.31413412 3157:2.6337554 3158:3.1004562 3159:0.062053613 3160:1.2824993 3162:2.8627336 3163:3.6917584 3165:0.56176215 3167:2.722074 3169:1.5668279 3174:0.20774221 3179:1.0405222 3180:3.3250802 3181:1.3619865 3184:1.6377553 3185:1.4147624 3188:5.4473081 3189:3.6610773 3192:2.3574083 3193:1.3662534 3195:1.5411611 3197:3.0461144 3201:0.21431501 3203:2.0376093 3205:0.5557422 3206:2.59007 3207:0.82844257 3212:0.35160598 3213:1.8444678 3215:1.3189112 3220:2.9940865 3222:0.010057728 3223:0.12641756 3227:0.11959421 3228:1.8248286 3229:2.3230133 3235:2.5507309 3236:1.930432 3237:2.8420453 3239:0.44094348 3240:2.7539015 3241:1.4436457 3249:0.16529326 3250:1.0331386 3252:1.0833801 3254:0.70459932 3257:1.0159826 3258:1.5280348 3265:0.77557153 3268:0.9776718 3269:1.1066811 3271:4.8489199 3272:0.47867924 3273:2.1684034 3279:1.8073175 3281:1.0791595 3282:0.97321624 3283:1.8319303 3285:1.9889054 3286:1.5014087 3287:1.7120527 3288:0.20372653 3289:0.85927731 3291:0.1584482 3296:0.0078854412 3297:0.78835475 3298:2.1827154 3300:0.21350265 3301:1.3590539 3303:1.3122458 3307:1.6282625 3308:0.91724902 3311:0.22129913 3315:1.2947328 3321:3.6227322 3322:0.90926516 3324:1.7579315 3325:1.2669635 3326:2.8947058 3327:1.4466202 3330:3.802407 3333:0.44558707 3334:0.87178576 3335:1.978196 3336:0.043473624 3337:2.6033356 3339:1.8385439 3342:2.8333514 3343:1.2460951 3344:2.2165122 3345:1.7374582 3346:0.27017206 3347:0.78274268 3350:0.84221131 3351:0.0040628719 3353:2.2415524 3355:0.88847566 3357:2.4220071 3358:0.40545595 3359:2.837749 3361:0.70375907 3366:3.699059 3367:1.7509897 3373:3.2932851 3376:1.3915141 3379:0.14081717 3382:2.2538188 3385:0.90448278 3386:0.98629409 3388:0.11923619 3390:3.8460214 3393:1.502494 3397:0.46865129 3398:0.10311569 3400:2.2848043 3401:1.177488 3402:1.5784705 3409:2.8878968 3410:1.1016508 3412:0.56091726 3413:0.6636287 3417:0.86803329 3421:3.1365681 3423:0.46629405 3424:0.72309822 3425:1.9615895 3426:0.96057469 3429:0.46472076 3430:5.3119402 3431:2.1479051 3432:0.73706746 3433:1.8971578 3434:2.8797493 3435:0.69866717 3438:0.66950184 3439:1.5156461 3441:0.24533448 3442:1.0261387 3443:1.1789024 3445:4.6848817 3446:1.893327 3447:1.0876218 3448:1.5198922 3449:0.92833555 3450:1.0362324 3451:0.40800473 3452:0.5584231 3453:0.98826736 3454:0.56898379 3457:0.88077849 3459:0.95201218 3463:0.14316465 3468:2.5171306 3469:0.1626655 3471:0.89489144 3472:2.1071525 3473:0.45488715 3474:2.2133119 3475:0.29761809 3476:1.9641899 3478:3.7966442 3481:2.5149233 3484:3.093101 3485:1.3870845 3486:0.28231084 3489:1.88468 3494:2.1948965 3495:0.14722279 3496:2.2553158 3497:3.1120319 3498:0.0042584329 3503:1.6544455 3506:1.4552692 3508:0.76449549 3509:1.6723858 3511:0.03428489 3513:0.80175954 3514:1.3235481 3515:0.015982527 3517:0.53363353 3518:1.2266151 3519:0.32877207 3520:1.1507828 3521:4.2548428 3522:0.65037197 3524:0.91277158 3525:3.1256135 3526:3.3785186 3527:0.85079396 3528:1.4507635 3529:1.388007 3530:0.57379419 3531:0.39820445 3534:1.9877551 3535:0.68652111 3542:0.8117857 3543:2.7812533 3545:5.6210175 3546:1.6662158 3548:1.6508921 3549:0.18484595 3552:1.6747732 3560:0.9100697 3562:0.17811811 3566:2.0839977 3569:1.9991516 3571:0.33193487 3574:3.2855535 3575:2.1922679 3577:0.85242975 3579:0.51586843 3580:1.2648855 3581:2.3592839 3584:2.6453247 3585:0.57600403 3586:2.3017809 3588:1.323604 3589:0.37640637 3590:1.9978154 3591:2.4427326 3592:1.8161834 3595:1.0258493 3598:0.50453186 3599:0.37755334 3603:0.76619065 3604:1.6953231 3607:0.3423306 3613:0.46521896 3614:1.4259446 3615:2.281178 3616:1.2742724 3617:2.7357275 3618:2.0854912 3619:0.22246581 3621:0.18361153 3622:2.1643145 3630:1.574954 3632:1.8049164 3633:0.004469296 3634:0.33867353 3636:3.9269245 3638:0.39862144 3640:0.37553918 3641:1.6915475 3646:3.6245615 3651:1.4907222 3652:1.0120404 3653:0.90461004 3656:1.4970642 3657:1.1167895 3658:4.2576332 3660:1.1852946 3661:1.4025106 3663:0.21988018 3665:1.5856634 3671:4.7356253 3672:1.9651437 3673:0.84307826 3675:0.85625505 3677:2.3334455 3678:0.94497079 3680:1.966145 3682:0.80752611 3684:0.44619286 3685:0.92610776 3686:2.1370049 3687:2.0613523 3690:0.45169941 3692:1.5105032 3694:4.5118952 3698:1.6547035 3701:2.8507884 3707:0.75302857 3710:1.0537915 3711:1.6038462 3712:1.9349426 3713:3.3107407 3714:2.0610511 3716:2.4055905 3717:0.11858734 3718:3.0578008 3719:3.2660241 3724:3.4401872 3725:2.2168164 3726:0.22270276 3727:0.088644668 3729:0.75385022 3735:0.80134344 3736:0.74842459 3738:1.9622724 3741:1.5690653 3742:0.10282613 3744:2.5129142 3746:0.62026292 3753:2.2566464 3755:1.2657624 3756:0.85584319 3758:1.1641806 3760:0.10696319 3761:0.43080154 3763:0.22306678 3765:3.1761487 3768:1.6917963 3769:0.53792566 3770:0.48193482 3771:1.2893525 3772:1.8823497 3773:0.093086034 3777:3.3518229 3778:2.0994534 3779:0.61002332 3781:0.6067487 3783:0.094218068 3784:2.4480402 3785:0.4237788 3787:0.81306338 3788:0.13292623 3790:0.24651316 3792:1.4316131 3793:0.65053219 3795:1.0515372 3799:1.2608389 3801:1.0698085 3806:0.34108341 3807:0.4581632 3808:1.7078317 3809:3.6355612 3810:0.91086459 3811:1.2802349 3813:0.46759474 3815:2.004118 3820:0.16573679 3821:0.0057015419 3826:4.2133527 3827:0.42664719 3828:2.8193915 3829:1.980991 3830:1.7491275 3833:1.2741576 3834:0.30996802 3835:2.0723343 3840:0.049019836 3842:0.99193519 3843:2.2426949 3844:4.1193428 3845:0.52989775 3847:1.3666358 3848:0.80302155 3849:0.1238012 3850:1.5545264 3851:1.4202309 3853:3.0098588 3856:0.57412213 3859:1.2960832 3862:0.27584198 3863:0.48448759 3865:1.9889603 3866:3.8175945 3868:2.3071234 3870:3.0119166 3873:0.9904449 3877:3.9715157 3879:2.6534359 3880:0.78026527 3881:1.1018721 3884:1.2626531 3885:0.50808263 3888:0.52741295 3891:0.86714441 3893:3.7414496 3896:2.0371509 3897:0.060882382 3898:3.7477677 3899:0.75333357 3903:1.4093194 3906:1.2124423 3907:0.065561891 3908:1.0140028 3909:1.3526613 3910:1.5330546 3911:0.31495115 3912:1.6959938 3913:6.9808884 3914:1.1580876 3915:0.69570392 3917:0.92703938 3922:1.3069834 3924:0.63057119 3936:0.7528888 3938:0.23471649 3939:0.85311109 3940:0.1340448 3941:0.34880376 3942:0.42062351 3943:1.1862427 3947:1.00852 3948:0.61464661 3951:2.4482481 3952:3.7762542 3954:0.13449141 3958:2.2180734 3960:1.3756746 3965:1.5922247 3968:4.9539089 3969:7.4579968 3970:1.1779989 3973:0.84162813 3976:0.55191243 3977:1.2765456 3978:0.93330264 3980:2.1572917 3983:0.99325985 3987:0.15523298 3989:3.113261 3994:1.5870636 3996:0.56165826 3997:1.3569269 3998:0.91990614 3999:1.2416039 4000:1.1459965 4001:0.58168417 4002:2.5662146 4004:0.84610426 4005:0.86022168 4006:0.03990183 4009:0.80404967 4010:0.9936384 4013:0.74733627 4014:1.5766371 4016:0.94265616 4017:0.61687356 4019:1.0037247 4022:1.598543 4024:0.98850048 4025:1.2131326 4026:4.9228115 4027:0.17083775 4028:5.4223676 4030:0.36744937 4031:0.72167873 4038:2.7907667 4039:1.2950162 4040:2.9239936 4043:2.935544 4044:0.32122231 4045:1.7605685 4046:0.28235605 4047:0.51786613 4048:1.292374 4050:0.55638623 4053:1.9189906 4057:0.30401739 4058:1.3901683 4061:1.8864557 4066:1.8244184 4070:0.18736024 4072:1.9649962 4073:2.0894125 4075:2.4779167 4078:0.37624672 4080:3.3635762 4081:0.091189824 4083:0.029938407 4084:1.0798781 4085:1.1838638 4086:0.37717894 4087:1.771381 4090:2.889771 4091:0.19649464 4094:4.733335 4096:1.8868314 
